-0.3723312752466186
1.2520658420039052
-0.5658258346699372
-1.015353971437484
1.625922813253256
-1.2302326275364088
1.9970926062969019
-1.5076845425344885
-0.07066532481898136
0.8801405507176345
2.362065173220346
1.9705574033808622
1.2770867541958315
2.2927894261348554
2.1939910782573726
0.8550828040065519
0.18210912565736548
-2.1208093083109194
2.8029891575
-1.5205186474475527
0.24838210212459177
-0.5769213925203038
0.48777730763369775
-0.11794463538078714
0.21105329654267724
1.3275780585174841
-0.9612064596375511
2.754184180677055
0.6187421471156025
1.3968746792298055
0.8073807024550155
-2.018047278336611
0.322775063733447
1.4775735488980049
-0.18882010816192962
3.846148857965476
-1.3212116219279766
-1.1004870584460282
-2.3845759042551258
0.4067815590226451
0.14466250216203824
-1.548925184564712
-2.01230491899588
-1.5453301035539833
1.9920191837609151
-2.3027836180546446
-0.3104919989587136
-1.6042561206511765
-1.5152914084124607
1.891070492807542
1.2959530799888959
5.902593815900815
-0.454672038042069
-3.176958595505277
2.0306931009234184
1.226699173012862
-0.8042489159310549
-0.7145963842909391
3.4100738682809055
-0.2606251547727516
0.35314793271131617
2.1833147264584998
2.4974452231522246
-1.6596593060284144
-1.0688881920554787
1.6509892681926766
0.5165359658901989
0.8531756901931344
-0.1771601709964843
0.7672742576570494
1.9571368160361107
2.0239381896304582
-0.1874554653214826
0.7798935836346352
-2.1128111014284308
0.24866394623846588
1.8202213901156816
0.14577189109322652
0.7745728690638549
1.017184059582342
-1.7983950568609457
-0.4828407258496943
2.7870136682569764
-1.2536450519141529
-1.2151186468003603
0.16638330016776515
-0.7206104534088806
-2.3383498220711996
2.159340560278265
0.5123986301106034
2.2138438544674237
-0.19713881695782642
3.3753381475288506
3.522121390150211
1.3550381419012243
0.5636601294275881
3.620826279516051
1.9285176240784285
1.9781822905541315
0.12609203031548144
3.67723375378349
-1.5190941299899596
-0.06913229197418658
3.2145521197156004
0.281199354980872
-1.5361901790534407
-0.31349495998901
-0.5218587833237313
-0.6024626851650816
0.9903070188855077
-3.4612110745151377
2.6191280676605757
-2.205000150102226
1.2056131179854532
-2.0075689013788445
1.7011926912329522
-0.8038368948595578
-1.969071425619741
-0.5593166714334614
0.02327620429578814
0.7766846964207912
0.07361576818837778
1.9679885952920957
1.0568703643015485
2.256517712049331
-2.231953724180493
1.5800984499509385
0.9373457271555286
0.23981067502042874
0.2593141638735855
1.3273377056101474
0.5460313659520084
1.6172418956849475
-0.5190965413294859
-1.6478183784229117
-1.893245442965504
-2.9179087194289695
2.7124859475527936
3.7232542967731757
1.7304748729980668
4.851741891694405
-1.417283968200658
1.9320447392203677
0.8231089414361408
0.33502499729119817
0.9063899490551175
0.7814746668977517
0.08932445038478176
1.0532252599783132
3.697125011505938
-1.0924428843493934
0.5766397093366187
-0.46804397973771716
-1.7430043471157168
1.091223940815874
2.220865260541398
-2.277885730305559
-4.760628427047745
-1.9233037025479345
0.30400707191760046
4.161373605123339
0.5585311024873384
-0.5785712863329038
3.1093038303737197
-0.30098991604878345
-1.2946091752852318
0.39113072449824315
1.7572236812324844
-0.5271432228486161
0.756825493913678
2.197958694265041
1.5830440412467823
-0.5721349410176719
2.380449745716943
3.548473219021398
1.0003398398742265
0.034459051295764986
-0.7711918638900197
-0.4486372852049094
1.6626617680676432
1.061478747029155
0.17373448233293776
0.9223298876709041
-0.023878699068601295
0.6100328429982411
-1.530381405739754
1.9830036921855403
2.8490144676414566
-2.138351106602777
0.01116089483898608
3.620606337241245
1.2787554235219876
2.1519002841264783
1.7779198653666342
1.897119258415897
-1.3576792589086804
2.3828735100286904
1.321666840798968
2.7253166327070657
0.34965896345104297
-1.1491800106578267
-1.5455350231512828
2.7163505184358496
1.0462962672465743
0.7806573722343038
0.6760463478505081
-0.5791413700843527
3.5293030581133884
3.494779242589468
1.410709997504057
1.4233086778046988
2.6184131792168883
1.6068471912375446
0.2673042770125815
0.2550073496960612
-2.3774992069242353
4.83687927513521
0.8505049322540219
0.7124046693222736
2.13961230859862
0.7079891321513458
3.5885253806763036
1.2316156571930477
-0.9394272157615806
0.09759859858785203
-0.5193267831460893
2.9201594890681855
0.6087717408276432
2.5624103794426913
-0.5266333539837222
2.1772947424721134
4.224665121008931
0.3582966276810664
-0.4498405228718383
-2.7221578726114646
-0.7063816963745462
-2.910038956080487
-0.40057963390349083
1.4896401139760624
-1.08072708082903
1.6977320581996036
1.5436866645518657
1.1408710059792986
-0.44548650772813736
-0.7499539346731288
4.530506979505336
2.1332896557496426
0.44223204675788264
0.5952459542517339
4.551997922035615
0.20991462150562845
1.859845242013681
-0.5980311836405712
0.7447769792616842
0.6345018022470745
1.728131059863987
-0.16154600813129327
0.9060882389620082
1.2327267865083382
0.9859462463012774
0.8265769241922796
0.9436150694297563
0.04214674029326304
0.3146139110973243
-0.7257315742919883
0.07906394332861555
0.8037395487615531
1.9639952855208784
-0.16146968251200455
-2.615381963097155
-1.0616604746153921
0.6474089461488514
2.4558430527300525
2.5268728915119762
0.6374170276358502
-0.8108100485201903
1.0302359008074446
0.3765860385287547
0.6688009350831413
-0.5825736840095719
1.9777303872361707
-0.3190101899729415
-0.5104606115714019
-3.826786886511774
0.5991451131239516
1.2126488328159282
1.4249661959608633
0.09977934122459686
1.5143226425118559
0.6775863094572346
0.28523859938492135
2.287418067264065
1.8096000763390847
-2.2145537497428442
-1.1570698956316237
0.7019041450859624
-0.00439861288304666
0.5447943348391384
-1.5452763589143155
0.14910746586178525
1.0862114571080108
-0.7795682707074978
1.7498773469500557
-0.8571000387013312
0.842824208117327
0.06872890693774192
1.6546111247565514
0.8336769895555612
1.2050074267994824
0.4041330505281957
-3.0073448087732837
-1.0257127469317444
0.8138584796529333
-0.32281947737846706
0.82767288528186
-1.7587552485666809
2.424289448838749
-2.3858178670376544
2.002633915283781
-0.5277313132621505
0.4817981028383913
1.5293332199557035
-0.5813367776839362
2.9873428883172304
-0.5153506579798013
-1.0836950682100988
-0.12045297334540916
1.8596758161055817
0.8259906640484844
-0.7855220084636889
-0.49590158036367515
1.3021012926296547
-0.7025677062623555
1.4439099457665414
-0.9136675234330296
3.6434086682094415
0.8310529058239458
1.0703310489821614
0.4375439805848589
4.001713769374237
-0.9667066770841333
0.08438864615705599
5.995793359080993
1.5190648226369476
2.654606851898285
0.06925038729344746
0.1112799483254776
0.7828145765221248
1.027582681030331
-2.279155173490545
0.6539096633892159
-0.44290632157645393
2.091305645795736
-1.075880951361143
2.0994854918970303
-1.518290007109339
2.914613719753956
0.32600414906750463
0.39542186841628646
2.7447416147183366
0.517870313385357
2.498234636879266
0.17408643080181707
2.158508752727875
1.1655609299426997
-0.7950300968818407
0.2725915810843076
0.2192860358030495
-0.06951900780299058
0.32381751083948407
-1.1811017284357865
2.635839995448653
-0.5460861026420522
-0.433445262451976
-0.007244879921864289
0.5349346262179986
0.08448992789209586
1.1033757135024915
-0.13321615414718901
-0.41645569162105867
1.9623350079689725
-2.978889913029902
-1.169733745876927
-0.9235680395267825
-1.1042123531029113
-2.3252643287273465
-1.8671526518374728
2.2066950903819285
-1.0103597702334322
1.0583510098086095
1.6051959378424911
0.32679748428751365
1.334572205522226
2.4274909098330086
1.5276372893609689
-1.8603048076062674
0.46326274835461057
1.1582939154872642
1.1702579579133292
1.2210367514366673
1.175056488145454
4.136865939789438
0.24053146931771585
-1.086596859974277
-0.43912689343552913
-3.704576801038673
0.2691740904608724
1.3626488508962644
-1.365807437999445
1.6677797116153168
0.484520593451522
0.5975982947367233
1.0130435123205377
-2.135326295248794
-1.0160227556995738
-0.4645025537333779
-0.016754657854223476
0.7342185676931374
1.56010438530968
-1.2606327000348698
-1.234233808841402
1.1987632742140006
-0.09052858087728444
-1.116351001747518
-3.0062256383499837
-1.87559134678609
1.9704094275205497
0.9992884137795959
-0.28752358978740444
1.04534076558364
0.6001115890343267
0.2511232361338426
-1.349416128617617
2.844054318826765
1.6642836189714678
1.398238831931342
-0.25267594817541794
1.737939600382398
0.353913120487945
0.8328739382041859
0.2121347172229262
2.0084078792111804
1.5296849607541154
0.4569652742843304
-0.3229033215567292
-0.4325011740560849
-4.149654925151527
-0.5855895896225214
2.1347923488303975
0.6562729132136291
-1.636758348506879
4.1092634619175605
3.1033666309808905
1.0524193779249114
0.7767887079872446
-3.0450869082790013
1.6601543258738825
0.439116325688798
-0.5616409894187071
0.7988664714354002
0.3853883328054093
1.9247658803654921
1.2800137686908786
4.612981183768181
3.1601602078832554
1.3206251239510565
1.7749570115156117
2.8178298494876297
0.44865355045561217
2.158457902387788
1.4996313327636608
-2.1750272441702614
-0.08377085291324748
0.8811587722407166
0.8268803579340211
0.19909852077934398
1.4058813454948071
3.7728395229529896
1.0615001219746023
-0.3962784339575649
-2.0409532830460866
1.5721809702373466
0.7505493036852555
-1.8948970513537962
1.6886485392425534
1.717268576673041
-3.84652666511868
0.014951757262530618
0.39569651657391725
0.22320745090378002
-1.6123196901810746
1.988856584941522
-1.336122180743104
1.177806360857045
0.046260296973459125
4.050128893309866
0.7058453886381875
2.078920109762351
3.775052674394612
0.9723469964343614
0.21661506795878083
0.19760130028703826
0.5666031307158905
-0.02522938205088643
-0.28837872319558056
-1.909231898706501
1.2743491227904458
2.799565223726278
0.046216850426894274
1.8079883917251376
3.255810441248955
-0.9210659147456273
0.2893972744153811
-1.3201699837151777
2.316463057198635
-1.8244877978226626
3.4938417639461985
1.1733678315147167
-0.6295500729801231
1.9960260429349144
-3.0800404233391547
0.7376745063967247
-2.5606863621919294
-1.2928098638103847
0.5785978125511082
1.9065338689115425
0.4654524743169506
0.3978739106955764
-0.08729934441161147
1.5859157937553567
0.96195394605969
2.7677630850412074
1.252442091357716
2.5225029295352104
0.8435035065341978
1.9128562476025055
-0.011894836617034388
0.994155966947045
3.212003404491591
-0.7343299576526471
2.056697944527249
-1.060219533094663
-0.21857702758100794
2.382501198621708
0.010576083994870977
2.3011786614787697
1.4085446128970047
-0.5572691359351301
-2.3800776430812594
3.4214292755005564
-2.3386933061607187
-3.0985400168320183
-0.15048570158133856
-0.19244291810732173
2.2491394619671796
2.091689662267708
-0.9298394955025711
-0.028904175781166108
-0.9740981359595389
1.473284464597683
2.0306303414395215
-0.6123071235759825
2.4959764037934273
2.316919911878118
0.24129772006307615
-1.2744644599120842
0.1858437307190004
0.3981159126848297
1.924327611566131
0.7247833638231824
1.0289005341974242
-3.4414036230274236
1.0557130265677288
-2.496733969594788
1.9412775593330562
0.6596461026979834
0.20395310062235317
-3.2363056234649146
1.3019191267626207
1.8134412819541346
2.2723524230574963
-0.4167763937961144
3.90300988638291
0.9098594939367974
0.811174762582652
0.7023557833452747
0.10853247052847204
-0.7622224019738961
2.4221161754909843
1.2840203977245526
-1.6578707623761881
1.6804249099606974
-0.6022004462490618
1.3288167045856416
