-0.20062094752844686
-0.16501318568781023
0.09960773832109604
-0.13557309920517224
-0.15105606999360235
0.07285373664035635
-0.018108132939356536
-0.2635534722507482
-0.19442769817566302
-0.45167522825107953
0.21136396071891134
-0.4358296024878357
-0.30238637551722686
0.1794315901843932
0.10115096780866753
-0.2758847538407777
-0.21942008791903164
-0.17441631306064048
-0.2138367202155329
0.21774696057622822
0.1993146968429238
0.0786373771442079
0.1731523269735502
0.18064524797892814
-0.19140319656405352
-0.04392369038021869
0.0604541085701284
0.06379914391409375
-0.0987346533289474
-0.30149679886005437
-0.32345285054474765
0.15668328557426245
0.053659697190912306
0.3715838167877988
0.21123930623923856
0.10544083943803581
-0.21737056270968982
-0.12161279317313689
0.017409283857353998
-0.2127680430079178
-0.17675996851137182
-0.022102279724387077
-0.00540921218392337
0.028725843709255666
0.3329900269114494
-0.10294271442769881
-0.10613932382722172
-0.10321348040936242
0.11399539100920447
0.2214166993880838
0.0889525687272807
0.33480924046688004
-0.41300491612629914
-0.38933117872621
-0.13645126206543734
-0.2442374728244057
-0.05440761924264648
0.09421002975320547
0.24073473602169057
0.158180479229786
0.0521072748360691
-0.15488652385592255
0.08839644445089045
-0.03180394078931864
-0.1673296633855596
-0.0862927844120108
0.14816680708543678
0.23510686080072674
-0.11720215600946382
-0.15300293349744454
-0.3884025707004437
-0.008478186457683608
-0.11797653282643389
0.18895274946084062
0.0012980497847043596
0.17122263453009515
0.01741139994814407
-0.058505519449127366
-0.006074986866204387
-0.10758320295310862
0.23154519748207877
-0.27623903681097145
0.22228143841849737
-0.04073346967138265
0.19438895863540379
-0.12174966634146907
0.24499314598994448
0.10339518287704688
0.29476658444391723
-0.4875187782528629
-0.05036538094552921
0.3593850886795841
-0.08045367815394296
-0.05576936919252298
-0.1370208874453173
-0.32373211232978055
0.034390584821873744
0.3317458701923103
0.10071983603941513
-0.10942142642135255
-0.07404978207311227
0.34356335159827056
-0.11071735766417083
-0.06310198741798564
-0.11330548896941123
-0.0848263316410584
-0.02927943709832935
-0.17136428902389644
-0.09476429311575812
-0.04490119248709264
-0.05111441393520086
0.27806499978049537
-0.13485332159803576
-0.11594964809209549
-0.3450131242479988
0.04204721157737264
-0.0502264217859098
-0.11122954666976129
0.08047481201727891
-0.12122512322059936
0.24325747877447507
-0.1402124971363442
-0.003824985771618647
-0.1083283639797085
0.13920250201199183
0.06683426854794589
0.12061376141132124
0.04189720588618219
-0.03617135879693967
0.1770826626815466
-0.29034208642584475
0.12020843882585543
-0.014557614155526179
-0.26819019069585825
0.13876557543720908
-0.010833337934099858
0.38509197955540253
0.01318717671070637
-0.09765738397656111
0.36518084415277624
0.02850720597859486
-0.13126010558402798
0.20315999396873136
0.3561025032556646
-0.25423478326630666
-0.06923900753402792
-0.10311014704597368
-0.22567778147355688
0.011975875190771715
-0.01573272896301078
-0.019642506800441405
-0.08886102828626274
0.32342280190602096
0.012798622984685641
0.16720338060017875
0.3944244338880231
-0.0374347781104713
-0.2822929348110272
0.0188687540315294
-0.038370908836055866
0.1943462020281933
0.04929488067543104
0.162269904001745
0.26335637788335664
3.7944431972909004E-4
0.01259634195831488
0.02400405386055958
0.2132133393897659
-0.06654787556014652
-0.14456567885290528
0.027153128049756142
0.23008954554715083
0.021404182756733288
-0.1526040165311658
-0.10130300996378061
0.28380631631692405
-0.09051874704193832
0.1169670640036729
-0.05644068383699067
0.049726327955218357
0.16496791596912586
-0.3285258520472074
-0.34605177095458056
0.016556518650327513
-0.0868096463785257
0.15494020861572141
0.049597348442851234
0.16954535393312234
-0.04978326074864342
0.20414815906510436
-0.09426496067389098
-0.035264285981631456
-0.07445256839778251
0.03754330540919206
0.17349795663437612
-0.2569285949508976
0.1569841269171143
0.3485737429762251
0.012132740990340306
-0.14285858517544747
-0.21227684273044795
0.0978376884558383
0.30495637036359874
0.12052658242051903
-0.09937783208991256
-0.20925894013780744
0.264711720674632
0.17380654336312823
0.01471608899735203
0.02927043444954716
0.1699970006777219
0.09708407170039726
0.12079791964308333
0.07353924238032028
0.05608486773998589
0.19194349634757363
-0.30536198264798947
0.0904709659900278
0.1120903734067006
0.14677665843363125
-0.1390309590156626
-0.037718465937272
-0.053472417526734296
-0.11299445005492768
-0.13151204500807756
-0.07419462572543828
0.2943873766406643
-0.11795241104664891
-0.07624130344416977
0.05654494586340433
-0.2784047098813339
0.15910474881607328
0.2134739810901316
0.05444990422247463
-0.19536521795083328
-0.09223543555631467
0.2375800775804116
0.17233893554566498
-0.2508651897794173
-0.07569307928439273
-0.2587695159693626
-0.4050942960414071
0.25331828420113117
-0.06227604393517919
-0.025568969890894633
0.042314360125362674
0.10733832140896268
-0.05759086274398171
-0.22509156897314977
0.0223056495121417
-0.1895896982454529
-0.16633791725272934
0.0409992728861175
-0.20052477463126114
-0.15530317437797236
-0.020412019003127103
-0.3614717413110772
0.014875960811905849
0.043088657794306005
0.034506142688442064
0.05723786878706434
0.11238041551413697
-0.07639631072866743
0.0425612707619573
0.30429152205511156
0.07307066919324029
0.028303565525314517
0.16930061533337804
-0.09447929450243392
-0.12657377629147815
0.015914292099714976
-0.027827425649334186
0.1499457709007231
-0.01607699624631178
0.17853159852614797
-0.06506773331044446
-0.16548908903222662
0.09650618293712296
0.050724139244017245
0.12859341995067394
-0.10493060251311428
0.032373812877164135
0.08795822811768869
0.25744478410577626
0.10882369196738478
-0.3006165153696436
-0.038438778648493974
0.16182614559168268
0.06801263340355007
-0.03611211898686246
-0.23188974539905957
-0.26378742973914304
-0.12119326317912109
-0.10836659098848253
0.28687910987150195
-0.393814308705905
0.28801313516221144
0.15338778887499727
0.28365269895066453
0.021187586028938735
-0.19253569543274168
0.2684197165381157
0.06543808622990015
-0.00705662474510475
0.22141478076701562
-0.07202411742925302
0.16976704431065265
-0.1370367192612812
0.13066339345728412
0.332996827208432
-0.06482003490507571
0.2413337287761334
-0.15058017350580422
-0.10470066345617828
0.16243189881358658
0.2310366012034628
-0.19644799013692868
-0.22957581244941228
0.2548426035605657
0.06843007537029237
-0.3810566593898965
0.1887964307794493
-0.2991767388244527
-0.07111176474978162
0.05015348425735863
-0.3054541568143836
-0.3009546438290043
0.21769650879790473
-0.0816597214258255
-0.03944380301419126
-0.28338325355285426
0.18247739255526657
0.1843944669394529
-0.17765564033441572
0.3585829015643044
0.002497989938402348
0.3185853688653371
0.08725450987485033
-0.03638799602155452
-0.1273876117664911
0.1931309392144265
-0.10973980531600881
-0.17188733375695586
0.07113371011314856
0.030313374643561458
0.12507030494355914
0.024602663490175015
0.25007982561210956
0.34001809828581875
0.09412295685203029
0.02935453766964117
-0.1916445642951012
0.18130311290290457
-0.25382340073243576
-0.11313303972541566
-0.22414851425918061
0.15088783008660958
-0.13897872857071247
-0.0058755912107042035
-0.20463885952700783
-0.01645248025824381
0.07048802514380043
-0.18564043892666895
-0.1739259691072721
-0.06988116699931969
0.04209166448132609
-0.24176892291125715
-0.04709400364592614
0.23355365534737652
0.0865846051236232
-0.35882650952833983
0.1083844507133653
0.015217461304380321
0.1420631618857902
0.10994655299908872
0.04811122644286714
0.04331792974998372
0.009260389793843651
0.0963504742825084
0.08967800365528797
-0.01106136734986253
0.0562138931544972
0.3115395636818816
0.024054890545034804
0.05339728632557506
-0.15175877185638564
0.29138213076946196
-0.07487631594323522
-0.1321209948554431
-0.19146238326751652
-0.19023230411252562
-0.03994664747377975
-0.0295620511108331
-0.24173017834819246
-0.12263477612048405
-0.213347151920196
0.15340784924492876
-0.13195745176090345
0.023048911721970565
0.05772902724744797
0.23306097225383088
-0.4206566260366159
0.03503944791490792
0.38688879297150525
-0.036716379401567245
-0.20674879791823517
0.16336809740752684
-0.20274873034081248
-0.022666485858162437
0.021485754669548884
0.14320191947699984
0.25534400082780845
-0.04150603844103919
0.20334864438722994
-0.29252054875932776
0.15140153981939689
-0.10532864653141244
0.26981233590087067
-0.36888182029288225
0.17476592673565627
-0.2145713806203295
-0.015856122748978768
-0.10027900227591194
-0.2757335296661535
-0.31081178477256666
-0.02794144134259767
-0.35127793101998267
0.19360658525501678
0.048372552604274324
0.1527050706380405
0.13551988742215915
-0.07201776981761707
0.09002468488452979
-0.05137950935399013
-0.12571864916816328
-0.23723561009030758
0.15658040777265983
-0.10111429124632407
-0.05894414083930066
0.14719161483646392
-0.26612880152267304
-0.16842909752825816
-0.0741908475357593
0.04053685228909026
-0.15534747949193403
-0.29486124666463553
0.12473126810205105
0.12681207550412577
-0.3170011089801133
0.07386572735592019
0.030986605765867165
0.0273901594631257
0.3174437181753049
0.013114666685557247
-0.0905004096129836
-0.19344000520822294
0.28060956616431737
-0.13443252205739775
-0.2539637739140343
0.2250613502866346
-0.08730222452920655
-0.16656198118531423
-0.010861085084358464
0.14531655087331047
0.08211261181023768
0.08391000636998207
-9.494669044891324E-4
-0.2218909348042999
-0.12279812669549323
0.18678577168471122
-0.13927444778753756
-0.3125527066103159
0.008195751076459028
-0.08619544939645772
-0.2513577722358443
0.09823577752287432
-0.1251720404602234
0.04082730891108115
0.037091320821663554
0.044000994153964045
-0.11954102513713574
-0.10557435138164126
0.4113817109017025
-0.03812300411923119
-0.10289703976335478
-0.08153499417146544
0.2112606737505801
0.007429939800113569
0.0185071103209085
-0.08376349395485838
-0.12376481998647446
0.19240712788596925
-5.750696850469472E-4
0.28408298285749906
0.3448583163622635
0.07565505732466771
0.29826329457779777
-0.13079460745683374
0.30997052726821606
-0.15692909922754894
-0.352140411531261
-0.17943126417341437
-0.387397951205248
-0.08357243576755419
-0.07778265887606936
-0.04640469946136372
-0.15064166334763376
-0.2112228552860377
0.32040204871094763
-0.10614713265804206
0.024047824519962284
0.1137570593700714
-0.03334334067092971
0.17832505491001527
0.031046989602564412
0.35286617916856344
0.028729109489977374
0.18756937593272682
-0.04941045714570921
0.3147004506601492
0.02911165884364786
0.06567133353938395
0.3962779866355271
-0.049068548357822483
0.0924097276564784
-0.12123969261076704
-0.051262873009673596
0.07482275196942166
0.15215553535877097
0.10241532855110695
0.022613169821158054
-0.09413633673600795
-0.012892868219805401
0.11969475792442799
0.1588263345456481
0.3904979930433713
-0.04848995308274952
-0.0038591345973177926
0.026027781170277965
0.20621810743166216
-0.02747759051783351
-0.12603342975005005
0.2940933171179422
0.17351685015896567
-0.04514199330171449
0.2596444485436459
0.16368020694643692
0.3116660488912121
0.158899540392136
0.06689374396108086
-0.3031749918826535
0.07682317530885911
-0.0017080942011827444
0.0180741633653268
0.3277231281314944
0.10963463979058705
-0.15133960852661543
0.08813828527517201
-0.09647678481225874
-0.1811265179987581
0.038946697332069506
-0.26843328936388405
0.11350532669423002
-0.036069105456263906
0.07779259743384778
0.06298340247965878
-0.36362504399976353
0.20991033029908773
-0.03386896733201568
0.21140850226572222
0.015403461673077039
0.02847026507286267
-0.2977915989924949
-0.1114030100688785
-0.08950688524011575
-0.21409799613260463
0.22396460512306676
-0.19162591648081362
-0.009372429032807938
-0.0208333905393578
-0.12384430086595012
0.32351738583016243
0.06182756624551189
-0.07738649011072073
0.20053695567503205
0.16313105104815567
0.06781126120189164
0.27579894770176155
-0.0018463829574917323
0.0048459508513542665
0.18759173549555735
-0.438854811584262
-0.0891933459874054
-0.14460636611100947
-0.17986664858268314
0.013528827705042212
-0.270754617346334
0.12211543882479209
0.13318656023582576
0.01195491752767204
0.11265139292737208
-0.1629516729471977
-0.1153833688803515
0.07909452064512651
-0.222695909514497
-0.12687829462697567
0.20402105154708827
-0.20311082282771067
-0.27966753259915755
0.014431870948031458
0.1291283244019593
0.0037564109270289553
0.18117211027757482
-0.023787233962884034
-0.306818136161516
0.031784327493354324
0.2874873745939762
0.1046001883836445
0.08050952197632573
-0.11879032022314885
0.042053836160833795
0.07148753125061164
0.061884136892994795
0.18908505499897293
-0.19478236408384939
0.07934222508716057
0.057714495602967875
0.10220028015879165
-0.0735605531510074
-0.1030844478795063
0.15877811245858053
0.19887433193108112
-0.057049790580725714
0.13109015265205423
0.006563954255714998
0.019314490793305814
0.05732254548795998
0.061341564076137375
-0.15642211828500752
-0.22050665638394498
-0.07877813748851796
-0.04636670539593379
-0.4425054602378198
-0.09873326149760929
0.2745565531388772
0.005125778125075399
0.06491877604588996
-0.06280616475840432
-0.25095797644026513
0.09553001948956502
-0.22709715123362
-0.1508804767404022
-0.18561284767870392
-0.5479158450483087
-0.15378555060049948
0.2313375623140428
0.0018220852473870425
-0.12726802581739155
-0.2012384341328592
0.05222278348591077
0.18399902122815118
0.002868373979742149
0.12097402382201353
0.034868390409915115
0.24679031652492717
-0.1567599808664111
0.275280830928606
0.09941293869725311
0.03261332155807967
-0.04514463495614941
0.20380062709914876
-0.15067703492646187
-0.011993143887223529
0.18866605634219036
0.09686811276617122
0.1314819844598348
0.5508434484650688
0.029634449235970455
0.22715377997932923
0.22329769729214843
0.021456306951198326
0.6959134801229265
-0.042148043211791095
0.04327593008006153
-0.2005115225208521
-0.2764151174694255
-0.10132850465748519
0.08538423468136053
-0.1766552257948115
0.23054302029719845
0.6912854214023243
-0.08059795167185468
-0.1758469871683853
0.11848964155441458
-0.2735435838710119
0.3372654725902454
0.1334814662182694
0.21040115975252302
-0.009540507545330791
-0.04546757566773213
-0.2526048953273863
0.018909694635257213
0.22252189398892439
-0.12369304948915624
-0.35086277703049146
-0.05744196485728492
0.029049972835160434
0.053428208783359216
-0.38616914637523503
0.0869243534214551
-0.11441620133413334
0.07470795129619771
0.11390095173760184
0.07279188362624917
0.13747862458399113
-0.17828638466357477
0.16775487523825625
-0.26811845854648864
0.039767351521920624
-0.06272435942145513
-0.18658436512798218
-0.004679681522769319
-0.12910010411296086
-0.034974587801502297
0.12126135135094723
0.09592686971511008
0.03717647418256597
0.48207870864763147
0.17271831903825258
-0.11539935515795924
0.31480479126399563
-0.1693534504684836
-0.15901545511415965
0.05099157873026815
-9.250559724112636E-4
0.09786456934770588
-0.2441755613202416
-0.06295529175900333
0.17509002958820225
-0.034387061327697255
-0.04086033026015096
-0.09886440359242284
-0.11929908246834801
0.22180588316349104
0.23475035384610435
-0.14322006333149856
-0.4084340290603072
-0.19061136470014248
-0.17728710885970408
-0.056903704446437775
-0.32666667099450963
-0.04537495819176408
-0.20491375911309884
-0.04010386568554195
0.09522080783100861
0.13488766962472737
-0.028420192815146045
-0.1220664605346344
-0.13899269193606092
-0.011091698530100214
-0.2793047117201224
-0.16090729079010524
0.08062047928179472
-0.3748950530264522
0.029576235696077313
-0.232390696006019
-0.20890146682531546
0.08958894142049241
-0.1110332741131009
0.2840899368806282
-0.0263351929971489
-0.17621543520347993
0.3950140305363047
-0.09765321151233214
-0.15548418308725798
0.034185974911308724
-0.18972956636471983
-0.25922908450725957
0.038116394972878304
0.11906795559898899
-0.093028803392751
-0.14809770400254055
0.1500292941373871
0.06827532602441372
-0.36732888954063514
-0.02217526874184402
0.029244613298681443
-0.28799163927648497
-0.05127722603394504
0.21077468589911066
-0.2250369074745141
-0.07207383089308982
0.052177304512658625
0.1385019790386507
0.16653897301493042
-0.16272170444928635
-0.1610923517968844
-0.1506870525495591
-0.08535543046027405
0.3286816329549601
-0.028429591277579894
0.07793026338041922
-0.0028366515275353305
-0.18523423321191357
-0.03197806259731016
0.06419906751859339
-0.13743179094328226
0.18055233430256695
-0.06789556188332839
-0.06437931451291476
-0.03683050039818303
0.355709630641009
0.08168568563551941
-0.25639054693868535
-0.0031259191645706466
0.17701503929787715
0.22082599285141577
0.26743461490130704
0.0708817373429689
0.2127592577209426
-0.022028087907695268
0.15195295014193536
0.037787986487301375
-0.05929543198934988
-0.07199590816010491
0.198323993117002
-0.04441611335139234
0.09878002398012643
-0.1286227286299062
0.3705763382744395
-0.2859390949104712
0.1176133714692649
-0.3693275312050953
-0.1770447655397691
0.26116706820582525
-0.08050747293183924
-0.16218610892265525
0.01752090185500692
0.07608638924399921
0.14162265779063637
-0.11402973879817976
0.17614576498697448
0.1424180816627595
0.1486422436711546
-0.16696764284674367
0.12808276935032475
0.23844449271048596
0.09965870253022518
0.06794616857695249
0.20204077212811317
-0.1637322314892034
0.13097888262467275
-0.2852022408813688
0.26791538784542623
-0.15671000256657852
-0.21552078709547645
-0.08210247294163281
-0.19404404228579547
-0.1993106595141041
-0.1601437172693106
-0.27556362186043476
-0.04958125910804872
0.06259296585918983
0.14432342484587468
0.4174800471726152
-0.14773049882260847
-0.1287056800097734
-0.3336406413455412
0.1648867544198861
0.3033160839488593
-0.04348672478483853
0.09035520115632031
0.2830324710978529
-0.07274496146981324
0.03746827672877649
0.01413890385589981
0.11471655934495402
0.10973305200816559
0.49086737695210114
-0.13273400315409273
0.13098869917669936
-0.4812540624048843
0.2751446236477827
-0.38632630041588445
0.2386721842042246
0.026589865418072796
-0.27468463224963996
-0.347429762686169
0.18303574468308237
0.06050166252112836
-0.1976081077277051
0.28972880134898904
0.042330366669267074
0.015175271771460889
0.2285759675475413
0.04310660147700667
0.14538696949755792
0.11666385644877257
-0.040300611994201194
-0.1930063576024734
-0.19675855597896258
0.15182627750654465
-0.05522900510891314
-0.3748096126170258
-0.43994393517838626
-0.07367584160524765
0.05251210532106063
-0.004632351125802823
-0.20610291599209138
-0.08448311942001382
-0.1553635264144284
0.12277836294443054
0.10334517059155321
0.12771407060033324
-0.11735735152398173
0.17117547974277436
-0.00816604023736528
0.1372685738063768
-0.021649446806215653
-0.212402839894703
0.06808248699197118
0.19786024596491786
0.13380331885122704
0.032566537829251785
0.2057705035546499
-0.07384748317411438
-0.03945279979170459
0.014666002857759777
-0.04956273437002909
-0.2802369639081925
-0.2687933705413051
0.035716053523757146
-0.047838608044845896
0.06721443668361057
-0.1019928518715222
0.24305150402111242
-0.19540626343157358
-0.18376682142642153
0.12368502224970061
-0.05750435262397725
0.016510186955371646
-0.13998618559358966
-0.3280910054490616
0.06468579427956458
-0.05480272254573376
-0.2625267234888563
0.008699877162475243
-0.06633503343654773
0.05731240244583246
-0.015325112720034999
-0.00675550162824224
-0.044982838972006646
0.1480802841725283
-0.045078868597623084
-0.2624224250123786
-0.006297433790325373
0.0668305326839718
0.05801632226574863
0.1792253178029675
-0.10942621909300752
-0.06824050741146186
0.25397632154997307
-0.31279295936881607
-0.0070872327439593374
-0.17718501324342423
-0.20221491312073914
-0.19002586092921298
-0.21781670905479575
-0.14003749842478108
0.1787135477347483
0.012208501575111469
-0.0976509758927273
0.11434900969620436
-0.047785373095892245
0.09779769231912583
0.04609846844426813
0.07436231440311687
-0.11871263432202088
0.3920148988656726
-0.4098705266344681
0.3588587080023812
0.31219111903784436
0.24189431405337797
-0.3152380727809636
0.1438698676701936
0.2948822813504285
0.16182217966090373
-0.0072975797215875556
-0.02139576557427207
0.08941032977536356
-0.058443547773271765
-0.2106417528216828
0.05932916283881191
0.1200951739430245
0.2631269481293318
-0.15030223758833358
-0.21963670903583085
0.0460991445830191
-0.11098086494149013
0.15448645341566372
0.034254385226993644
0.1022841253417676
-0.15666916552369956
0.03380195537631899
0.1329592233273455
0.1402963403640537
-0.18106390897072094
0.2702377246982851
-0.047786578443770496
0.08377028498591325
0.040495922528603394
0.05853458044048761
-0.26086291481118945
-0.2676293844693992
-0.37670083565038837
-0.1856375316137567
0.038107214512840354
-0.3015000872968163
0.18704137787989006
0.1117916565514921
-0.2029133811872867
-0.09751120189600002
-0.34444227802117294
0.06330264048092282
-0.03601228986271976
-0.007632025452437449
-0.04043759245384243
0.004263806272064123
-0.1156344183242225
0.06517038009580993
0.04918693649692752
0.047356340128978436
0.2129345437454347
-0.12245395924455527
-0.10775738574003092
-0.0617747448366346
0.5183603317180281
-0.16240695922207274
0.14876110177461233
0.07988757261892467
0.15357269374372745
0.250515958548015
-0.07140128722366605
-0.030670450657296844
0.22834656711520865
-0.3588374631370735
-0.15066497475686483
0.2791045735246929
-0.2864227317958822
-0.1446220536932981
-0.3499413648097397
-0.15787815028424948
0.11495227474242234
-0.23801548013603865
-0.3900260627256368
0.0782511012874618
0.34790111679451174
0.11687645507595082
6.451697416293561E-4
-0.1414525926809163
0.002124556369428633
-0.06399131250761511
-0.0677794985640172
-0.23001531962828808
-0.05954046624936994
-0.0065870010014984215
-0.2083810918651081
-0.013177552195734028
0.1881676339157987
0.11892823312632742
0.20131366600271194
-0.003941167233877652
0.004874219097109257
-0.06508191168840129
0.19553834468781828
0.18643540630223143
0.1523287939839865
-0.07074898134864072
0.3743630686533864
-0.03985826276205448
4.8822771801017295E-4
0.018656745528862588
0.1365020854953637
-0.21078439325827772
-0.12786587798214755
0.5026198532074031
0.36013576782035417
-0.05774016566374131
-0.09308322650933012
0.14069854412299462
-0.043959939113873026
0.08364001512089514
0.025273945342422457
0.3274500189398699
0.09463895691182103
-0.24991687503513538
-0.2005991181986066
0.31740378287366044
-0.1178538261524881
0.08440820370613371
0.1428592807363681
-0.147849223452737
0.10264167404350893
-0.10623476802043247
0.08362458423018342
-0.4182828410707311
-0.28003482581580497
0.2839037667550657
0.29825922807187805
-0.021026903095336315
-0.25755811572679954
-0.04463221004707876
0.025981704766735114
-0.06383525814430702
0.0070252585736338136
-0.12409547964806371
0.041049379015282245
0.08416711739130338
-0.1349788634600905
-0.3301039025044446
-0.0648194112792358
0.33648382686668077
-0.18205782523785158
-0.14025254926993885
0.16090263964043167
0.11642325306331455
0.013073783178522404
-0.35238431742240894
0.1988185769504015
-0.04673005133987231
-0.03757330497634407
0.08073945177776998
-0.15507327922411435
0.22298520233305907
0.03397115341218486
-0.0928097918190458
-0.29196394875626847
0.15630051005934853
0.3509539241882483
0.07649895031754475
-0.2390778692406798
-0.09992317518060874
-0.11705489284546411
0.08799360896443914
-0.18087437368759626
0.054462433146087647
0.06996984804729012
0.20459189204191752
-0.1818967144520663
-0.34510419100284695
0.14121654979204504
0.13799305240807536
0.047213930065688685
0.15142781486358597
0.12492908758836965
-0.04215144628041549
0.12209766663426047
-0.07036618042003775
-0.040230008841763226
0.11347307231841458
-0.19625036364124143
0.11881805578131538
-0.0722629653692108
0.1653989960219909
0.3371365580270894
0.3725794368413366
-0.3669046637809591
0.2864765936471198
0.07257822865380903
-0.044931128972530876
0.11965051242483125
-0.027435871957779568
0.46795856221924625
-0.13854358157274146
0.12759480290827735
-0.005984264292762026
-0.007951015998106277
0.13845582068861687
0.07768841647986084
0.011451593234624385
0.03658926401098387
-0.23924046076313893
-0.22530548756037624
-0.08436190832706811
0.23656273128562771
-0.21754383721431164
-0.2081126996798877
0.13124416818944948
-0.11503005607944744
-0.2796230019408766
-0.02702288220729212
-0.005248419438331046
0.07133895614940611
0.15564906190965455
0.01861637671967898
-0.11947528586369699
0.21139375013739758
0.09865944897386894
-0.05767388593629866
-0.11463215245692247
0.1486365377906662
-0.21877930957266065
-0.2318852343644832
0.0021137886038194303
-0.010303571494372735
-0.04570240338743457
-0.16135164603932212
-0.0032724335339912314
-0.150937666864977
0.4370070141639306
0.027739914579793315
-0.118348465962236
-0.02960206394784369
0.02620116036229262
-0.04167499402612561
0.29661257642102945
0.07719043827975128
-0.12517694009907687
0.002354249133387193
-0.2358819182209793
0.07570470997249398
-0.07737781802447215
0.044425972771868764
0.02182171930261117
-0.14373425938642478
-0.2898678678837358
-0.06255620476749345
-0.09502439170482689
0.01472535271000578
0.16452621504182455
-0.216549839362556
0.05051382720976512
-0.03722603067314359
0.05792067308364572
0.11523463047366278
-0.02032979064490357
-0.01317062285464074
0.064626968650309
-0.338100047342014
0.09743515349439102
0.0017992270124032317
-0.0562518950760451
0.02210979760296305
0.17860052905195392
0.007555573835633156
-0.06686021375848605
-0.22126949593447964
-0.019352293916992162
-0.0516289905506927
-0.12089598195743513
0.04970477411935189
0.04995010695819172
-0.04607815031519729
-0.02999313544216952
-0.03215171662634261
-0.0059544378904403915
-0.3292935543487483
0.20544428112833207
0.22502972148115297
0.0016990793022054612
0.2931402788386596
-0.020204442567708102
-0.182419355560433
-0.3663555723728741
-0.11041764916057317
-0.2628360108644229
0.19453645606044379
-0.24230476210996502
-0.06442316713557694
0.006882932761387822
-0.2229124593137676
-0.015290833227001775
0.04336666745000802
0.05466469312543789
0.04296249830510934
-0.10688877080517671
-0.08216997401525022
-0.06144279692575308
-0.3482754190113614
-0.09913027546342124
0.3125443481088261
-0.07064609429158736
-0.09217566117540128
-0.42637774688543806
0.16522758773568322
-0.1689712890177537
-0.011826118641777454
0.05196627271351907
-0.022628199551058
0.07015205670149399
-0.08319898018328753
-0.10494666097250735
0.1682100432041955
-0.03219719061145786
-0.019425099825887138
-0.12265077100905356
-0.027294530529363037
-0.17328250263537004
0.22311249420458773
0.32184038771852463
0.047684005131589
-0.15678732593895012
-0.016217552145516442
0.011554670749231694
-0.22998612897508003
0.30580469879912364
-0.009044230298122291
-0.038019655441082364
-0.0011355590258945517
-0.019377478407848876
0.3470289815575003
0.255959597375812
0.30882694481086426
0.21013065944022483
-0.07085537193124267
0.1417137764673957
-0.21652128270661802
-0.37991727722801005
0.10885062792126396
0.1453958881596679
-0.20630752566350735
0.12378992600757857
0.1435373739577348
-0.011452079587424432
0.17189872839757303
-0.011721974474754131
-0.28763340752090105
0.09919137992650466
0.39767774586925403
0.21515622651040248
-0.3263936979391056
-0.13358721755562297
0.04265835790281404
0.11571015389362597
0.1200422156979322
0.02478611657378181
-0.06546924385520361
0.18289148242550984
0.12419228147627241
0.13314074711703242
0.23780054677278398
-0.124366406661422
0.2037698348268371
-0.14785103950806147
-0.14106392240594512
-0.17041452914630834
-0.0645376473004168
0.0736790880998931
-0.22735766310244165
-0.0453991500925182
0.03850533224061567
0.1204876127143521
0.1678155208005186
0.3576770595744456
0.07416286372568676
0.1665979393041774
-0.13278751314728054
-0.39548053010090606
-0.061286911403795774
-0.1984723379155458
-0.14407242210834892
0.17621386367227343
-0.08157883072218629
-0.1342221520943397
0.11746971449024338
-0.08843222335794802
-0.01401880280015625
-0.33350944699063123
0.08587777523786645
0.039930648098718116
-0.24151336962178868
0.0440711797486649
0.333133946078216
0.07379132454135513
-0.3384808319532657
-0.03854901777789298
0.22401205106402355
-0.26654789216160185
-0.024328056168314606
0.028935435571574256
-0.33786035845951984
-0.04070660016121515
0.23753162013431672
-0.10528264096938528
-0.291279283378407
-0.1604983133542973
0.246898983342769
0.07120452307408832
-0.11240736534415915
-0.08373399097584647
-0.016110373018997537
-0.18607016337909865
0.1825271656729249
-0.11740958359116256
-0.05432715283433685
-0.07393180863122777
-0.17719901859012657
-0.5774225063187378
-0.25517730239880637
0.33909476555567114
-0.3326658746921499
0.3076580975872477
-0.03539811265383039
0.062261270279115107
