-2.428025422303186
1.8092027560431736
-1.3748634650277407
1.575532472605651
-0.3096326664826956
-0.5934682465606799
0.8027838207399687
-0.02636308586431546
0.8058095674550199
0.17611136380664738
1.4488969388533106
0.9138369466201428
1.3395590277329992
-1.2549316652759863
3.1499299042538813
1.2530608877014353
-0.1650327649950799
0.7153397372551489
-3.3973653291027537
0.7999703875763851
0.2285030126032752
-0.1926421385898922
4.528193246663783
2.7075653423038095
2.856564200337747
-0.6019469179987074
1.4725047544990746
-0.9840553025939721
0.2635776067382677
0.01674356523987397
-2.2777129273124803
1.4201449936298252
-0.22543732846076847
-0.5012772030394241
0.7137735774402785
1.7705892932022664
-1.179015373048151
0.6989608965183436
-1.4679380414794931
-1.244004877218243
1.446080557910683
2.455626527667243
2.208133692128591
2.5506316294875417
1.6253063878268725
3.40576296931192
-0.13465610224911573
-0.676076734761226
1.09309699957784
0.7575756841160437
0.5238147573664895
1.9456228812917133
1.812629407694018
2.5180918980740103
0.5947747732658155
2.1652619571962584
0.6136865902207252
1.5310292459583639
2.202074890735525
-1.4740553011745618
-3.809773987008945
1.2308122130507142
1.1716472391017103
0.16134123773079645
1.6276548709533067
1.4249353175506363
1.232675383513648
2.0569456753493043
0.3494046553030725
1.5593035926778522
0.2783611959964811
3.39421303820534
2.9956463811324623
1.5870063062568969
1.3381273408314007
1.2357641841864482
-0.17573638311905393
1.9857376368910717
2.479482137637939
0.014312894678807586
3.023927571603239
0.07056307713899501
0.27644892474909577
-1.9881916475171697
-1.1359933745215616
1.4709631354842412
0.026654139241533592
1.645594770429038
2.9280009115037977
0.6507225738101219
1.1985307334286037
0.11147639496542772
-1.8659959433196256
3.810082061176792
6.405342532165627
1.7643340242878496
1.077974109939977
1.5339447524709409
-0.24842199354489047
1.6560608366593306
2.142974918467973
-2.132750944858169
-0.43762280885086247
3.3614669410691302
-0.6722357437191725
2.4130842927853107
1.4755721588762856
2.7619082500482595
-4.00764014780369
0.636643561398462
0.5217398588153537
-1.852820442069478
0.6133939842614013
-1.6803154991929954
-1.4954554582962891
2.894257150592175
1.6396974524996557
0.2694059389994561
3.517157196345355
0.4134085186440043
1.3464245192968094
0.011871513564970515
-5.244947702580339
1.5507112958149054
0.6352345015045393
0.6663321126241635
1.3862659922701466
-2.5927216151558845
0.967891834643432
0.0656071788028676
0.925861115723382
-1.170109252932201
-2.3475400285942154
-1.1750201361918857
1.1257278392090164
-1.8062358356477068
-0.38102210270348613
4.133542214175229
0.8974635763950269
1.1065332237004502
-0.5288920820475052
1.772189857659128
0.2265177120087425
0.6831966856593054
-1.1580605400871864
0.834409724945631
-0.11818075058466504
-1.6140317401390571
-0.5568148389673024
1.4443525664596033
-1.8461212420245843
1.5036414126315178
0.7321641179032927
-0.5852876767572894
-1.9918929980306312
0.3027740371039658
-0.5539075384317098
0.15502364274441693
1.6455273041372065
0.514246386165027
-2.578574056442373
0.016724005461195013
1.2649266195794926
-1.401604194095063
0.3406761399545629
0.9052546341985623
1.547468039766064
1.182663271097721
1.370693829014004
-0.2999875215717074
-0.3313766211892819
-0.5240594919425771
1.673019070120494
0.9110328383171409
1.5306501119497888
-0.5437778538023925
-0.10378997516150523
2.489005128534333
3.26817620936988
2.4579903743952345
2.119846290127687
0.9435436665300263
0.5878470219923531
0.7127054592749382
-0.14228606478438888
1.2158852829273803
1.57532911931599
1.1420678794715802
1.6918237220840544
-1.597756045598589
0.41489842602303884
3.310975873699583
0.4486234296851819
-1.190894216634789
0.20941850691428443
2.4742086126695755
1.1780156159858932
-3.7117314230106757
-1.7958877215177877
-0.3700358955498184
-1.2358117419744923
4.77970408281549
-0.1303906008171578
3.067207855900635
0.3830891889080341
1.3697149573383602
1.525012663103168
-4.590555555745706
0.809150571147943
0.5118674135555348
1.295008579640983
1.8884564924493488
0.6605745098962004
0.8589115051505198
-1.0080294143576118
-0.1356070273126393
1.2905216610172172
-3.9154930501616043
2.5097286168074686
3.619811163232711
-2.9035227885217925
0.7895131403130917
-1.3711331284594992
-1.2293581235155364
1.113617849286497
-0.07534818350254224
0.49457735820613047
2.440018684718034
1.6803826264329333
0.5381370248229849
0.8111003834659574
2.9232596885389857
-0.3382319151388109
0.671928861801157
-0.6647151607453625
-0.931938094279599
-1.5715986358410954
0.21338789922230406
0.38478885328287127
1.2269747194037715
0.2541593153865508
0.307475495987634
-2.7197647878828466
-0.5893015005236599
0.865186396893096
-1.5737781711519045
2.873561543662828
-0.30155992905572027
4.030589797463189
0.45741587756842783
-0.4084132453150182
-0.4227147854014712
0.7506863033779824
2.8017550820235866
-1.9448136254179877
-1.328972031572934
1.6666980933840831
-0.8253529724960957
0.7882828683545053
0.7821603704499409
0.4407215714843695
-0.2969786789428088
-1.1816823945663615
4.538466284297854
0.7429890974251281
0.11986182693837488
-0.03274407079050046
1.719265698184634
0.24660667876364362
3.875443736156839
0.10461211884213906
-0.6914587258597014
0.9211702206652999
-0.5328145941201858
0.3421116307264863
-1.9567165614965423
-3.4488452707218435
1.862154146769441
1.7294815318253076
-2.1157693970648577
-3.6455086258477505
-0.97056561523052
-2.575198512028285
1.9104275556860508
0.5961368993429959
-2.2493750265233476
-1.9113283116660653
1.6125253442949705
0.8839863014693741
-0.6680371966289992
3.086597015346414
-2.510973757797549
2.226794379022597
-0.7750501352194591
2.743572746838795
-3.0782677683309556
-0.9764076996609243
4.009797197383838
1.8340484845793819
-2.1502460458192063
-0.8242085889328156
0.28636660892215415
1.84645334814171
4.546345095087455
1.6568415130803067
0.4163066061248155
0.2052205491980421
-0.6480258280777621
-0.007808277808168618
2.566778507694008
-0.10910871868589722
-1.0018776212508316
0.6395413130917571
1.043696837273954
1.648736168833193
0.8847754876734364
2.4964752530725556
0.5110482846963598
-4.443329329376866
1.4062185454777067
1.880245740799004
3.356815428962844
1.244258456933133
0.6615508229774121
0.13774860162173763
0.19718307101863486
-1.1986666393455703
-3.8013099952500795
0.7491246537734642
0.03950597301541614
-1.251917976173446
-2.8413529613470567
1.3540482784537087
1.3367635714191919
1.5001887695118423
0.31814939082712534
-0.8759380267883048
0.9712160547994684
0.623030536744581
1.754915930550065
-1.272526624117861
-2.203956672923038
2.7440478151352403
2.0201944445447593
-0.6103929475113306
-1.7128340796531951
-0.21195043572183292
-1.1974672392574643
1.3901201591426786
-1.3170768463579223
0.716319386280384
-2.099140359623801
-3.7296846981172163
2.0141610117911553
1.6326245001235757
1.5396937737138783
-3.779611007696219
1.390958425284357
-0.18811632788477328
-1.5211389438878156
0.25102585965483293
0.6181422067311213
4.728148971106595
1.165802126332771
3.884692501454511
2.2336233344418996
0.9261904394226389
0.2878590129825658
1.4842265452615255
-0.31517617897856054
-0.5147577981280058
-0.9230114758742758
-0.10831468754128604
-0.40076334178923534
2.8506474875432257
-1.0399011484534764
-0.3637991812811595
1.0032727655170297
6.13573186902322
-0.40965855132953455
2.5299197975492147
5.176779825755991
0.39107980330123526
-0.012830782635046445
-0.07777276761406116
-2.5643014508053428
1.261210755226598
3.262669423500739
-2.0318518215211068
1.4435355725166579
-0.7613515371887108
2.3576045221014623
5.10536423329426
2.3163001357849646
-0.08151141951356222
-0.21323032837583455
-0.005989881514566031
1.0554743399826212
1.3384221198108985
1.7408922445532857
1.5888918103747312
0.24258602214933722
2.898192896841257
0.5975490260443507
-0.9808210489767133
2.6992606130680654
-3.595713069895136
1.8476797606702147
-0.44990202867111995
1.956593070967862
0.7956100690728158
-0.3933844598210996
0.9117529948164618
-0.5274360905928392
1.0445472811383778
-0.40402812762756257
0.7508843653025528
-1.0631450258039066
-3.434184183890574
1.2409684142695971
1.2741724205479343
3.4397172774638705
1.1455482570033708
-0.7108422598455592
-0.26797485638345186
4.642992951805055
-0.46825487987844294
2.108392735122973
-0.9743922850954163
3.8711599773983005
0.651349517485033
0.876225451295497
-2.67538393758383
1.1055962491382738
3.9104652116703016
-0.46168426582295496
0.5915861943981249
-0.7745984697521549
1.461874308199612
2.4896924337734907
-0.624443233839333
-1.0896444224949966
3.1182670393129253
-1.0716028212524094
1.581080986937228
2.3483587076577876
2.5141785785545476
-1.3772445086490035
0.7635311684921541
1.4988389264614943
-0.4986998458054839
-1.580888387700054
-0.3581646901550197
-0.022415266025878844
2.269477361132722
1.3225594306364057
0.8380277310215716
0.6002094562234999
1.5721746421734566
0.6204899488341651
-1.4059292214584542
-0.7850001399982512
1.1675592043507421
1.2501502319132292
2.795809750641526
0.6462756121151989
1.5101294852331133
3.9420528132462933
3.6833430495926076
3.6216493721603293
1.4579869309268632
2.469290657918982
0.7056824367399874
3.685920759109329
1.3369584296335253
-1.3148043932659337
1.0742629662875107
1.0845093121308944
1.4541244148206534
-1.0923978988606926
0.7806162959060412
2.3815024360548804
1.0676193352734988
-0.5244766962080831
0.5094103434857311
3.422004014046889
-0.5242665998539413
0.7851783199099294
-1.5471466105670921
-0.2195534726247257
1.5051081380082056
3.118259020632496
0.0034909961814022505
0.4024393569883631
3.2678798250529963
2.57115303996372
1.7644419563788079
-0.42557081306132083
-1.1320487172075788
-0.4955842579326346
0.6964027071533445
1.0275341131545133
-0.06164396056362109
-0.3039184938420769
-0.44377028509041705
0.4362285513766968
-1.9986524675711257
3.197006798209946
0.7517325851005929
0.19613008337519577
-4.652637198732741
1.300544252023301
0.3174371002032421
0.3344263776991866
1.522844912077714
-0.9170819872409175
0.6967638644953078
-0.36287427164844344
1.323029672411637
1.4440846505874974
2.1046052728245774
1.330386225081591
0.6884805472740891
-1.1913147002216213
-2.2407722531856185
2.0899557732200806
2.2246991477068416
0.7997256692873622
0.6404965286296396
1.2680572379202233
2.48340735304605
1.01250867767242
-0.09767633116280539
1.5096614965602566
-1.9863769099274171
0.8803961288366
-0.3325611239925246
0.8001347645793655
-2.526921720299342
0.21579117437300144
0.31545940686200735
0.22943622914739148
-0.9476387139408595
1.2934522715419066
3.1839620444686885
0.9570944732159512
2.2235817992353963
-0.48543462556412353
-0.42650056410852577
0.8041409830526056
0.13567953075598327
-1.1239115735962584
2.4857038126954
1.058723276707832
-0.2755176844899576
-0.37317300750290516
0.6397484400846634
0.7561227918554323
1.7962598976118742
0.9468502897386033
-0.8106526306374733
-1.0713739482582008
-1.3254058482995812
2.3205858444530634
-0.04894190178969615
-0.9059382047974727
0.033205776195252
2.1705758118755103
1.1416040246883359
1.8539549222506893
3.5179963813750015
-1.048705227789645
-0.3642593276223195
-0.8556283839985261
2.2090793035925036
0.7840009133068819
1.9793822973500805
2.8190680235786534
-2.106332484533884
1.863693332284501
-0.0424311381085003
1.7742852832612444
2.1296219018648355
2.262384353458694
2.9357368840048172
1.6779531854747984
-0.4738975054014145
1.4228983351511157
-0.990632456338185
2.244154446410766
-1.440058390181692
-1.2863153194217227
0.7851322950134467
4.514896334652171
