-0.5640677105714664
-0.0982230882536328
-0.9094952219507642
-0.2895998946665712
-0.2902551015241892
-0.8986587879885115
-0.44714300458859224
0.05070429331758364
-0.6676091581036752
0.18982396284815817
-0.22618332654957807
-0.5242595693134524
0.6784088762705098
0.6155460581241832
0.9901457344731828
-0.36830197205070125
0.47473252760667806
0.17369163543484456
0.38799755354705545
0.9453217316155142
-0.8765643574777782
-0.0016113088600258063
-0.12752477448733646
-0.6283502944759476
0.30025968388496005
0.5128374398184588
0.034754831255644936
0.6526872894348072
-0.8055378152076249
0.5003894807692544
-0.5471787055247204
0.6532385271345296
0.3746666156295868
-0.5307542253049888
-0.5127455245195855
0.006134088207107036
0.19703411999142273
-0.6942915759476025
-0.9286053945238855
-0.22238911763439018
-0.08378074755528608
0.8456848965218533
0.6456055365062092
0.15461255754687286
0.2162111301421099
0.4414107553938147
-0.6517532755108122
0.25929656645677657
-0.2526972086710966
0.8601216664821814
0.8513532528726475
0.11204986891442248
-0.5629275857947595
-0.07632904486704284
0.8169160657989363
-0.5071710432306775
0.837399852975858
-0.8171444427824766
0.8500434782645168
0.9916578969149703
0.5761834956564307
-0.38252249317424836
0.0381764932764983
-0.1073682162834606
0.10156207462408573
-0.1370649519126388
-0.30907894480530307
-0.2982105022349364
0.33808784891780963
0.7864017145348434
-0.2670492102501343
-0.8922646526180822
0.6184370863663045
0.3704188597122069
0.3528242928693204
-0.045095262018483684
0.3108852058737912
0.8089916637034265
-0.026548009952071627
0.4128838762103906
-0.06808604223178172
-0.5189558418185136
0.38533825051725845
0.941210442333217
0.21495933502262576
-0.9616443945134832
-0.028385611343880512
0.8775971025150651
0.6004489275970273
-0.7701352391721632
-0.26835829102969777
0.23381945192766507
-0.3272046379164064
-0.41780249601219066
-0.08138678512393649
0.18465807784403765
-0.9092131624766757
0.03564988157734894
-0.21110751909358894
-0.8861381072116605
0.7587904588455787
0.9749078774190161
0.2997217792847926
-0.5891772838358655
0.1614788958146418
0.0925443406001456
-0.4635436401546025
-0.9929588507076483
0.2187134362183465
-0.0826531060619442
0.24940933591522652
-0.056872489169698115
0.2173751821749259
0.019415610877044687
0.3136801473610036
0.6859493238216299
0.8845935199166366
0.039534466453579276
-0.12063926085086152
0.30365265417173304
0.6949629224234133
-0.7039481635439475
-0.41696916023700403
0.9754254523821606
0.26410290386980595
0.49789544497853
-0.39253176361399
0.9945102493189195
-0.7468163383719475
-0.8197623846021973
-0.3949837471552762
-0.5828840395879957
-0.40619568602961365
0.14377772935057354
0.5410653742501832
-0.18348173987299776
0.03987631879684117
0.7790219850728379
-0.6323770264211348
0.22077798004655258
0.06293083601821126
-0.42400187419596835
0.10295898587514052
-0.7558507437946584
-0.07046592706172139
0.670401736091774
0.3718329402656235
0.6663884294261486
0.43426013079088865
-0.5882743702489641
0.7518213393548414
0.27081560566617946
0.20893699853073966
-0.8855180820398845
-0.6252181325631485
-0.37887835712751317
0.7886462097032543
0.8226850913321742
0.14850522035605263
-0.3614456448210668
-0.3127767300391675
0.39317656929065636
-0.3078784230204157
0.3352569773039533
-0.3802293593331618
-0.6321766702390699
-0.38015562829169247
-0.1338258795047551
-0.2930387446981093
-0.6824879427941224
-0.8388508313396068
0.18108021189644408
0.005676223501531741
0.8662528578748383
0.2715017798433641
-0.010073950160404133
0.032785304091506706
0.44159520939708363
-0.633734982991762
0.49884021106330945
-0.9163545931581629
-0.05204899267719587
0.6014284246158998
-0.5692380269078492
-0.9058428230497739
-0.9776907655796983
-0.7716772487453523
0.2138239376040605
-0.44501439327862236
0.30721790298891505
-0.034505539163333765
-0.09775803692858531
0.5588162346246912
-0.7362005204147639
0.559432832759877
-0.6113878943406474
0.4462845481442401
-0.5520440344169115
0.7468564166253187
0.7731536022795014
0.7134805578147785
-0.11418802268618711
-0.3152168600563905
-0.6254220506257273
0.8536979537395972
-0.7901672354878608
0.580621587152605
-0.2010942076347937
-0.37163870419585465
-0.44505333458816243
-0.26696139271747366
0.7266916502271863
0.8968313746048386
-0.13560939968380836
0.48537328338493224
-0.3642402576056105
-0.4179465565661442
-0.782111365538344
0.69688224060855
0.5456930330366205
0.6087800520555817
0.0701645642782116
-0.7468814832676565
-0.9480412338111959
0.7233645546769607
0.8756788556456594
0.8652602854269749
-0.5883052393209449
-0.011112273780719217
-0.524127828630478
0.9492215556955135
0.24982052320067782
0.446644964882726
0.8380879061213036
-0.27110560797106187
0.5732788610475141
-0.055211734710353344
-0.7392636709597638
0.8738846820930501
0.21285343749230856
-0.5428188955458044
-0.0028455418181356773
0.9606223173210655
0.5561488013826725
0.35029176153548836
0.4010052297557951
-0.1632601935178719
0.49196013952644213
0.0032149842894593217
0.15895158738760373
0.5721305286873839
0.8553998988028821
-0.756838301575721
-0.2475297027207608
0.6358741227828979
0.608289805336798
0.7417905973244885
-0.9767109365137088
-0.26521947911677723
0.18491794241603987
0.9242788139351406
-0.9142235865488333
-0.3450928200706036
0.4481772952929599
-0.20622392678944168
-0.2452881676108769
-0.8474694604719022
0.30915587410434275
0.20454741486123962
-0.18668916812908076
0.20602077211948155
-0.7574078531153186
-0.08349871122251273
-0.7945013979632567
0.2995542242104068
0.2549100748259665
-0.7164228455927089
-0.5358910712411109
-0.5512522591789994
0.07539273672915314
0.6070598750657301
-0.831717066125738
0.04322810679251243
0.47802710629954337
0.7259027647341509
0.029982120118176026
-0.7215866523313821
-0.14555898667414402
0.7696581934630422
-0.6713297092546322
-0.541449602860598
-0.31625350313146505
0.165629062023394
-0.15513895543096612
0.7753175214931283
0.38299261526322703
-0.029629551112809516
-0.8126333759131505
0.3010663016549435
-0.8276782784804013
-0.6133132069599085
0.46572534151703593
-0.11695630844697447
-0.9481852763546221
0.9307851210616744
-0.3715745937132182
0.3847002341831729
0.7624001261323461
0.13026060607160117
-0.5308168251654648
0.29245538740065324
0.6910936384905126
0.8621059376385134
0.297674980611379
-0.9089418998121641
-0.9187757635277367
-0.5190469706271938
0.5777622291740925
0.007944415870216659
0.6211951491868744
-0.258731048557318
-0.544610699351012
0.7367616504810814
-0.48928339813408095
0.18324593371071063
-0.9700241493659101
0.5724921979513349
-0.5586602069340043
0.1306391095050241
-0.5327357255970686
0.02537759367620729
-0.4214889239937698
-0.26017754683200467
0.6082251499243763
0.4281072266692201
0.5952557294523735
-0.35715172151042096
-0.40223776636128883
0.3105037765597447
0.08299290834432815
0.6433117795715966
-0.7613985598932695
0.38820080988045613
0.25287151696443866
-0.34766267557939345
0.26988705654166734
-0.10342453571551236
0.7414100865797988
0.5930192235606278
0.5766498717614765
-0.30153601540034747
-0.45288822525431716
0.35516488186749795
-0.5445474612035941
0.10395335902650094
-0.349881472776745
0.048204270584086384
-0.5068421223041826
-0.3371920097166361
-0.2951426253491176
0.7786451273707979
0.35990643683596546
-0.6751432384632585
0.3460233014232781
0.9694688013252526
-0.12596941355375968
0.31093021911107743
-0.8888663631954026
0.8423772965756533
0.06577258465693836
-0.20329623244993256
0.7582791337816162
-0.9001816908486495
-0.3516848075360055
0.08406932709067827
-0.15441169033266067
-0.9277708146498951
-0.7012264175456759
0.3194212031276942
0.8393115417848087
0.636958507602791
0.4584378578463053
-0.9844891869194126
-0.2696778635256676
0.06883727004641305
-0.019303049789349602
0.643286801843481
0.16422255393070562
0.6483895197706431
-0.11328562645689333
0.38240634722463085
0.4281345193391577
0.3321859405025722
-0.266933217442862
-0.2461338956273127
-0.7123580877579512
-0.919139137859486
0.6521984380240173
0.30546885624641007
0.6302465613465649
-0.45617162336592343
0.9956833957100983
0.78060650888778
-0.8529124666671859
0.7157487143969086
-0.30807120376349784
-0.7268937254297974
-0.12743551033493805
0.9083114579049638
0.9240938819688493
-0.2443485554417537
-0.6981025698794956
-0.07808093970472063
0.5406383666830508
0.9244146003835034
0.23628331081186227
0.8885400099924945
0.6772311024315463
-0.8188535526681149
-0.497816919812063
-0.16224528363796176
0.23625572515929982
-0.37965901276320646
0.05487700793220407
0.6013739607001412
-0.8558199609594495
0.3589133566795504
0.97902146586952
0.5788279123940998
0.011126845180685851
-0.4162002367995776
-0.3196854954944992
0.8035101009497307
0.11210433972607214
-0.6021110517004544
-0.8324538035886753
-0.5165535880267134
-0.8556801704195323
-0.0643685385597843
0.026828814911361354
0.19826883440225918
0.0381525864530361
-0.5189454913522782
0.8055951078912251
0.13073014394491977
-0.18230283415979298
0.6900492031965364
0.2837222889704558
-0.5136164610173222
0.9228024042591625
0.7004393144592884
0.6814021676804358
-0.6570554687601509
-0.3669504457127932
-0.09251999542121392
0.23814537173456896
-0.42875902825964385
-0.7248745100708649
0.48907597196309727
0.7945719803587317
-0.8174504837832977
-0.2514350307812454
-0.6158503063995049
-0.9815924880117728
0.4825052354001853
-0.4291490957148816
-0.6407699219097227
0.7383677412938838
-0.2503356644051802
0.12137629259946547
0.042473205551877946
0.4843828192298294
0.8071881494474504
0.05478852936962664
0.36096710798763376
0.7798752115762102
-0.1809909860000265
0.9577512134723534
0.6863132541525221
-0.00842698325385327
-0.08277177961092108
-0.7608247451015846
-0.8248817514960904
-0.38539491316653973
0.8553867116417297
-0.02751432031326595
0.28516934029617635
-0.24461008198090606
-0.21735869264587082
-0.0504931467581573
0.2547085736976389
-0.7279035024702887
0.4467678206387531
-0.44093553902686033
0.4513604087546974
0.5422203466076676
-0.34069540346915583
0.26941746656243715
0.9289093565405009
0.14908384936072094
-0.3059601587972254
0.4721503036834449
-0.7257372578759116
-0.08616428815720778
-0.5595628256817731
-0.7638306475572618
-0.11642260867574028
-0.3532103033540739
-0.4035158442850548
-0.8760348978840675
0.17566617886226754
-0.2482912716557053
-0.039160725374536964
-0.36168424959570045
0.9324438809044178
0.3889060510446336
-0.02795655121676588
0.09612479026091592
-0.049688995339271624
0.2878000728430343
-0.9570470909481437
0.7670989345066341
-0.5069852350891286
0.49682668438613886
0.9514409360180742
-0.031508755223803586
0.6556680228544371
0.36837679576515603
0.5738060596887333
0.47314621011886526
-0.3187538095518925
0.8986930812610596
-0.414784477856051
-0.9333969628615768
0.5150243468272244
0.17742624963697184
0.4019035158050144
0.38002599455866415
0.43905612224671886
-0.8511840703886333
0.602733589248118
0.22924777443667144
-0.5020629524120075
-0.8537735274010743
-0.6568738383711268
0.6062272612318846
-0.3912640422984528
-0.26596443507438106
0.8622416102899904
0.19773859691120044
-0.2578820703681126
0.27563659537205454
0.08470175178370165
0.8471238164152199
-0.6316762154918307
-0.6564167884265977
-0.4689792791939884
-0.27154259220906085
-0.519188953278882
0.5976696851803549
-0.7236905862755236
-0.8315132967835479
0.9420020585482649
0.07900555771696971
0.5347065349627425
-0.9697730286010151
-0.36027378420158795
0.002909970745901269
0.5973804517967456
0.36310690220919684
0.9995823381133773
0.08071544610723436
0.3148368439102778
-0.37192535120524495
0.7675903641852058
-0.8396625271922664
0.6634233958313849
0.3383237882434449
0.44569229482219086
0.53570953442951
0.5247987272648746
-0.21603833736707645
0.6567114287864693
0.9924404283543211
0.9781063393767422
-0.38963867962156495
-0.027446978596598948
0.35275593055849663
-0.6605174739764157
0.2776265647990046
0.7328089928805406
-0.07252179577473217
-0.9982966584992352
-0.8568984340611516
