-0.17830247588531067
-1.7449281321444996
3.0559003351281744
1.3347638440883243
-0.31118695215791126
-0.8684966385175343
1.3520120794736556
-1.4875782398285733
0.9347544832833811
4.418254925838987
-1.3611236095373747
4.181439365991428
1.357352596339985
-4.1339179903474985
2.9405674684414267
3.0757389620351554
0.018703624150262055
-3.8771762590174568
-4.24062963178646
-2.8293871160016426
5.865438791133836
-6.496157910745944
4.35647047574035
0.6403774593189726
-0.9629297331372257
-5.949554827739561
-3.451722729552756
-10.234833418357963
-5.795645737943245
0.8617052510136667
-5.703168480404093
1.177957455915138
-2.8149014713386644
1.8487811862087757
4.470185904922517
-1.5558906700651853
-2.73050360265227
-8.698379382235812
2.5328828987917733
2.1092238606005003
-4.642500744353705
2.374133618204363
-5.674298107455187
-0.8988368140833902
-0.6138319518748712
1.0649869210405576
-5.445386993968247
2.2740097343030965
0.9363092528511614
-2.5688617888617054
5.21736917020154
-5.149093164285799
-0.6917535732584281
0.15223583806953545
0.27432713483912163
3.435594821178886
0.8528848999423311
-4.19648022786399
-1.5835846425372404
-0.22370103548631204
-1.349434180846159
-1.5685037296234157
2.718520920002548
-3.9931906928432825
1.8148130075172162
1.6066912307418955
5.280772100876941
4.23618682294032
1.2587994856528228
13.365160964807922
3.3092615633485023
-0.5385928440989727
0.45621462046650185
-6.57169763945287
-1.4587369598926312
-1.2761039292167127
8.38286641774594
-0.9496526348771459
3.988324085868669
-0.8535436914156607
0.4854984129256916
-7.279246666360157
1.3733895836002934
1.556321253602014
0.021502719011053495
-6.151491493542315
-1.2918969302840302
6.216180016375861
1.1814960246801414
2.8826470787821172
0.9333402163256548
-0.9741552665940016
1.5085469648656096
1.9668331202276026
0.32475810365414426
3.5092015202054885
1.1492215565527095
-0.13478148755721486
-2.053442545757157
-1.1885029950876245
-1.1236819521217332
3.3892763212070176
1.8705956181207095
1.8476257005955308
1.9184375915473253
2.020602814805508
0.891875345263021
0.03250791623868787
-2.9280344230625257
-2.5063221224285153
2.295534794040659
0.9239127499735853
-2.868416867166251
3.3631126947895362
1.3157955267175463
1.3855007140389972
2.639786805447093
1.5070320721027595
2.3097539066543233
-2.7331697444199463
-0.8624045279163916
-0.2970731808942879
1.3044250623950757
1.714759391240349
-2.9525879773263988
-2.001764257318058
2.801101903719398
-2.6047801311821104
1.825387687788362
1.5408952629215866
-0.22987552320291993
-2.5370177469346036
1.1383067993745246
-0.7970715515701411
-0.7337056738903389
3.467163301788311
2.7257255397468287
0.6308006935667662
-3.369845686046248
1.7812928698784685
-2.4059441268329254
0.0431683333098698
-1.148040139912415
-0.9299388110232538
2.5724746247744563
-1.6189060144971754
0.8360950662422669
-1.5572764912964843
4.219838244521947
3.829454505909016
-0.7147662497756109
3.190700941209239
-1.3948378047351158
0.07858581184962177
2.662110187917379
-0.33591274153414763
3.2650576075676003
2.6692323803975153
1.8602711642779377
-0.642664213407647
1.5825904331209029
-0.12363383683183182
0.47156700206372404
1.7750190690581333
-2.4301921449717234
0.27620312422957016
-1.2146378570305973
3.327131249219593
-1.7648749852577255
1.80583414543291
0.7116883298144199
2.479528181048111
3.195306657739256
-0.8459300714772
3.0910184597509596
-0.11248578766324058
-1.4894154220897589
-2.3240486271437435
0.11296975714717994
2.047411527726588
6.629336896342786
-2.7886479646954827
4.6302149434925965
2.144709356480348
-3.131928741521365
2.0726572843388684
-2.2299642927059016
-3.4554008160156826
-0.12924565632874274
1.4085687816868762
1.9504786713524511
5.605678047881362
4.168730431870005
4.013606548563249
4.074812705886791
0.40374103198431865
3.7897619105901015
-2.567569455348304
-0.9545753041564153
-7.105549642447125
-5.819989593545358
-1.3828466093216794
1.884860187776782
3.301958900905896
1.6555230468467015
-1.2961482811034755
-5.943300294567968
2.0220152680226278
-0.905576326631464
2.5469246935201384
4.9898343612074365
0.3851637167500215
9.632568177501103
1.6064464402606875
-1.5575197844542832
-2.7254901883198537
-0.8460079183160294
-1.341796341775824
-1.1363382515714744
-3.5704612301067096
4.990221561085576
-2.3000819594770925
0.18261573764630845
-1.836823680139994
-5.8459081600578875
7.646532466937459
-6.773544169302113
-1.9411502844151767
5.22971312613337
0.26378197913375123
5.052813436229181
0.8761927806541179
-3.120771681652474
2.4495903302128963
-2.6194783276594853
2.6230123184604333
9.771452743059681
-0.1835217284802071
-1.5888279773832474
1.7900556509612053
-1.3271333190517225
-0.8392972978304054
1.6298447167881087
-2.0066034470579535
-2.2763647454666334
-5.437495169144259
0.7933314236920312
2.0626408654250508
3.1016893594186286
1.9436935899605658
5.693585664412359
1.590457548173289
-2.1228597264824445
0.07199373020919064
3.5684368440154834
-4.485161872433377
-0.5290237058552546
-0.6019848514166775
0.973187186357626
-2.8724077299643627
-0.5611807486694232
1.8353656734626802
-0.6595642701252461
0.6419180324898827
-0.4834129844404327
1.4708523561294435
2.5719076780634076
0.3599229113185932
-1.0877112903674444
0.034231749755301966
0.30034018629953263
0.5534508448440877
3.3520015313350506
2.3413752157110714
3.202311101729703
-1.1210732794138298
1.661582312460823
-0.5767352278668174
-2.5772627596385584
-2.010229061754006
-2.6250296730208826
0.06647864422624261
-0.3670807961899094
-1.1581685282126948
4.819991835792256
-0.8302948769106901
-2.546435845335819
-0.37883759531083105
2.1545802613003056
-3.316740381214161
0.6490381728517903
-0.5554914661202326
2.8492933305161072
0.44075966152898416
-1.2865016116469663
-0.6701459313563544
-1.2067487323785855
0.7057500891066406
-0.6611717124579003
-4.21567041247112
0.35211670063015044
2.116974645072373
-0.06370301492987429
0.26901403917010347
0.8453458209765276
-2.3926217620187704
-1.8012526959014816
-1.285081358831409
-0.5734056843446291
-0.8971104649317914
-1.7052175543779897
-0.8370410795040889
0.28912078600956925
-1.362024607629012
0.22424195324642582
3.374541582413981
3.2168135515026437
0.07892505262758553
-1.208323592063219
2.953490540222663
-1.3584004412197452
0.8946298795741806
0.37410527518205916
2.8082869590092843
-1.9405599197869354
-1.4574495887614052
-0.23187643296506244
1.406434444915527
-3.5885407765864414
0.4816276387401893
-1.7668751085503147
2.6844843781466365
-1.074032462258379
2.5668327864596634
-2.089950211432174
1.4095501693556252
4.391433282206384
3.740830940240006
-1.9609952515047189
2.582170469932244
3.6824789412527337
-0.10752176661536184
0.3049227853553602
0.18900087160368484
-0.7467353378537094
2.706527102519633
5.185622259893267
-1.7724016092669324
0.8616812829957274
-2.480767075350174
0.9737917106194358
-5.088319752448249
1.203747164072013
-4.659404898995843
1.749072704605168
2.1523476491171114
-1.4668800691098094
-2.9489335551674074
-4.096057737117095
-6.305979326608083
-1.5200735988818626
-2.6969035340989356
0.9487751029135574
0.1818614221253878
4.134163214086654
0.9241847154581477
1.4078151964928258
-4.143775482690119
4.081326141855478
0.8544028478154893
-8.081786879071046
-1.9631006046905974
-1.6167721330116842
3.3776163385201903
-6.44186527639026
1.6790706668057358
8.103325241650909
-0.09492709969659785
2.9976496774865478
-5.071190060566758
5.64257297525006
1.560345352396488
0.5873158760624069
4.455638266189492
-4.659984920412121
3.282436946017002
0.9135188681086186
-4.323745853691568
6.591491181544713
-0.8258251128076513
7.522810004483961
4.842535508177
-1.7577940207275033
5.805197428668982
-0.45064147367474505
-1.6696942879182977
5.776928511113806
-2.295619794666444
-1.6954823838010797
-2.3988736220691074
4.922060406717794
1.4764302257171096
-7.869925396513499
1.6009724764664688
-0.518564408985678
-6.055238071358648
2.9905291794196023
1.8918352499794793
0.25289626513286234
-1.5107545907014246
7.749608875952643
2.0806808451099705
-3.931306189730684
3.477415022703242
-0.402287675679883
1.6609612640611084
3.219485040264371
0.40925184828222294
-1.6245538934827968
-0.46698092516317213
-0.5288215883970756
0.7663286263882229
-0.9659458051207817
3.307355263595857
2.4061690036918906
-0.48843652888442035
-2.0464439693089216
-0.08992223398619781
-1.4721881215001509
0.274039059879843
1.23777289625819
2.4669870522157233
-1.2089237525341832
1.2077584573559919
-1.2839001455590724
3.03085505601034
2.798437164984512
1.7270040634496913
0.1410793914088423
2.871628204147534
-2.6974258780893443
-0.7705426810889627
-0.3043142885453505
0.5591841360624283
-0.5975178143435327
3.638314509398483
-0.9978927205203896
1.3174514250239806
3.354015425731745
-1.6396241027513212
0.7188480645439103
1.0926854045587757
1.1331379198386184
2.297529436013858
-0.5983314393942939
2.501539447552486
1.4390304966269354
6.053761150973451
-2.4880556917581775
1.1753611589709962
-1.2048759744423783
1.9170124298378342
1.203822862198607
0.22443404052173288
-1.9183304879414407
-0.8251646454906209
1.1182515628736982
3.2561213985301354
-0.8989676125174274
0.8545830916308491
0.4479418919731315
0.1772362973370215
0.7073870997156474
4.693630345508719
1.4991645036754169
0.0831343474448396
0.40732238670091914
-1.9901067328969662
4.7719026746813915
1.1345521913063505
-1.773948790882247
1.2128960221703418
2.5748698676580606
2.0329988246649853
0.8824099417340283
-1.602600495433398
1.822937660058538
0.5958328911332863
-1.341697655914674
0.25055814410947175
-0.7000153539228497
-0.8122311203086828
0.03716416282247548
2.63713792493991
1.8531748658636182
-0.5745547445440238
0.8222850690506627
-0.832582778173564
-0.7947922889054055
-5.622437697745251
4.585853109971183
-1.1121789282524945
-1.5461990028304582
2.0748810733640997
-0.0747357114521674
-1.5455894582477878
-1.4843127589951757
0.5259974402362217
6.4639417860904835
-3.5563210992978105
1.4673752506799773
3.9861657644535486
0.15119535605806456
-3.311489126230142
-2.4755334854273627
-3.754499681506258
3.2498467330922054
0.02257326978132168
-1.1163373349663002
1.344157046703097
-1.3746487690549871
3.9895435894493856
7.635576760278012
-1.866001862979329
3.607062217621176
1.1142134771753827
0.5972531027896317
-6.25852555994376
-3.137973380572366
3.4235429638985497
-2.1716892271028123
-1.0357161454444872
-0.9778234328129454
2.013067162752977
-2.7374452204034787
0.9370418243640293
-10.001382480703148
-0.4004678008473883
0.5550515083766792
5.2482739771179725
5.857450991281038
4.8399899516434335
-3.206833756782241
0.515553933891699
-5.17581655825554
-2.345662887777653
1.1948355366965735
1.1220767911738085
-5.050683878586791
3.677594822132351
-0.868527346502534
4.639363794838981
-2.6121009449927146
4.957124808985194
-5.320496690781108
-0.9000177510190595
-5.56223123781057
7.208772449649044
0.6161885617256913
2.498928813198533
-0.8942559137039217
2.197247078931407
8.096386357857257
7.607191284257823
-0.6961399023344021
2.520152078803094
-7.572694358490116
-0.3739216761078552
4.029342566740802
-1.4382757058778166
0.4441916229108531
4.192099943630872
-1.0515972102431825
1.3423863149086956
-1.5405391175752954
-0.9122855915739716
3.587612005494023
3.4015392458346847
-1.221873540935713
1.1296138240891989
-0.2801774184629203
0.9757761991096956
-0.6094088933083605
-1.1856646532323167
-0.5447964990901972
-1.9818824821255905
3.4825696605926098
2.2629871270901347
0.38229624481504065
3.2663149879911653
0.8164557336848852
-0.19154500039723166
-0.355076281973591
0.5436551319837795
0.018969715393052256
-0.6550124673729862
1.6920005671961422
0.03139259825454588
-3.405609478952321
0.8717730236469238
1.1148861419453029
-0.9772508517552704
0.26122024396019894
1.1622234521112218
-1.1896761150032042
-0.9639069447316221
-0.35914594353176443
2.5358346011651927
0.9494767536090596
-0.8723581508972551
0.7278302856652781
-1.6373060183603272
-2.486650483784378
-1.0112248196959648
-2.6501783410142075
-0.5258811097903169
-0.33396314729254184
0.8322043513267408
-0.7999365733436458
-0.9194301742567226
2.528798934036124
0.4326745428470884
-2.324768390344326
1.8852034724348932
-1.9138639409006808
0.5952687705155604
-0.5867777082091843
2.856593130105191
0.8944959212555724
1.3836255135667914
-3.2900729614434647
0.4559107669404029
1.4805877371264984
1.2182198546330927
0.8034735219013883
-0.08974791813265148
-2.835627587155505
1.5400573576196839
0.9389349155130988
2.9875725754392337
-0.016015816747200873
0.3135008244140697
-3.6173663223940005
3.718044983210179
1.4885448653980897
0.9863800969293386
1.5965451495276903
1.1102485640653987
-1.166137525044301
-1.2754135958776727
-3.4919989038853214
2.910941760923028
1.8138863973870831
-0.07517978136789327
2.8048020633656954
-1.9825120455912133
-0.8273012852964962
1.5187381048444784
-3.751894227014544
2.2091238094430095
-2.7734069469020053
-0.18204385177031468
3.7598678913714854
-0.7546107947623972
-0.6020796915984061
-0.4026374162183455
-6.531217956293652
1.558448533306897
3.036524757221322
4.681204670270519
-2.9630219607438306
0.5384345284807952
10.253875628800424
-1.6976595012852342
1.7725094237042671
-0.235872332335197
-9.374695708590819
0.7439656104125911
0.8972276475758223
-1.1502810572964906
-3.6079509164325163
0.40124133057317546
-1.9405010413872308
-6.480434069940561
5.408328808816881
8.480666778674367
3.2004386036312718
4.480755477320476
-1.6242928197968038
-5.913786052392062
4.984055988285048
-4.252383615704095
-0.36310441579212704
-0.4116324777379696
-1.0879074218864089
7.024007106635763
1.2686998711005246
-3.9199514888545552
5.517264306346346
-4.62265016538307
3.409789247282195
-1.7539331778438167
-0.3941559374879571
1.4351656601751632
2.104142749831285
-3.887528439754805
1.3381163490759254
2.7632954042509743
-6.330114455755558
1.5115930849197368
2.8288846734781643
-3.3125737087610636
2.1080450997109175
-5.462866453856604
-6.030816369808592
-2.5050441092701137
1.151112302828011
-1.9353868793505435
-2.010169771634463
2.859190406881835
4.041431089990348
4.1246366268736185
-0.46870199405521284
-3.900453667465201
4.070058477816772
-1.4499968985716616
6.180515014409371
-2.3389414566927695
1.2255144120274377
2.5498188115596214
0.9192177653445415
2.9322277712057607
-1.2848140897058336
3.789356674244483
2.189704634526246
-0.8962714199375581
1.6678366914291691
1.5709983321423742
2.8969614938447243
-0.9617740091094681
-1.6754141388550274
3.5442599555680925
1.6867654243989647
0.10124177585582961
-2.368810097667443
-0.8492485091335631
-0.9117305008497082
0.6356218944526543
1.5198299673456745
-1.5075068663582147
4.693357529093272
-1.3193758022011721
0.30255496298934215
1.7928981825361892
-0.7783491912541519
3.1214721926016162
1.4673319159049876
1.7658735938336647
0.7159099856437169
1.627157318666142
-2.415751706030019
1.1244764188429548
-2.1944777666804804
-0.7035501752660893
-0.2155262291284089
0.1267622983426493
-1.858053088188145
1.9292136721344915
2.5682506042979627
-0.5195644533144272
0.5044412782957168
2.77538591692906
2.501166001060402
-0.1759867874334503
1.1376445105138255
-0.8843862214681089
1.7457949641618051
1.6447861468074003
-2.8150776820097976
1.573818444054195
5.065425630986378
0.13542076443065487
1.2617427027400416
1.7842894181530728
0.1457487096756579
0.5448376630189034
-0.5912472593115589
1.6184957795666164
-0.058878878359368336
0.34976892266112125
2.0094262272601178
-2.6084456136618397
0.4252216516690328
2.0602805598755265
1.509701831929078
1.236501483635227
-1.186484791501099
1.8640026781123198
0.030028135876462803
-2.1768232828559144
3.40644805502295
-0.7366503773996023
-1.5337083240184022
0.05743662131435523
2.0310733500488793
-0.7064432294153318
-1.3321425021977382
-1.5960141617946202
-2.692046424740779
-0.8634206044737226
3.4877671869688567
3.5421472241382257
2.0309057286571757
-0.02824667167970185
2.4065205327844557
0.045378416469427196
4.2570337990667335
-1.17171850541733
5.6137371788308545
10.229294336213071
-0.24951990793472945
2.274612364938771
-0.610832474391608
2.0640863232083424
-0.7859827773230339
-0.8020174345209812
1.4361370961789992
1.256424690978072
3.20688861547334
5.665374976978694
-2.285443520335734
5.637341324224344
-2.1144554315856645
0.471503941667222
2.986040354670611
-2.6511447528761165
-0.6417804859869551
-1.7325232917160773
3.7072443787017977
4.237248302865897
-2.6656148078940634
3.003886547260305
-4.951128289896007
-3.462802842510456
-0.3307722732575855
-3.8369943136666014
1.1835372193475653
2.50293408222465
-3.3969454999636786
0.26742879779795437
-0.907427263357522
2.7269369522028177
-4.0544846017511045
1.3012430557419912
-1.4360351475456643
2.553649234994171
-0.24703304426193684
0.16844212696946448
-11.999241451995903
-2.9759143300128863
6.540223323845186
-3.4881865427894456
6.258237109063362
0.029668230032592335
1.0889822298937721
1.8431113795372474
1.046996226284833
-1.4084472436660809
0.013351652066940334
-3.083357312482933
3.5234699882504263
2.2997095177591125
3.680979728487942
3.272379232664597
5.038845692767815
5.7184161982482244
3.4351931446516195
-4.90597869810181
-2.126526786321087
3.188794774907996
1.2553589724310987
-3.5018566854718083
2.8056388900141562
-4.344762078841547
-4.830654238637915
-2.4076723653502374
-3.3568890808929948
1.2279016927538575
5.538457979871235
-0.7457715124016102
1.1818273831792427
-2.419063868167899
-4.5364211521783755
-3.904605918314155
-1.0358943949283423
2.970282329050718
5.799668972133646
-1.4993360078286535
6.01238995247731
0.2447393212099913
1.7090489789000833
1.8249703387765672
2.6248120514943345
0.5340527088343174
2.4949380181564145
-2.08581839157564
4.033790822525987
-0.6846791164411457
-1.4248645469267927
-2.16354689661434
-1.577343738111047
1.589637025557963
1.799040645482714
1.545313548108291
2.087732122548457
2.876945365816098
-0.7124402311350551
0.24904570199898435
-0.5653926133919368
4.147534618223804
3.447993451497073
0.497333183137206
-3.7111733898849555
3.1090829642798385
4.9044620519060285
3.6182466362204706
3.874764733991794
2.7808524264325376
1.6649096040653455
-0.4100928496307312
2.4563338285376557
0.4313616157021909
-0.18058259196401893
0.14863981192576758
1.5505016884793128
-0.22070924619943244
-1.832156589708629
0.015881515096748622
1.5937463619464909
2.900160631115096
0.35128122639485004
3.1537856658000907
0.23291312697922817
-2.7456763683254524
0.4083492063184976
1.9159237588057176
-0.3885033595190672
-0.07464294107668779
1.1472057288706032
1.1318871642315018
-0.4119836530166444
-2.8819038577838643
-0.04561216719200034
3.433168595740705
1.9091458106149233
1.4063925447846897
0.0684193335862242
1.3422016572876194
-1.879988775651302
0.5851113736112623
0.8803909111074391
3.9603393112271617
-1.3268534686777504
1.743103219908401
2.139565505196042
-1.5208491439891638
-0.21058773019500365
-0.3217242532850588
-0.008598694851652877
2.7503098580130025
2.213733827805135
0.8923306147705031
-0.695470936216665
-1.0815017419867765
-1.4319012234010229
1.5376937720833088
-1.6211973485143223
4.711540033261517
0.5357371243176475
-0.9782514385374129
2.944965699899239
4.867576336565131
-0.9786152077502512
-1.1759708746367608
1.5029178080031955
-2.152476535651851
5.630309123661123
1.0665718760453802
-2.038662198638275
2.185191559559305
4.65298209715346
-2.5877871323951904
2.3531552142439147
-2.123415062441576
6.78828719932785
-0.8871687941067037
5.331311258290407
5.21583486457753
3.4671345911416993
-1.1565007498938227
2.334483534877009
2.0687020958758433
-1.987485235174096
0.6815490250090457
7.301587743463543
3.2074854919843023
-4.541680194459981
-1.7512652711822159
3.0596877088142262
0.3588696125496942
-4.057618036023502
0.8711959333428296
2.8238029678250234
-1.2812963530779622
0.48247527953485814
2.5698026735886836
5.593353733236526
0.3132770207965503
10.567917207928442
0.26527714971322736
-0.6835994072020184
-1.8821561794010215
5.099154423563288
2.273007742481748
-0.9156384415776884
4.9203086875459645
2.797362960165886
-3.3208748234005716
-3.600156235836031
7.66747788003948
-1.0157340802743795
-3.0029371694802816
4.053291703773459
-1.4090748076746515
3.4412888167854057
2.258187395134348
-1.290911403452812
2.26881503100301
4.1701621868236805
5.054620699554242
-2.075997052150357
0.11276156368411039
-5.539987935396222
1.2883400706384802
1.8295844232572072
-0.38618733103705405
-1.3196106393865816
-0.7051028892880438
-1.3181600121951507
3.563447424733941
-0.8394657452882639
-2.5688123437484034
-6.065457897225458
-0.435570437163169
-0.24355255165542045
1.341145355254535
-0.21024542033696014
3.6750274231551705
3.4281077101868993
5.875357861345627
-2.156111913950988
5.933116332688989
-0.1827390669333201
-0.13904277479140226
1.0143243551923673
0.9565624459183053
-0.8717707737713493
-1.0978620463945528
1.1728562843840034
0.057554750795486664
-0.3042430364133578
-0.7412061139875421
2.888389902814695
-2.0825219890095226
-2.8608367911369843
-0.18796865750907554
0.020391668123466267
-0.36858029433659745
0.8142671399634113
1.2677004364798603
-0.6105160621610818
-0.024941836666356965
-2.2992279962327506
-0.2944225785957245
1.9678214141495545
1.698686608992269
1.7269886792004001
0.30394616529148255
3.429138116652809
-0.2933314809232239
-3.519552880158495
0.5746703860556451
0.6217643780709676
-2.9614213332208337
2.039420473147195
-1.3211907553467814
2.571387708387595
4.592623438121435
1.87620548812941
1.7028529153695944
-0.9210612864359028
1.8039276760385625
1.9541623275018918
0.8204208294193409
1.5451317336139416
3.6297612814568576
4.4247585228304445
1.6810073038107838
-1.18611299220121
-3.2502032993328727
1.2124999818669733
-0.5080403129725026
0.5218472343508777
2.5197040205562016
-2.836979282559324
-1.5064609519878782
1.3061152125594777
2.0544943462076826
-1.2427217685750764
2.9570607185712174
-2.136852732344267
0.6736267066962226
0.654513165498756
-1.1882205517779791
-0.42959542838285214
3.2664387093874736
3.6398845812437446
2.543502287379716
-0.8383076206173925
3.3668165776861008
0.6163716175771851
-1.5863305969193922
-0.5752717117746584
0.3919434845278177
0.8215528378396074
-0.21768383390664903
1.4740038031114682
3.615780184938611
0.07525235816458409
1.4846690512717204
2.65244732208308
3.6407131966494157
1.3527993295248677
0.38830624160760485
4.304527951751153
0.24239710343229626
-2.095201698113726
-2.4524216660683518
-0.8988769227900948
2.64201594197557
4.1398658590329305
-0.3899752399028358
-2.8188565430778083
-3.5659559594558274
2.8255745374161543
2.6311401344993817
-1.4585109350186645
-2.0356621681664238
5.396597787948696
-1.0329667382346674
-3.100308433881276
1.3937826087324572
-2.9722436423422094
6.008843549534233
1.5513313765260786
-3.495498480957174
2.953668394078722
2.631588937810979
2.636442025296892
8.491347023667068
-5.706643450352935
-0.7738209940833531
5.683746052400043
1.2917445819027238
2.5501602516070285
-0.9339426312631285
-1.5613883967217577
3.589533114406099
0.693457980952159
1.897854251051907
-0.6793372329165774
1.2169288003388625
1.0421000015517674
3.7691212403157177
7.336141832363397
-0.6492830450159293
-6.42993278800604
-5.868245118908222
6.546295621946925
2.523508542621297
1.8125985735668761
0.19006995071602684
1.9483641949403028
-1.857475035671973
7.057303461407657
-3.2654254131231517
-0.4762664012266009
6.129610354285065
2.778875904638933
-0.6378088334410443
3.3344229053141294
-2.3197218685147925
-1.138426015843945
8.575252383792877
8.528715220561775
4.508092966244297
-1.1995763018400323
2.029102772574376
4.774184360658229
3.233897073801975
0.2572804417233776
-3.2254249634824683
0.81022205476321
5.387972549052897
-3.1542461027686857
4.563258632183322
4.255484945039246
3.6836914892912196
-2.7626622567676016
0.2433447461314444
-0.7102033607764744
3.800205306779767
5.255216919045725
-2.02767495861612
3.5856113410833057
-1.9169214068577083
-1.4821678872831603
-1.4507741407262678
2.0242862814401734
1.3607016582477642
-0.35668690418644444
1.8576484933399797
-0.6813349802950147
1.7422726458558175
2.5096198772630594
1.892497861786878
2.870331021335961
1.0943182901799253
-0.8065436135959497
0.40652813169188884
3.897147407677634
0.04177906979576862
-0.4271560042219684
0.005340805001253335
0.8673140929026283
1.5277451812098946
-1.3058028875076821
2.8448698563754418
0.006896162000950112
0.5810104783840414
0.10517529723363483
0.24867702290724059
1.902511832279143
0.31347705635828016
0.4244433525821315
1.2223335910508712
2.443239108152793
-4.000687363848701
-1.4684130724721283
0.9788617736820605
0.0983163696538748
-1.0803415455638214
-1.7937545550441145
-1.5187306816447816
0.026812406160659386
-0.3346354315613983
-0.6515044405334429
-1.3382039555000305
-0.23085647591384373
-2.2784230620654613
-2.0844072113432444
-1.691210421500033
0.8868073994211593
4.721095176616217
1.1856840376587703
0.9109896245575363
2.7797817065109216
1.9487944769341339
-0.4301664925824621
3.4685936835839812
0.4250102616301563
0.4450512956960758
2.267413790389819
-0.6674490100312188
1.035122322564449
-0.4689873606823066
2.230524002057784
-0.29271284312389834
1.3514794694273276
-1.5930173517070134
0.7573796517827247
1.3650832184067305
1.2219793378882993
-1.7441200522055675
0.3249583818842072
1.0702586776378655
-0.9953169522145968
1.650488720382751
-1.237042698400592
-0.36321582582209355
0.029929538666669808
2.3848295553883783
1.7856962251780262
0.6344526669525191
-0.05484255530783122
-4.33491066104256
3.781259451437832
2.5728269461681554
6.970347427173915
-4.96499801480197
1.5280284356086533
0.2538119807189336
-0.02835599334397232
-2.857482012984086
-10.025220778491581
0.5800485349802749
2.8428190793324424
-4.9001121400902194
-1.006866194694309
-6.1859036937103005
-1.9631743787853428
-3.813425996671765
2.8999852272290525
0.018497480404442657
3.3966959432434294
0.331294976831799
5.68420327419687
1.2817563810837613
2.160114594904754
1.8032705800158595
5.44253663898081
-1.1557358096945871
3.217184148775194
7.894215320965006
0.009567431032932117
5.498604613123257
6.774928641817174
-5.536091961196043
6.03637817324367
-3.3089868082480023
1.434019308258794
3.8212149850308412
-0.4254551269627147
0.9679566756333184
3.387979185145138
5.154992041225129
-3.3301159350260456
3.891428859181202
7.652484096149383
-4.8841621122784975
5.172033910403997
0.7487269567773427
5.091209963179651
1.4362989494175116
-0.7644921571298211
-4.526630937115147
-0.730007969575142
-7.809338283555693
6.1666886797568266
-2.9301991079353
1.0467297376238178
-1.334453034241286
0.26988730880388934
-2.229709731564193
-1.414983867738902
-2.4879078244449513
1.7455307463568706
-1.554960495138386
-2.972334328391405
4.189347768086416
2.848096128200624
4.833818089224204
-3.0567074217898167
2.933819682514756
-0.17093080282327278
4.068244413148507
-3.87937801272078
0.0521755671392965
-3.231862759297946
0.5677331639710446
2.412987698636721
-8.684846319007052
3.6418504009300308
1.3002396467781558
-1.8414950226688742
3.420765266993642
0.042335681502749356
-0.04057115436141723
-2.6817313738872337
-0.19588484129838069
-0.042920170151081516
-0.1938690347052665
3.235166314699714
-0.40035628252463684
-0.6404884335339344
4.988831910428187
-5.621536391105286
0.906413511599288
2.685420719023548
1.7740629743080298
-0.21948809751315945
0.6760167237572878
-5.334569525416835
7.290579946350109
