-0.330015510315372
-0.6492079814177671
0.9400026563725332
-0.05649700148440828
-0.7691217311455518
0.8048215396627261
-0.7184631974482125
-0.5271532074845258
-0.8960006756158403
-0.4654464201884343
-0.23100740690684374
0.6115387328659092
-0.31674753122864296
0.994433518201026
-0.8942930017818798
0.5709013506269631
0.24082352182204492
0.9637757358916279
-0.6924824641478324
0.5990023280277281
-0.4946081674552216
0.287422396689893
-0.3133135006587926
1.4724863370329575
0.10402167176648502
-0.6988881510475091
0.9803807802226185
-0.02395467397318507
-0.22429251584855958
-0.10525751780634285
0.04499427276778645
0.45755005483286837
-0.4341969994685313
0.4032669526653859
-0.9099358831528483
-0.04825925629414052
-0.4695742233057556
0.5620157270215467
-0.9803790236669734
0.8517292328921182
0.15344612279390013
-0.004807833652168969
0.09952966141605712
0.5015704482672423
1.2543573807058785
0.9522242466381277
0.514232916804295
0.9515636450262834
-0.5347643707542915
-0.0371902762737053
0.43336276278504315
0.9479895321083257
0.7789369830212647
0.959188704299021
-0.1949081446078358
0.5763411336947599
-0.19217075615336077
0.8505265346071237
0.2076502118786845
0.6061560661697203
-0.5105228213904016
0.0846454271410928
0.5246584685843595
-0.5014454154592691
0.015932230989008755
-0.7064856343510675
-0.9532299800710718
-0.725805620259949
0.07513243991156959
-0.4882653211279284
0.26066873275504243
-0.3878306796652248
-0.7800200045107335
-0.7663954788491378
-0.5030808826247911
0.922281155850218
-1.0858316334815035
-1.115344407750783
0.19600304768104926
0.8899266116215976
-0.5610617001095932
-0.37542972294672783
0.17292919518228178
-0.48473905455244326
-0.15373529356867954
0.2886985582228361
0.55111906464022
0.6185459494022079
-0.5733581968552903
-0.9142259548218674
0.6063375009883647
0.21591317605627425
0.8598661636674126
-0.4302811941479252
0.02690557730609755
0.7383556853796736
0.3684741635736587
0.5219017907737553
-0.8297476177985881
-0.7894727167190704
0.19799605509835283
-0.7378261745571169
0.7327972825938991
-0.7643290872201683
0.9796719284926865
-0.49012482109991495
0.5300776503022409
-0.5215438877820966
-0.10950234637340783
-0.7415014878389795
0.5234523401026847
0.3406614186148238
0.6186197979595535
0.21387097077406514
0.4471932769188518
-0.12408524433094703
0.35836033465920236
-0.651845624119294
0.12821760588961184
0.7639576454791879
-0.394401909575826
-0.2043055442300058
-0.612894050400532
-0.48019840919159384
-0.9588469852922221
0.1511515755860745
0.5948197561964834
-1.2410126599306013
-0.7535548085645398
-0.05333901572994515
0.38462511899606766
0.7579312183631617
-0.8511119433957233
0.08892666215606648
-0.8564482219840901
0.2308401492429828
-1.1263859005699397
-0.4193449554720622
-0.3357155531207098
0.6671866232907144
-0.7571639340708948
0.6245508609318096
0.4518543489155613
0.4513563865749388
-0.28776715617252346
-0.11398297190778184
-0.5031901599208995
-0.9048772428436602
0.23569751316807397
-0.5471616338333818
-0.5436373927521557
0.21112218575766128
-0.49114731839018244
-0.24262781175086023
0.1325887743580043
0.7423970581868476
-0.30020630420750094
0.08391435350814103
-0.04582830770761648
0.7694033107725695
-0.9942130879875086
0.7842192162282802
-0.16694986374801601
-0.19668430828822636
0.6302607902429984
0.22286668911929564
0.295379001256716
0.4990392075917065
0.23331388394073893
0.5321454335625251
0.09180335363572101
0.2881075334663883
-0.26777165244428025
0.20969815468691433
0.08278208440033585
-0.4372930729842728
-0.9238256795849578
0.14689169018065784
0.5871668222082163
0.6943101554372086
-0.6893110372932815
0.8506641389807943
-0.8033359618984333
0.6171388061166709
0.014303847605327658
0.40564685958824254
-0.5317665790352681
0.9704125371359746
-0.5390493158345977
0.6840118463286737
0.29603045067702904
-0.35314277110288517
0.02530797367783455
-0.18612573889469286
0.0961324628707213
0.2609618522920185
0.4548847465569559
-0.4882984563531605
-0.7824256997862277
-0.47101199391144544
0.812743401516409
1.6668454531722379
-0.48530047183744196
0.6480658794784712
-0.8786044886350965
0.9035707896877612
-0.6304699498838658
-0.5692841413866128
-0.2778979085552875
-0.045843580180822796
-0.558159185334748
0.3879364616148444
-1.5888986346362033
-0.2650322665238023
-0.015595963944012414
-0.35169185109320245
0.9592788360012795
-0.1157550208564726
0.5823433606839086
-0.6153757005364904
0.4777410475265681
0.9498626043377751
-0.10089709238754785
-0.062282511140074215
0.027617734338709288
0.47487405740298305
0.17795195403650155
-0.8984735426140276
0.050760484404202444
0.6967317295290367
0.8028837301608809
0.09298376372983119
-0.7507448240228796
-0.20493586459905377
-0.11297683654655555
-0.08678915406155263
0.3549737607985628
-0.7431341056428558
0.3578574397406249
-0.4424870775407883
-0.33932377160970484
0.8443683450563302
-0.2383239692457566
0.35853059524419106
-0.7698824048943183
-0.9319188366196398
0.27920218945952224
0.3386048282012075
0.19796359214405923
0.3401470283254877
-0.7126738915821932
-0.22321205224293506
-0.6853807060575695
-0.7826860328239109
0.8933196466056794
-0.5569184783604495
0.0618020594049975
-0.47461516200867115
0.3040958748907965
-0.33026093889821273
-0.147495283159375
-0.4321689361738129
0.43026654018396226
-0.8853368247672442
0.167571630982277
0.31910386056658324
1.103082543429688
-0.2818953545621432
-0.06083592957995709
-0.08076527332910666
0.11967237864973312
0.9170865224034608
-0.2903113405494546
0.6832908776067534
-0.17515752397702067
0.8473114581852939
0.501429627996184
-0.39148600888353124
-1.2546849242044469
-0.2826584415622855
0.4886473459096621
-0.8645917020127557
-0.3578667437860368
-0.06621652005742029
0.10529171929293746
0.30386314810443205
-0.7116942813879743
0.43980285110161765
-0.6311471583880817
0.5918898283386576
-0.7139940326460514
0.4488059041360405
0.26590587538824106
-0.30832886601913634
-0.4356691002603488
0.5459110918986952
0.0796569418418619
-0.44177925113479666
-0.26024810607479076
-0.9284816523097361
-0.14029540690232167
0.8625063471978929
-0.5797693877740819
0.3936615359563871
-0.16787564461199145
-0.2511059811681432
-0.8151953080169931
-0.22753131870157395
0.4940942168748489
0.15049935887248678
-0.15683130344172058
-0.4393003184126367
0.07492306401663074
-0.5529624598884189
0.8260979083926798
-0.4522274170662388
-0.5429819056487346
0.9165950305813706
0.8096879982692584
-0.7019643649926608
0.6303845111442574
0.26610200248818483
0.6233062321894045
0.8512940325310214
-0.15294607953518335
0.29074895129227485
-0.5137064203370648
-0.09273760808574871
-0.034299428451135316
-0.7462871895402421
1.065192913474308
0.7491631169480111
0.5810736351640723
0.02679269108407456
-0.7831631067179146
-0.8021801893694754
-0.8978532375089872
0.2981520402339344
0.8390061315191699
-0.8556968670347526
-0.4220346795673513
-0.8116170251268615
0.5023398887554245
-0.2625747897995948
-0.23492350083882396
-0.5333725881108813
0.4953466604326544
0.688432127365766
0.3201169146226376
0.10293376980080704
-0.7129950580581907
0.24521561500503797
0.42156021269674493
0.4492668605367063
-0.972655164444514
0.4867821854342116
-0.6576262201029692
0.8230723962838562
0.5451733449690879
0.8069224396458463
-0.04592490014090278
0.24395776236489097
0.6311794932086872
0.6245829940799812
0.12790840195825548
-0.5332500457240423
0.19650120957845596
-0.41303692821991844
0.02179979753566008
-0.19140654741511187
0.7485322635404736
0.03896069923339751
-0.19832820025818387
0.3822963153984389
-0.9474063071749512
0.19602024122010575
-0.26326328992521164
0.6643225429952196
-0.9209927516196448
-0.45679116625530125
0.21382120794060633
-0.7780076366861433
0.5249918873822259
-1.0905575874986613
0.24759142251878097
1.0007425642043288
0.04157186375176414
-0.11855569226448859
0.9913522051666206
-0.423822027112722
0.6335746791255754
0.9207179155951899
-0.09739961489903193
-0.2018304462330167
0.43420201938974
-0.8320249615598946
-0.3802545070447505
0.4986338633284211
-0.6455618198535265
0.30717312013273723
0.5103189008769381
-0.9998343143997441
0.707331362484785
-0.032620686022468925
0.5144418975901004
0.33392164403100555
0.8463150547723903
-0.6311236757244412
0.12013586008908872
-0.26234007353188316
0.7941205219383879
-0.892207167757251
-0.5017921240062713
-0.44193894052675065
-0.5493826917418482
0.8889942506094517
-0.9195110991943964
-0.20533371390403854
1.0658649054180573
-0.8657496869647361
0.08469547408993872
0.06854767144836305
0.9281842401524667
-0.33602381729261543
-0.6691415493366357
-0.7990213400288702
8.88380716915993E-4
-0.2128674832840729
0.7919907862947986
0.9314298461523416
0.9538202045675912
-0.2887843335542004
0.7986845768942605
-0.643865684743975
-0.06695356807282937
-0.4831882911504386
-0.2811313130159021
0.7342221672243192
0.4503448489540598
0.7183784568798122
-0.24461403038746488
0.36273550422611756
0.40823045834883065
0.4042890262892691
0.746857161577021
-0.9554898760574504
-0.07098800019381923
0.7594556730716076
-0.8897472498758152
0.7998640581244254
0.9265175555866649
0.9495581481761748
-0.5149097706167562
0.16248619339543602
-0.2841661043154058
-0.3836110528865302
0.6279258267426588
-0.348129401885543
0.6790952969246449
0.5128762378061724
0.5326979212988465
0.32393180829687707
-0.36309651160406486
0.9221281099743024
0.6551353468746128
-0.29310169838958655
0.4976307719047496
0.428031544061358
0.8370118842307941
0.32688946019132437
-0.9305315272623306
0.3069082820381668
-0.12461690430447414
0.3911522472887011
0.3286880726179717
0.8579212153827287
0.020744417452345898
0.3924925023371961
-0.6400042059304241
-0.6812777564576894
0.8554810825069656
0.6979960226425113
-0.125218646132653
0.9627506515371431
-0.9316172723061313
-0.9292973514192318
0.9730477009444134
0.5922354945805108
-0.3302705065848378
0.5413280710999938
-0.4366943371136063
0.06148288856261164
-0.7706541521496719
-0.13253551836520994
0.6836921368771008
0.05895506506508552
-0.255701924784811
-0.7446898830936026
0.2791258439735913
-0.9153565660097096
0.0630737664176555
-0.19136147534076442
-0.3759114886782966
-0.782430996324996
0.7016566326096298
-1.3416086095511799
-0.173827204781701
-0.7945861883619392
-0.03349594406547274
-0.7882447314602334
0.9940259178519725
0.7073868408666573
0.5427142256669337
0.18305835452970842
0.012869944272348444
0.8582915622408978
-0.10783722524922057
-0.31344099108863666
0.10956797036739219
0.10650887185390312
0.05475045804755463
0.5669222939599252
0.9380402584408244
-0.44482084534146826
-0.8332866508224442
0.9545312861236641
-0.11077398096813473
0.9071311240695527
0.07529793908087057
-0.6699127995065636
1.0413342135025214
-0.3266466576616761
0.4311827982193044
0.31451570897033365
0.8036439670233808
-0.08107239465465921
-0.8025087047801227
0.5508330765891025
0.5187962284398056
0.2140914916598482
0.9312302810299375
-0.953989203074022
0.0499854159434896
0.35352158996119654
0.17971158281813326
-0.6551930925234619
0.10221392620117054
1.2575538721600283
0.2976831855224882
-0.8391634238041807
0.9065437062042367
0.9481883816416303
-0.7443186919680143
0.08412503712146946
-0.8109358824962427
0.4348575844703214
0.6163275313772685
-0.11435746063472496
-1.1252759756748365
-0.17879919742435368
-0.4283757206199661
-0.6203993885801498
-0.939470943246677
0.23727782983558843
0.8892816229523121
0.4489748883839244
-0.6872109889493554
0.9312024240107941
0.17673943724119856
0.5718682598602949
0.7264550268508212
-0.19551512988884934
0.90336312761665
-0.7554371685623309
-1.0907149326292438
-0.7731193764250264
-0.9271035634762177
0.4569417701660692
-0.034951571149960614
-0.10425375805982173
-1.1805923090946144
0.0518003861187355
0.6666159914327507
-0.4229594907283609
0.23411314989474574
0.12489346522910405
1.2505193570225175
0.522152061872873
-0.09443321217668221
0.7231295258784893
0.1966814975082325
0.7674423263855372
-0.9674890343892295
-0.0018691638414325418
