0.1731139953309383
-0.972637621287925
-0.23425149977610873
-0.2148809113683134
-1.1232631197381393
0.8585888299494626
0.1384407645390289
0.08273899105205398
0.967901218084308
-0.40085755840960213
-0.3612531833073338
0.8006237880267952
0.14549354725915578
-0.5261885308396181
0.5389817607371125
-0.6487813529486683
0.5751428345383948
-0.038014512113727944
-0.5824140314360192
-0.4083564247262873
0.8896028632392999
0.20462490380383105
-0.4990085509842252
0.05961661242289364
-0.6680986360477251
-1.1134087533710928
0.49215742209922136
0.5853740184547714
0.1736618252329349
-0.3037167725947864
-0.43517571549476175
0.38209512536842094
0.5828124849150456
0.6207511159614835
0.5505782271188718
0.4185672533159278
-0.6849136525559342
-0.4241393876146168
0.2323014292484179
0.7865345166055666
-0.4065099257586109
-0.6138547080439227
-0.08923411975501702
-0.5211257251146149
-0.7152749078386125
-0.3228297485659085
0.035226615823353215
-0.44754317239838803
-0.9852865616143753
-0.36537600395601333
0.8198270347686912
-0.6840380180562955
0.8260832497642261
-0.9807893207294567
-0.5234566526182409
1.0295464647425094
0.45013331527138034
0.4778661730444027
-0.26500229876414133
-0.7318491777147124
-0.8795006997987116
-0.1847799677108394
-0.004960204177057066
0.5740709335189983
-0.3170769565722949
-0.038372809038684036
-0.5017741691992677
-0.7041607775234311
0.8087732957080642
0.18181707622505924
-0.399705577754131
-0.3333172812295535
-0.7720799117228534
-0.5558758384711114
-0.8384101921451785
0.04005559733867983
-0.84054441410229
-0.12114758431469334
0.37433251517653787
0.9104231802161268
0.28488845694163234
-0.6125334425556788
-0.3842258760822882
0.15916917484701426
0.6606009354970013
0.40707425371420536
0.4332575305746248
0.3834472458306892
0.07883655362940502
-0.7704323328081837
-0.3820173530485833
-0.6615691509193778
0.42952740599190675
-0.8197309949072215
0.8117175937239703
0.30051867349037015
-0.21886144621612894
0.5129320690572677
0.555596024753712
0.4755715016720333
-0.6409067101182913
-0.895051559782813
-0.23888282080284465
-0.16002467771306725
0.1429806899253618
-0.7245816946009963
-0.20698263535712608
0.15990271354387714
0.8260157361388215
-0.262169239828746
0.6512349268423956
-1.0031382699807967
-0.8873956422883128
-0.026854579908467395
-0.428812280916387
0.4239807359577775
-0.194101947751324
0.9894338252752994
-0.8557191894433904
0.36766620737940614
0.5405979057759014
0.9659869241855795
-0.09573975632911524
-0.14886188812319948
0.03148651899314883
0.08620280483599133
-1.2917854219219433
-0.7299708194383783
-0.9754576449373301
-0.7165701956798819
0.24769827411907236
-0.9760321991172303
-0.2142781189508026
0.5985863691389903
-0.7224038364257862
-1.065029180386811
0.5185860262381825
1.0217442279355837
-0.36751461353854464
0.08369641142943217
0.4235205005767339
-0.7906140064642229
0.07975203098035556
-0.9375527578608402
-0.5181854573935015
-0.4473745743327806
0.028649446180641774
-0.3255818335826143
-0.8045460849051891
-0.3758955836646151
1.016387842081606
-0.3668685909416508
0.5018664899388099
0.07280899493553897
-0.7494967477986086
-0.44110270643468
0.5320744230311643
-0.8447349724259328
-0.31027468819040666
-0.25851742813049366
-0.6617131580557627
0.5099046956961566
0.32031913544775326
0.7677519655536198
0.5714253843943741
0.3686506118616845
-0.6894457731244376
-0.3602677851552441
-0.3705963240202356
-0.6080682119034221
-1.0813190981535015
1.1782300023543497
0.5773850759948272
-0.05895183165483613
1.0227238103488667
-0.34042161576703867
0.6385100054278514
0.2025681951933802
0.9842631920606205
-0.7870479404762433
0.23944792634996626
0.06806508294509299
-0.09367050223736326
0.7167784409779276
-0.31805906103978254
0.6621511387930894
0.7242694734311541
0.6952430697017145
-0.34566964629386254
-1.1983043834367202
0.20547277995985197
0.13076350615015495
-0.4840621714516131
-0.8333385839546191
-0.4695449328092677
-0.505668674803887
0.7028260922253048
0.8336274162538218
0.4772421270480736
-0.19229477693094285
-0.04317810593079042
0.11191417369066639
-0.45692233567804963
0.21876740129065292
-0.27877945802259874
-0.834891587511062
0.46028564161612345
-0.40332670749590793
-0.027911952039662416
0.45325091930732897
0.5103187575432205
-0.3771017270225757
-0.025069340604151134
-0.08943677109746768
0.35782875880495857
0.15591482561247264
0.9187718455928013
-0.28974726391344063
0.12269722283318903
0.06515815137836045
-0.2831140641152561
-0.22602994943727786
0.17268972230104024
-0.2495419286311
0.016506109328386996
0.77760386279248
0.8824444472192184
-0.9689258587655493
-0.5596515454066052
0.5369563063233335
-0.5135457410048547
0.19549998859707718
0.32782217948204606
0.24016721083933854
-0.7977972494565152
0.4204443734552144
0.21572703877953292
-0.3980431064219443
0.861441294621955
0.8304163701058632
-0.6414689623341086
0.52201476798249
0.1486851337472606
0.3215454772847771
0.4883853606933243
-0.7319407322032057
1.1050777892292483
0.42876136254752456
0.2779209390905532
0.34713050602615253
-0.9873264744522711
0.4055243168115896
0.16634514178052123
-0.5303598872796937
0.3756092655406164
-0.5130775069712125
0.2968258564562871
0.1827330219299197
-0.5304242712515921
-0.46962506819068506
0.2669260543753055
0.49877924505499427
0.1527948225759747
-0.9738656628564886
0.7078149452161897
-0.5206403384830822
-0.15411882327798382
0.5818336728474016
0.9177805372537311
-0.48026739941808755
0.3002933171024376
-0.9815562462251202
-0.13418071531645737
0.2631036291643345
0.7240136140412592
-0.3904065244235423
0.1320557044987431
-1.1943044946731296
-0.4592019191860658
0.5338421041295285
-0.44364338491727884
-1.031230556305494
-0.6262121982685729
-1.043292157055494
0.7255210752431831
0.543711240271887
0.365412953098459
0.35965693478334254
0.9447134853538828
-0.8031676114140153
-0.40561460572411856
-0.04048571665827509
0.24555663127136207
-0.42339344194241024
0.7704000466827294
0.4570680802051532
0.06177679542757622
0.2505292800793596
-0.05921181557093118
1.036525680592715
-0.5819243270061969
0.6271716397951073
-0.8486730258666603
-0.42863889525645993
0.3836135367227555
0.3524050017848256
-0.7225716973658637
0.5684405921498216
-0.7385505146291818
-0.8085509741578627
0.8444638406948071
-0.7453930226045846
-0.28336667630557344
-0.6076924074064813
-1.4179847355146935
-0.9381148832467378
-0.047488789970588086
-0.45976284403400114
-0.37731517278852866
-0.3110537734568116
1.1171837654338916
0.10243350238836205
-0.572008238824739
0.4809434165627692
-0.3427225690430141
-0.720394935380309
-1.1570251350454768
1.2203728027655267
0.4272856601890253
-0.46291886115561953
0.9187783601829105
0.34580157828545455
0.3367605548153949
-0.7274893618550663
0.9508527899223566
-0.7657067554199094
0.2642137639891309
0.5754659155050584
-0.8345948437700704
-0.46939289167667037
0.21508872090976333
0.7613362448774295
-0.5082758396014064
0.277237593724321
-0.5651027475610555
0.8234027126398914
0.1345742197990543
-0.08894973764164923
-0.6874299670255325
0.4257266009349443
-0.09164321295291755
0.33161799855216206
-0.18887602528524675
-0.5267957858313692
-1.0365797790822255
-0.7967347139165515
-0.4766155427903229
0.024454395942164794
0.04231563711828094
-0.8949740635565206
-0.7042279123411288
0.84094980377399
-0.5097660558288072
-0.12393953587238937
0.2560456075453921
0.22918383265717268
-1.092983713123128
-0.6234330586756732
0.12598333981273965
-0.5155499847354552
-0.6632807598941578
0.7007246056775598
0.3041313437464022
-0.31875042980885865
0.42119612809524504
-0.674900834797353
-0.09185156755672663
-0.597481486056932
0.06272793639865672
0.6789303452947953
-0.7302177848319706
-0.1650310256005395
1.1317187778109319
0.1291009861583713
-0.6532257754371409
1.2467120659460038
-0.6355082136644781
0.6903088850639865
0.7869583381388541
0.402749301634042
0.8751763641350984
-0.7538964259451904
-0.4133669274454648
0.9329733050654484
0.018888519242299544
-0.42063117981964576
-0.48942348981863154
-0.26765914570931854
-0.7248402787273055
-1.08102440868667
0.7676275378748668
-0.06393392242495125
-0.7378606691512657
-0.5927002205668433
-0.4829257777607648
0.1939832982408381
-1.0594304860770216
0.44083405548805316
0.5768378320224358
-0.5878267696492302
-0.8380232751545672
-0.8786144188525936
0.2461331891166625
0.4356594939435394
-0.6130391195096858
0.7087575271680311
-0.563308200383169
0.9829284641579448
0.3857414056046037
-0.8569935135560549
-0.08723687996874516
-0.9080759726717987
-0.5301625632656826
-0.5992212991158693
-0.2511390958723768
-0.40630537331054767
0.011451407344601504
-0.0933852892620936
0.6046870255100254
0.8624635727306107
0.28454275915144006
-0.7180239495675091
0.5632167204289994
0.035018647685627784
0.3106364419985845
0.687881409222725
0.15910178738435998
-0.2747275265808812
-0.5112977166716998
-1.3297964098295432
0.29029128255966236
0.6559480674710251
0.31998308860465113
-0.4606731799651216
-0.9233090540211134
0.01603453318329554
-0.23352745770860245
-0.8963922367500304
-0.11456675876315525
-0.46428587799031285
0.29560486873367336
0.28460993007769697
-0.4007448739717943
-0.8552441622840161
0.3761943884438602
0.0022549074628406968
-1.0270658778306223
1.1815151491970164
-0.712161032189281
0.6036275653956048
-0.3505711822763521
0.794164544924383
0.19978264771615667
1.1355591242569218
0.6587937273348291
-0.6912297974710624
-0.5562470090955852
1.1948579491244677
-0.5856253880527272
0.453796816635059
-0.9220171615098548
0.6957026148220896
1.0962206495803077
0.7430385316890683
-0.46293460398547964
0.21580526128853114
-0.3162698019603703
-0.5737491097816252
0.9433666478069949
-0.1628203135068485
0.8092778827204311
0.9238083654199601
-0.7333732592236527
-0.5245679508264256
-0.16741986536300676
0.2298183816725646
0.2549982667137933
0.3955713883573113
0.04503079966703342
-1.034888879450565
-0.10560213472847857
0.5259202950822262
0.7042323706853582
-0.5805720642939036
0.38298037214638214
-0.4045470800915491
-0.2024975840500427
-0.7541444176030977
0.93561927609907
0.0684523220127363
0.06980945657652848
-0.38797073943118815
-0.19490173435406244
-0.07114818725536627
-0.8218473461900286
0.039373882264186644
0.39285018319874954
-0.6528615631605841
1.2703731085583423
0.5111583005261419
-0.30243910767865245
-0.6308860187845514
0.42250605562332605
0.7157044666835427
0.08665946180094261
0.12189032010916395
0.2836654898039006
-0.15392409424137526
0.19520959088346249
0.22012912962143388
-0.3166402368354975
-0.23962496304956693
0.9694934393991667
-0.06012482130790618
-0.3123740526729707
0.48305386211580625
-0.255778662764545
0.8586032020166441
-0.2586163645023603
-0.22977119690418565
0.43606956169705724
0.49189714180342675
-0.646370883635353
-0.7665256789174397
0.014005926114635612
-0.5692840519717864
0.9463565094814302
-0.4279949945334998
-1.088240149537261
0.2986716637954527
0.9013944335849524
-0.6881702180627602
-0.5440465227006951
-0.42539252171030295
2.1895563070992163E-4
0.7093477946674478
0.7584477727769333
-1.0161691801489212
-1.0701497249446261
0.25061060700519866
-0.21173624858630158
0.896160677265813
-0.6968353798950617
0.81929430766896
-0.4610931707634981
1.1839661699546844
1.1081181553144102
-0.18476745281832507
1.0507534890456955
-0.18836878339455232
0.8042589301312368
0.960298133875765
-0.8886174324770835
-0.22820976612250582
0.884411522219133
-1.0812451499684534
0.8196334006629217
-0.6046893968712066
-0.15857460736944962
0.20154933274943948
1.1764342856336745
-0.7228449565120193
0.5227536714664934
0.4816431411947939
0.45482436405204135
-0.6541188798084393
0.048314419077290637
0.531092703441252
0.5267168538516606
-0.30019351742903744
0.5838447335815647
-0.7052516391291227
0.42287219066664417
0.5544688907308355
0.4943126596979307
0.5975262087084037
-0.6946621797825091
0.31041266511336646
-0.3293598957805255
-0.48616810072348643
0.1927281187533476
0.4375961458061973
-0.954265780996583
-0.5945852858350412
0.854453137100803
-0.573810431358416
0.8894967604349078
-0.7109864889149098
-0.7298629477749188
-0.37746698400492423
-0.01034599987145892
0.6510177631213461
0.8959579881676781
-0.5533417747478977
1.012818626446572
-0.8859253380442563
-0.6489878261452805
-0.7823664975452662
0.23327895863784284
0.38550868682322553
0.5561752184830382
0.6521022540499792
-0.38898715151520763
0.21843358123057147
0.2657785734340953
-0.3245663430091037
-0.9371167287073358
-0.3067324820123613
-0.44354250202069057
-0.15452239807912088
-0.8729020416877454
0.5525396160079452
-0.8494936032823083
0.422852702403879
-0.748782681395674
0.19095427684127436
-1.0404386962571373
0.8324006621795472
-0.21331379102613296
0.5251995332704235
1.0821828813697345
-0.5165384812510992
0.6252370552077394
-0.9052591161040667
-0.7129237833520514
-0.35533075192707075
0.3231534059548559
-0.3260381646905909
0.4963735880535613
0.9561477919775282
0.35706943064701774
0.5116973371446399
-0.24064850403005061
-0.830938733064079
1.1579010073952545
-0.17134465784477462
0.5149820316531019
1.1641963071328616
-1.2020284564551817
-0.1485021452243402
-1.120749788371035
-1.3069139947879558
-0.4494707682187974
0.7964916719897573
0.7994218419169264
-1.0710739604757697
0.9302560861200938
-0.08977380730482315
-0.7115076706770329
-0.92524119610761
-0.8384839566647359
1.068963207728876
0.6319905494220259
-0.7326571751757448
0.7022308575888784
-0.8259278335972807
-0.24740458500362902
-0.9565129309585425
-0.0367228228913436
0.2518301845748484
0.9593063976809818
-0.8475824147167336
-0.061205119068997976
-0.4244627781817976
0.3508922167826104
0.47733302137947187
-0.5242938645499932
-0.45766446613271977
1.003408539566829
-0.4032929816549566
0.5868191896119247
0.06796339689195727
0.574832883432804
-0.325439966964274
-0.7250252405582163
-0.08599696863365364
0.1390888172023843
-0.534387340705614
0.3459827093148507
0.5632876860950704
0.8852191970775364
-1.099006858037851
0.5160747680866776
-0.8852581198542864
-0.8013976234810843
0.5590867187682523
-0.7758688409739257
1.0965455210235469
-0.012948215169518967
0.29720158517208367
-0.6352840297620426
-0.5161385510510051
0.6931469977091151
0.3664820679338222
0.16788525439081528
0.16583689053801393
-0.41761935469522327
0.46711071384294606
0.514066449225879
-0.496282418135669
-0.5074379607984058
0.6585699198791176
-0.8084863592312623
-0.36534933350771037
-0.6107189975362374
-0.21546846082643373
-0.12502023159213682
0.14218622899855587
-0.4905272503099847
-0.41431096807375756
-0.22790682235921758
0.36940309706574714
-0.9762492626501981
-0.8645692245818043
-0.6058737915137133
0.618739563151367
0.3123165285828145
-0.6161889722561619
-0.6940991193489064
-0.5777802190879752
0.07151606631954495
-0.8987978748873113
0.6441104389165905
-0.3871091612210861
0.617048213176337
1.0071293517492224
-0.9461076614003694
0.6920302109589361
-0.7457905133073243
0.011022352046950575
-0.5852086555715846
0.7839526295462773
-0.35139576403270095
-0.32852186432571606
0.7545871930215311
-0.507461428109082
0.8437547633547552
0.5951449531908333
0.5432040663232948
-0.2094095007463156
-0.2494740139057679
-0.04117235894741178
0.5757231968176747
0.6879081044217806
-0.6863779087017007
0.36416358577601776
0.005000776948917242
-0.21609846549109246
-0.6930145050322416
-0.48707892171153483
0.0745626990349158
-0.46828062933177167
-0.0404547715202348
0.6056656818088528
1.0309747744208746
-0.3522214585229557
-0.3461737350937706
-0.5410330137173835
0.8720070228217357
0.36017223035497076
-1.1891416448646843
-1.0313905432720547
-0.20103010283050815
0.7303594926495232
-0.7714108767492494
-0.7626502368492277
-0.09622678718259561
0.3693313308259155
-0.147414852097738
0.015845388690639846
0.2298303912644441
0.37230337999521823
-0.005236020067393848
1.4648772816343905
0.7484101373192464
0.9574966037367075
0.8150464274710083
-0.49236489784639714
0.7035214225866944
-0.3874124623140406
-0.9473336485171721
-1.1850227491115943
0.4267942620227222
-1.0926117710678194
-0.703136306214666
-0.32774409663211956
1.0675257817329298
0.46960159811926966
-0.9135451887839023
-0.27594485227472243
0.8289211437207719
-0.6050505134380547
-0.8885575368786023
-0.5349826090692216
0.4657128972603559
-0.28692879047206876
-0.737552397503688
1.0665177598167561
-0.9167365636777884
-0.21109436650749128
0.33508113104351045
-0.670139676011373
0.06437707416723432
-0.7665702901718235
-0.08380094630562562
0.03348243545755866
0.08387732041217037
1.1055701272380505
-0.4687447576954941
0.5106705195268031
0.2672430794834737
0.10216876431921901
0.7973212447464985
0.6054790418336319
0.5347137959678157
0.7002200071300633
-0.17482911279997057
0.5845673434107271
-0.8497955930851009
-0.7269121357205615
-0.7588018635818081
-0.4389506385291383
0.6368519192003144
0.4034793660503004
0.21495436661107997
0.6261562204928435
-0.5149124577215228
-0.9080084061018707
-0.6323013667671089
-0.5802051791687527
-0.8492748515355438
-0.7967610480346062
0.2857247618621206
-0.142261657730258
0.3284605266130695
-0.07648266635859491
0.05446597437601259
-0.5259794343896376
-0.864189148751002
-0.014075732751066286
0.48599431086476574
-0.9300387978398535
0.40267760867613855
1.2971759048558626
0.0366365748572919
0.6208320964038238
-0.25025520342164803
-0.02899541467767003
-0.7911092941659402
0.5101862271006361
-0.4360005798522679
-0.032679939710604906
0.18343514072177586
0.12669013874515322
-0.18489668181074054
-0.5198544277809471
0.8265750681937118
-0.07975320234085881
0.7145259976968542
0.3585819009506844
-0.38106515729819046
-0.513986001669914
0.7234112117217013
0.882968593943101
1.1832190996280483
-0.8543228343293305
-0.19104293502383377
-0.8572909388592794
0.995071097950324
0.2489175256279861
0.18627398646343657
1.1444260547252354
0.00543071483254496
0.6300055675511114
0.7991451480290763
-0.11376977119730369
0.22216627371078707
-0.6013035119802153
-0.4801774455540726
-0.841211763644699
-0.3351561160869681
0.9925560107690933
-0.7877441750702343
-0.17645383087445743
0.5617001746260706
0.8228699045783348
0.11871455732649525
0.43076400704786566
0.7187191495492311
0.3296537136620199
0.025037105191791413
0.4104143684049587
0.2879466781034232
0.962643809920992
0.8051582521779456
0.2599849984655772
-0.42895107229039126
0.5734211528507167
0.2530481313632163
-0.6284367751622977
-0.39391032382037916
0.00865938506312142
0.5073583081835313
0.8456814413738569
0.33114673528928823
0.29942619972531986
-0.6080157662385167
-0.899156714500348
0.775474187320103
-0.01911613317051218
0.6025452510594858
-0.006909056822877582
0.7527365327378275
1.1468366612258656
-0.8117016770473944
-0.2765954157540503
0.2282225638033539
-0.11130517759950147
0.79163359803449
-0.3118760008560665
-0.964914126381054
-0.766183083410239
-0.24889626925150082
-0.07012737592989046
-0.35572054659457764
0.329357407057189
0.1526624173013976
0.5192292170055037
-0.4338703702712812
-0.6682403898419741
0.11027854968468975
-0.10417135348020026
0.230787212317423
-0.6473361191112333
-1.1957146425606733
-0.5182838118838206
-1.1705193546380697
-0.7324981837203932
-0.3663870662993827
-0.2922462617528018
0.311957366441351
-0.7278217032275769
-1.123309767598106
-0.5488810203251498
0.26661655240546805
-0.3287704887573455
0.9470316283952229
-0.449145569326809
0.04753921468882011
-0.3410627455123286
-0.28353961903691266
-0.8210443626324536
0.7562343949067324
0.07840966322880484
-0.2268133472200604
0.35036479344348137
-0.2953333242193963
-0.230996371041236
0.8807050748805378
0.3207813114261693
0.018058993045598146
1.0968387570125502
-1.0124558888531852
-0.15608062977761583
0.828919174642536
1.213247768368488
0.057996816399677874
0.3323070452809872
0.4679372184515285
0.2988139255098214
0.9645157040587496
0.057505253867758344
-0.050109663078544704
0.4795204756929524
-1.1831120833451418
0.5717042064500324
0.36806900953766847
-0.18973677237583822
0.018595509392432454
-0.8127249105852754
0.3072352059800368
0.6231379054592199
-0.22000367478730254
-1.1784544898130231
0.02578407692360677
-1.2444913528894461
-0.8260760223918852
-0.5272122746339902
-0.05346965849080883
-0.18567655473781508
-0.17496109231240525
-0.6548455658558662
0.2519557416950927
0.8496872213636943
-0.5047576433018947
-0.5476600165896913
0.9301418718177497
-0.19670912567953167
0.026149901276550855
0.4029772453894971
-0.5857886394351188
0.6077856086382489
0.5865440147515347
1.1556236039819152
-0.6796034879792848
0.7636479459574583
0.8677215625456275
-0.6468673254292171
0.6316125328800253
0.35263384870919007
-0.29871743305926907
0.4773223256299262
0.7241330241081372
-0.8563284776533118
-0.48153314823468685
-0.2407200645583194
-0.38197744724681976
-0.971039989222718
1.0223101885742543
0.5405464612780085
0.7321820053028263
-1.1242544599455926
0.05747025818089834
0.10678068178528133
0.08343275108475107
0.971371641150678
-0.8648394348637872
0.6589753887376973
-0.43989294688354097
-0.7185356631781703
-0.03603643700070487
0.17191303144001532
-0.3049556131550618
-0.3605089678873049
1.1200493980523736
-0.45955677912334386
-0.7216735949096851
0.93800857336742
0.09151067894419446
0.1083820454016175
-0.06134493894306398
0.19962164413817232
0.018541881788843813
-0.9470804054973933
0.2694007414974918
-0.127747934409014
-0.2679483955034992
0.7162482322552516
0.16006695416664063
-0.5867117851300246
-0.31854425467608455
0.5314178978146512
-0.955504120611674
1.0653385943669937
0.6094886004677388
0.6193232952384026
0.5820369240711515
0.38492688408925435
0.8962483192602317
-0.8942727771514674
-0.36070498306263654
0.06252388851929996
-0.6982141086269679
0.26978493614691523
-0.41108030949421126
0.4200053803464952
-0.494935092472463
0.8012572045807971
-0.9116996021779445
-0.6699417830645712
-0.20274448287905394
0.7746067883359968
-0.2661896444492463
0.15578108281413183
0.051617495012421605
0.45002699728633844
0.12909831767799157
0.14235269240347964
-0.8035927763819997
0.507922970145889
-0.08190043285234928
-0.8636026468405609
-0.047075145509934385
-0.1744802963814758
0.19786736384779133
-0.8394350539547473
-0.2593876451145157
0.5775006815983029
0.600926927405014
0.08453089611988898
-0.908427921807413
0.586154216069436
0.24482960711880078
-0.12346540086802661
-0.36651326506158044
0.610050769563627
-0.5104441475641613
-0.09871838780982091
-0.6305769881285002
0.7822925550130457
-0.18211575394063917
-0.24608933294352894
1.0126745447020966
-0.737708124897747
0.8320904420426263
1.0001535372773656
-0.7308907164163223
-0.6676588902959256
-0.7127965749578975
0.5890909182512518
0.38801801774936445
-0.3920172445568067
-0.6319636546946388
-0.533914669100164
-0.7796162427141178
0.42435771678440604
0.5687578399053836
-0.8787215423863769
-0.22918362775290427
-0.13488522997359076
0.023634932293804638
0.42830703834874206
-0.7260125883252714
0.33557419004263855
-0.8231238571080222
-0.6279959773390703
0.5798027476693793
-0.763949158685929
0.8392554735034988
-0.5270510234384488
0.7668303650285913
-0.5025428833342881
0.9129837804679054
0.4041405888031258
-0.4242752664816986
-1.0129893731851123
-0.04051630504110618
-0.6734058857324582
0.7478654037791577
-0.5282875173430485
-0.08550725489289387
-0.3435220415317167
0.035609832886533584
-0.0027875882550873823
0.24325430750873026
0.16578147224189493
0.1461109141254852
0.6143079782077769
-0.11996919887720076
0.975670493947649
-0.45500399639425176
0.5991907765776592
0.4658535159522685
0.27446413578490836
0.9522752065002733
0.15494198503119488
0.4577685439729484
0.4094110814857172
-1.2744814733723153
1.1205368434813054
0.27649424687517854
0.2855867783577444
-0.17684569445219084
0.5663339357290953
0.10866896184190225
0.3203294942631981
0.815895604422996
0.9756363638411352
-0.8471079511591714
-1.0737239409955701
-0.9214302634104217
0.7337093407099314
0.2770781921174921
-0.8640805270634089
-0.25335802574593214
-0.36623476831414553
0.5380412074056341
0.5398445325682258
0.34542361240051633
0.8779821745380959
0.21595192557823628
0.8046468236363534
-0.405253002872403
0.10045515603942202
0.6099679177251006
0.2728194030833665
0.8029069181577809
-0.5265545738324855
0.05053477878742325
-0.45879045479181657
0.4344824858794973
0.9210676076138707
-1.0817003489877632
-0.9171828714569681
0.9250588061079722
-0.8518661166294859
0.049671527160696845
-0.34403233595882454
-0.34776136752476533
0.6541578806769185
0.3284025356589692
0.11677600462393678
0.6730294784279943
-0.46670227959364136
-1.0857007764058964
-0.5283909933087755
0.09189750321939191
-0.252645932085124
0.39730011480761307
-0.651608508758736
-0.6258046139956326
-0.6601457279276179
0.11123817853822386
-0.19078345459159093
-0.3419807081263996
0.4137340564995251
-0.7776904829050755
0.700535521747906
0.0864326875789544
-0.6779216899639159
0.22945928271381272
0.5475531940022985
0.3254362635981236
0.6000888108545527
0.7636454759269962
0.2746676587384081
-1.1444074782402647
-0.12168860875093954
0.6514141141765117
-1.056397908114035
-0.7386503799386855
1.0685030239678586
-0.6707969502232166
-0.12020920308804865
0.4873156406115838
0.027275355975427355
0.7247133590821573
-0.020475728621804683
0.4482290223711545
1.374177372263577
0.1310717440178328
0.4803807245249407
-0.1959325783776231
-0.16598493074639004
-0.1759572941020366
-1.0513831233317934
0.6798788308230868
-0.55945610328902
0.6085900314799091
-0.30710819859173294
-0.4895216091796918
0.4668857235988345
0.5550508012715178
0.8276754403666928
1.1380386210412579
-0.6022140387290866
-0.2787032731461996
-0.04684447867301813
-0.5024648010602188
-1.0931494702094542
-0.1129520917000409
-0.4224173623253564
0.32054039306380766
0.7360357776229538
-0.008381948311591489
1.042721285059703
-0.8030270335752786
-0.04880420055744244
0.9205155450571719
0.18335143489204958
0.0025269163395003277
-0.2819260737821111
0.17953646638035986
-0.7716761038998924
0.7351140917252349
-0.608005044312708
0.2098740703273418
-0.9230627528694348
0.14478066658133756
1.0778128654634087
-0.4016166335260417
-0.31149660398972967
-0.764959971660237
0.35905276455504376
0.6644671307181294
0.3192232546217558
-0.07884995713062881
1.0358411369447655
-0.2056612623029898
0.5565384632773895
0.058214642447617725
-0.001979560503206558
0.5676519137066621
0.5731080184603864
-0.27309995350619387
0.42278251004756423
-0.5104788261419592
0.4345415298563698
0.4057909097337715
0.24520267103739427
-0.5392873481704158
-0.4262856772059876
0.7547699752410615
-0.6810615971087375
-0.49965632882718375
0.9046003643590776
0.26078869815186895
-0.7297180937876342
0.14460677634425229
-0.5069690722445064
-0.9334719104671779
-0.20555960268065532
0.8685442273035705
0.7382777645771598
-0.8972576613798836
-0.5289173313807501
-0.6988509278681301
0.1583091006719017
-0.05962703576945387
-0.08118379214375981
1.093170544465179
-0.37944857852063146
-0.2047740490190629
0.29746584971480516
0.012947566780223678
-0.4485248678782913
0.45142664211666383
0.34412124155897694
-0.658927683953954
-0.7776675137111806
0.4572753083208632
0.7805928379176077
0.29936601697302423
0.36948283245420316
0.7153332677979539
-0.5730585942562673
-0.5732513341732538
0.5148184809234451
-0.08813976126604983
0.25854529822052125
0.6355664638241487
0.5984741709192909
-0.921910580204557
0.04168697428977053
0.5842670413261394
-0.2770239168992533
0.5466044608154562
0.36446795228218715
-0.7198602467807766
0.46678243411469617
0.5701486551022602
0.9174845039852753
-0.8546216921914054
0.592780360366062
0.8342941056114073
0.43378033077815537
0.6049657792015645
0.7184002811800728
0.28234479649661465
0.06470808858162719
-0.8356480836786337
0.16153670790130567
0.8419111750900465
-0.2030118608625753
0.16813259241290368
0.9449951438265826
-0.49787350962359533
-0.943502819814337
0.20837486414930656
-1.137310091302597
0.2892070244525355
-0.9072160568298832
0.38435103452339786
-0.036292405562348216
-0.7652542689373849
0.38857748589801583
0.01889374657902071
0.39435098851845357
0.638594013227249
-0.09256147920054833
0.6781132110527079
0.69551808001153
0.8094672589812851
0.16691008942374835
-0.6510283989853872
-1.055795096657674
-0.024305654639982736
0.9287552727035733
-0.03433413542435804
-0.3647741588149834
0.2893793429923592
0.6959702657840803
-0.4803063989722615
0.6459296521078898
-0.17886335161140082
0.2099625858219884
-0.5182844206841459
0.6727035247911771
0.8949168334765866
-0.47255992863551083
0.5186132821847478
0.485879148455443
-0.8268091904979668
0.20704344946426406
0.6646440376110974
-0.9157903177248343
-0.20079202483911676
-0.4369243965316488
-0.3965996367419311
-0.0121330262338772
0.3490932490411209
0.3202654007226128
0.038141545326055765
-0.0931809133750757
-0.8895512876560416
-0.6652510425643299
-0.9165113564560696
0.3825868633866342
-0.5753970633735649
-0.7653251057398376
0.5732255537954519
0.6893763390268238
-0.7331101067229966
0.05895865572596434
-0.7992537165577449
0.025216478667274993
-0.3138097815378092
-0.5969996922670848
0.5631278913251614
-0.3535882219334022
-0.42079557462213346
-0.3904893754114368
-0.13333058220321525
0.5599388638930951
0.7459246374800141
-0.11979791737694977
-0.7704855864052991
-0.5867184753103578
0.3434289023662705
-0.05225719752317318
-0.017002218935937813
0.6046467939749033
-0.3338690406861355
-0.5936828570365551
0.05639188954658626
0.33830183996812757
0.8976260713246884
0.7705832271750922
-0.14263303146462186
-0.1337560144009086
0.2980371690566687
0.16348272606303726
0.4671470907171404
-0.028095116415271792
-0.13345666382034382
0.08703235243862402
-0.9037603813519618
-0.344563608548448
0.4231367509054222
-1.010925478170029
-0.6372844591374353
0.8516069121033426
-0.2750623106510048
-0.6296348610789461
-0.27713447507956535
0.19943209831034725
0.31766133059966095
0.3964259919255061
0.8109639535989771
0.9067868944475256
0.8643690563482055
0.19319151975493815
-0.5995200335204133
-0.8856585134981552
0.3539748773650419
-0.6284400963547784
0.50124552307657
-0.1986552642364572
-0.8597011112912074
-0.04678189305824204
0.29169724065160524
-0.8671765055766486
0.2604630471284727
0.8810664435383839
-0.11015818737973514
0.40884424186642226
-0.995926446873793
0.36354963262113027
-0.726250451055938
-1.019121495858968
-0.4542263625874995
0.5731251028463554
-0.4950077339004785
0.2476004207773984
-0.7673662119574188
-0.9765920071565368
0.2469013140439568
-0.903156078902391
-0.11280878429261763
-0.815920245104037
-0.20577918996682704
0.6015826326980399
-0.19955792691541657
-0.670064735138738
0.8122065458767127
-0.38046551452704097
-0.22211130083344766
0.27232153108924356
-0.014253649121267795
0.4072047398263429
0.6943884301406579
-0.2689059988121426
-0.7250267874810379
-1.2022602791165895
0.6194110956709479
-0.9371827504680239
-0.33003296777043567
0.42838756322937055
1.0976542679885588
-0.8836806699459524
0.4946343043844236
0.8083993299201273
-0.22509196845222285
0.7418862301177446
-0.4452277637088496
-1.013496441131386
0.4900033478221007
-0.6468442448136895
-0.3197555461022419
0.2863792926382295
1.1785667951155394
0.9144798044986107
-0.1570599951635862
-0.5673979089114313
-0.48984629050776096
-1.1665733906072613
0.8266842824071303
0.2952975732611144
0.8412937444757007
-0.629317600080331
0.046075534419134305
-0.8256020397198282
-0.944044144481591
1.0792772098172052
-0.2402486970893733
-0.039458659805234886
-0.9941550868389815
0.040544738328913144
-0.18318849726786862
-0.45264840246819
-1.1912054094512214
0.9154896502068701
-0.536439278458942
0.3661702564261261
-0.8136843303160243
0.32720306148376394
0.611932005094584
-0.8266269998652463
-0.0833108587102613
-0.27173057982005566
0.8923316217064095
0.48665161767421755
-0.8643219864855557
0.7779041640392605
-0.8359535682983557
0.8044553299454844
-0.1676594712617748
0.21723012770588296
-0.46474886843720553
0.17923095715545448
0.6100128106535017
1.017873208714971
-0.22292908993260446
-0.4454768901323028
-0.46657888130063596
0.47762803729237924
-0.693656993270299
-0.37453989632877327
0.047123060973309434
-0.1260123418477203
0.34882630407200654
-0.28881108421461826
0.4648906488712355
0.8423693213090544
0.2158577202628839
-1.030542135595089
0.41762480784915057
0.3022293999384103
0.8131186741126031
0.6373060724218568
-0.5729878638892044
0.7026130045957323
-0.23857030145439437
0.35825106209840646
0.47666534496475893
-0.006527422835322108
0.18576862457419485
-0.19286845813418285
-0.42196721501066503
-0.31491041419731536
0.8211563521717251
0.8503424071754916
0.027301887809998343
-0.7198999091771752
-0.6025346858451044
-0.16427367642110458
-0.7859560176446202
-0.34579888510356344
-0.0323997701476601
-0.2886516240312717
0.4705720107706465
0.6211995761145528
0.5358456889543689
0.32863124442239167
-0.7557022465244191
0.18928081888084292
-0.4912174729295255
0.5921374070187979
-0.14089194174083416
0.31989983328350263
0.06062528812341144
-0.2509491357382972
0.3190074101227431
0.6146869723587913
-0.6853271749670723
1.0941458256576058
-0.9909224515326894
0.2225109115299289
1.0200373105223726
-0.42190938738882844
-0.6892481396844542
-0.8971060806825512
0.17998596940318654
-0.4031393549915003
-0.31993046364269184
0.639468071956518
0.8936736814417453
-0.02541862059584156
-0.47830455833460184
-0.9544171591347728
0.014056330533087316
-0.9507948153732246
0.23094541287785636
0.5710260240426953
-0.16327548917251525
0.206527584449873
0.19842919617392624
-0.7535317736122289
0.1849837262160645
0.666646382244868
-0.5468775444643801
-0.45819988982116133
0.2885696013757716
-0.061227684603787164
-0.7615071265498079
0.703574009364418
-0.7123258880435516
0.5801767816621567
0.5408160391540404
-0.6850416210744095
-0.48763087316722076
0.31882815403276416
0.5811441396234183
0.30005112245124826
-0.054833456354194524
0.43964069939120887
-0.05809117372586943
-1.0816389225952145
-0.10480557308670678
-0.02387997556153272
-0.9433437644071446
0.9327190892838497
0.7630427239782142
0.47547541428820794
0.8742804027041474
-0.3843679999722574
-0.5370217604680665
-0.6020098556751996
0.7502993584429967
-0.35368133988027894
0.051794918284850236
-0.7422694524661516
0.6274815695676562
-1.21753849565247
0.6869610005953849
-0.18678439347794798
0.01449385537399342
0.4610229839341734
-0.5844439194720209
-0.08853249341514059
-0.2382482827523531
0.5664128859515216
0.433667668024098
0.009481626781551449
-0.5255276156111796
-0.5906034721896422
-0.761841443829478
-0.7991081976653991
-0.36040008961032477
-0.5364881257757468
0.2384851449014343
-0.7153026077607162
0.23991667106175485
0.27733491155147244
0.4204305101615446
-1.0172470401906266
-0.7057014351068663
-0.737657695760975
-0.7493421307163044
-0.6249038192271181
1.2415037681531804
0.15618685164280632
1.1356569021379608
-0.8055115343855722
-0.5157377200935723
-0.3117086574305642
-0.09096432230399237
-0.7289504769603848
0.49747590215475757
0.12230918679494344
0.5468432200080613
1.5695455458223886
-0.12202782017882846
0.24134062361651765
-0.9189553509603691
-1.1871825858734877
0.008334379534946673
1.1191435823494262
-0.04349778793823127
-0.29159050494930117
-1.0000997617900937
-0.8609847143544709
0.6990354518581291
0.5658400732110423
-0.3566771738986033
-0.6027101615208337
-0.22465111513983793
-0.18773291057093772
-0.3437144863982019
0.6006722161313174
-0.35693750282361497
-1.0385364235915706
0.6826624690972093
-0.3468564710285331
-0.3216097211613479
-0.6927816407792805
0.5873335771932363
0.8481455492509633
-0.8875520212015683
-0.4349204957297503
0.7460777532506486
0.28012270225948116
0.4929169413496784
-0.11315923075496132
0.28446604222379246
-0.34980119184943714
-0.12741851282526534
0.6241384798840823
0.5896012345846179
0.29448815283583096
-0.19752458249709343
0.3873391697109441
-1.116029598205217
0.1258109639118456
0.16038219242271126
-0.8450010778554792
-0.6081299540125292
0.38298089892875237
0.7940643619726493
0.8388388198130731
0.8906898509995539
0.5817382302374422
-0.5131464720273569
0.09185289150649312
-0.031269141757297725
-0.21733079216887546
-0.3382209689345796
0.7541571729341887
0.6244507256091079
0.39409712850342027
-0.2602335983850671
0.362701158285184
-0.4827610921825578
0.8659445090006649
-0.5109068517112247
-0.46079978663637455
0.15259636361169282
0.26568016961663277
-0.20915215606091928
0.38572663534790785
-0.9483971380688705
-0.5664560571884423
-0.48062656313566726
-0.8412271397925232
-0.9464693267110005
0.47729266334647924
-0.2765446237590916
0.17277014884341826
-0.004962075658709861
0.6765189427932072
0.01796621771057803
-0.5329928040383036
-1.1404912832617218
-0.5918015286241691
-0.7089285138434721
-0.47795573891167864
0.5826459053773595
-0.7566613008192099
-0.5070371977903736
-0.7523760706086295
0.5025762271952845
0.36929095741391227
0.5247125275313721
-0.13647140125495066
0.21827353102356548
-0.87483079940909
-0.4837189628015714
-0.5691051367976493
0.6478658894461158
0.5751861830407076
-0.1380144448606349
-0.2624178381626286
0.03369112381005332
0.8347065828188923
0.6040666437741444
-0.9434312978134674
-0.6261868909093145
-0.9466193094338876
-1.0215328813209292
-0.0545421152893637
0.9167947348263612
-0.2363086694740854
-0.5905285126844798
-0.45650358080046216
0.35474474323377664
-0.5721343059633398
-1.007140377417273
-0.3059594801811248
-0.660688958723816
-0.40502120591841134
0.3389944859838657
0.5753396532436579
0.12458911111964194
0.49323350176777714
-0.10672281870034855
1.0070634797263214
0.5503257302440939
-0.3737692484405168
1.1114349661080647
0.5668351846251789
-0.34565571276371976
-1.0545398694047912
0.4822928407680541
-1.0118118962309541
-0.1267237189364439
0.24687333152855265
1.215449308278769
-1.0091704054155373
0.771986969394633
-0.5985771678045988
0.030603729276113156
0.8711893718156255
-0.7023196494804047
0.8573366183900218
-0.03458068531647017
0.8413545292924889
-0.5921937336015374
-0.6478545856244908
0.7797609710031896
-0.28064769854645266
-0.2945297537464635
-0.9492673896220793
-0.49805181317729363
-0.7426498383622543
-0.8419330797136372
-0.8481955738102107
0.001186190605855869
0.19459326931230633
0.24784517387342853
0.8396977740910039
-0.03939061759451849
-0.11215056737515919
0.0037967463972824363
-1.174335783430781
0.13344992412370044
0.7124833219577711
-0.8901297826108405
0.10217357233654246
0.7631427605983845
-0.3261104553910675
-0.48862140610691385
-0.054685149388656824
-0.6566142985322204
-0.9402691333645036
0.7463347844851165
0.537903475990554
-0.40124398012939666
-0.7354406817527342
0.6583098325645034
0.36268260724886325
-0.16095514712394776
-0.49301677713907593
0.3456427699553723
0.6568032451255592
0.20957273060742423
1.0338956210564467
-0.8443243744229544
-0.7973185539896772
0.6955623250005921
-0.39001161098289655
-0.0938453259103516
0.21543552200057406
0.7692261637614696
-0.015304878844817502
-0.15394959942095027
0.5114340388940787
-0.7208756955929628
-0.0910663998355163
-0.7397125048323882
0.4868190298747355
0.3402597051048205
0.6824586026159036
-0.7824375675305147
-0.31594206463862556
-0.024507612797337916
0.37968596178077363
-0.4694817331245117
-0.308759981782774
0.045740127391226536
0.4597865640024017
-0.3601248099520967
-0.5098444863834666
-0.2930491360250166
0.22239417607615566
-0.1599939073987275
0.4094157102818994
0.5718177261309519
-0.3572106503610471
-0.10913153431149991
-0.09937173140692268
-0.8021226926492673
-0.9092837528118708
-0.3341075881575438
0.09063499077580109
0.4873630617910343
-0.5513032830640483
0.6362601250301331
0.18148230770446128
0.9244615149735801
0.7279137404455325
-0.5679771433697692
0.9664746640715154
0.6235599837042098
-0.45576828391905777
1.066155885586655
-0.04872006670252317
0.3794210755168329
-0.7022936789389032
-0.24739943126886593
-9.066211135630234E-4
0.4024122397369552
0.6074873556366689
0.6228203013069852
1.2753130512267972
0.2718725359396648
0.2742250439851189
-0.328033729725516
-0.859773665656047
-0.5495927421990203
-0.3629803844366446
0.7215198256369492
-0.17856288707136073
0.6229519372923324
0.5093282330702091
-0.27925507065636523
-0.059095777608940636
0.8899013053802696
0.6374260743129616
0.6761891411059717
0.6008042570738911
0.4746560245512791
-0.5632730209170509
-0.9179648664845175
-0.9805285527827966
-0.515406339469819
-0.7495974002138207
-0.3772458823405965
0.9411485482062185
0.9243391510511357
-0.6716765101094797
-0.2694612505314945
-0.5414338278358304
0.8487211270287136
-0.3793522123704248
0.6572065070176575
0.8372216286074351
0.7216322566928075
-1.157375180392316
0.5882163560464776
1.1207487988736464
0.8481909778367686
-0.7589471671608375
0.40699919217125274
0.46764204702133927
-0.6497900237103497
0.23225328097161207
0.6309622614765963
-0.9226777612501048
-0.12155079302815212
-1.0389810308705651
-0.7109241972526416
-0.49426812276542825
0.3723116257602501
0.8149892653875956
-0.20889202909585786
-1.0134340248418683
0.41075868395338
-0.5526182200558171
0.6165058528877646
1.0172094187094254
0.09778050369481633
0.31590000739094615
-0.3187075315274947
0.5236018048970844
-0.8518408977208957
-0.23579931384269176
0.8084026457570095
0.09927232102409697
0.598927761433125
-0.0052553979189010405
0.5864065866006276
-0.7836087593559866
-0.39873474609162934
0.2609484499477479
0.05870920093604966
-0.11074505713268408
-0.11390067416281933
-0.5275440830384756
-0.3236362009695765
0.3584164159764612
0.5159406196859816
-0.7647385078681389
0.03989229998138163
-0.47170148199289585
-0.40893936036226797
0.8798108877767079
-0.26087296909442387
0.3398215191426348
0.8212025830641577
1.1768221628447688
0.3314812901664888
0.42183511724940215
-0.16729258306284273
0.477770675276626
0.6750422312675146
-0.2601184871657891
-0.31394790643882886
-0.8787236912394673
-0.8640473419961092
0.9120666050795487
-0.3936341264318689
0.9289602631763633
-0.28273331874407
-0.05538454708915533
-0.6101050413727275
0.4993644592468093
-1.1177811456618516
-0.8054981877005558
-0.46690795414377073
-1.0973511367117057
-0.5017052639299848
-0.8643793291604691
0.009619664147640254
1.0255439283331906
0.6133545907520476
0.42003219139483944
0.1688593623206645
-0.9301606190203723
-0.5190482721629069
-0.34188677914649024
-0.19953940292021438
-0.44748202910990154
-0.7063402228137086
0.3395696694664254
0.8715001429498993
0.6637195168341286
0.21736907356256252
-0.8498145608683555
0.1304789685086543
0.4522794505488322
0.3663980856647183
-0.5622802869584599
0.468968178490922
0.2576061773533871
-0.2749488042002775
0.9068448136138337
-0.5726750105816546
-0.07916284680958596
-0.012869513978988986
0.4264168130277769
0.8130033423109649
-0.4910059928049313
0.2642090938244544
0.8908508597694247
1.101508790336028
-0.81351363867186
-0.7663689597641358
-0.5540833207363478
0.22308633471977293
1.0981692698034253
0.11823307780674501
0.25545993380690396
-0.7260494897016886
-1.0227179051195365
0.9127611693530293
0.15246128501823009
-0.8731613089936948
-0.688643609344006
-0.8483256613064734
-0.7210599371998283
-0.24877973039507406
-0.14396302520335427
0.2739901670815317
0.02518819520498962
-0.7403534340322859
-0.7495446106610405
-0.01117957782016453
-0.10953196364875933
0.740187030591604
0.3712607737425537
0.6233855301897745
0.842327970900065
0.7474121478887344
0.3449642184265031
0.3151332476324827
-0.1449395218887917
-0.38217435317549253
-0.7073727274922428
0.09010891085395066
0.5944242252718471
0.5469973698733994
0.6028329641844802
-0.5642891282922601
-0.5273577916386041
-0.14663403019698473
-0.394550990020704
1.4309343520820874
1.0320953353912203
0.8757440825638739
-0.7339697802735532
-0.68752239049591
0.6782391349401234
-0.9124418512779005
-0.25896024278632757
-0.35382770843885825
0.20092355235577983
-1.0411802729419193
0.1324353468257563
1.074120826855546
0.5727989779308448
0.2740757274072345
0.42541109397099075
0.14119650605208006
0.4129895066334046
0.5224311523217323
0.05291759216440015
0.30596626376126285
-0.2426741680100504
0.17698957497715612
-0.6062015155526266
-0.11199752340119565
0.7667154002206872
-0.17532274904818673
-0.7017690812282114
-0.3409389221969424
0.6486623066303927
-0.5196743941660633
-0.5492812302407115
0.03162662987212927
0.03638971029593813
0.2288364194904328
1.0556161485985194
-0.15762410658765458
-0.08589559379943035
-0.19600800579084066
-0.15999143975265434
-0.6956670346770779
0.92555188604607
0.7637556263701777
-0.6263058020408959
0.8240055970880845
-0.21293917243311772
0.18365928965750092
-0.6516939318469909
0.5001426764240827
-1.0670523673080154
-0.6712108274806934
-0.25334390113360544
1.2255999279649774
0.8291927776631839
-0.042982902732453074
1.0828957767996572
0.7784679656832438
0.7342385823385087
0.2573240615095846
-0.12352304435905392
0.7192746296964441
-0.6955622040977205
-0.5793878007255754
-0.2001322071815696
-0.4107229907390959
-0.8657578867078551
-0.9156160646155657
-0.6159189675690065
-0.43381804478034414
-0.8206240684664189
-0.34262584566440724
0.6471482016934129
0.398515855345366
0.41298395343257494
0.9237282804271809
-0.8075951631835456
0.5722455290346853
0.00876772620854907
-0.32566184181352126
0.1427213549112658
-0.6530826262768581
0.6423118004093584
-0.6939815102178413
0.22021312829167874
-0.3048587907032913
0.3753203409530958
0.3598104310359966
0.5015433027092975
-0.3390182298002301
0.5247722481477837
0.8488082250243129
0.3543827324846077
-0.845397454066636
-0.861895127828267
1.1003061165863848
-0.5891753973905193
-0.680350728270551
0.760557045650736
0.5260655716295652
-1.0167862899431277
-0.8201429391866168
0.5124623774851235
0.15168983558497562
0.6510278771151978
-0.6818597556899113
-1.1863743765022055
0.6958845509289627
-0.12379357524899223
-0.6419502515543325
-0.10693984354185257
0.07950448819993056
0.4716672962179669
-0.8486164938850913
0.25602088887540153
0.2985484014825647
0.5605788532735604
-0.9096027209823048
-0.20105246758581952
-0.4738479038405445
0.17418505945137097
0.89899677623221
-0.07624579126074447
-0.11734351517937883
0.2778795536785515
0.41065937409379516
0.34958541835268886
0.8117718860223775
-0.2768398253560287
0.7866636341374476
-0.24000790138886233
-0.43271583632045035
1.1771547182198734
0.46693501172935636
0.5120706476614909
0.5004406879034035
0.8388691083543159
-0.2546293658248857
0.12695007297845537
0.3054100552287842
0.6705834690258092
0.23230614052566984
-0.9780958602954942
0.5328619766239762
0.7142007742541939
-0.16483756775778705
-0.9947473720476788
1.2296150985951895
0.15781408236939906
-0.2140378538399116
0.7210123417510104
-0.6587073988267799
0.012254403989885115
0.18650777609628438
-0.04087141563232838
-0.5248557588445
-0.09473591801864625
-0.5189353476922118
-0.14236928446202662
-0.8225898034726378
-0.17935734432621248
0.9489748500505665
-0.03001212219920877
-0.5254644158956577
-0.4828247926854404
0.5938160569000827
-0.28077907701614274
0.8072427064708394
1.0023685910654356
-0.4248177888909853
-0.5272618676835914
1.2869965497359457
0.1301481203788156
-0.6057483134842924
1.0632087443721834
-1.1360255423800456
-0.9805969128700267
0.5325045527476087
-0.145495324828325
0.8997562235232122
-0.7914730556886909
-0.2060735961963269
-0.08581267571098024
0.6718709661179236
0.7789337886274292
-1.0930191600612555
-0.6039597110584497
-0.8657660569580435
-0.12641965165361843
-1.006968796435979
-0.04113542834481655
1.0836655686720167
0.13081426854638672
-0.4010474336599276
0.4338206109898344
0.7237812382650888
-1.0385459159418493
0.8254133688984524
-0.34490482860564253
1.2171736489214495
0.12002025306123212
-0.052957356234921996
-0.692572553065744
0.7084249672766852
0.7984009413483808
0.5297979300414789
0.8100809138480283
-0.5658261550478487
0.7127049202060344
0.22691370949624592
0.007284155297252508
-0.6366543361022641
-0.570421402567418
-0.6496344059530317
-1.0673677060941984
0.8244974726437807
-0.4070026032775744
-0.8881207281613717
-0.9095513250564221
0.07296068886174806
-0.36006566895822784
-1.1470913802926945
0.49169546969589295
0.903751426610246
-0.5664824651946331
-0.669888760595794
0.5757930810063435
0.18335821332638996
-0.617745489678927
0.6562439042304717
-0.5686035246208311
0.10831260166166898
-0.449519749224005
0.21089962200616105
-0.8301831978268267
-0.608485094547371
0.32219567498158663
0.1655001596218292
-0.2913796566628996
-0.2839864000298492
-0.4590167687220238
-0.20810574052340228
1.294576951028525
-1.0525046737748076
0.3871270022129862
0.5104634743349804
0.4562728648911444
0.4781037841376992
0.0894938065783781
0.406750712241729
-0.5461175705527078
-0.502554523709714
0.2974004084801405
-1.2639112097729175
0.6908104065069692
0.7013357606550576
0.17274319359388174
0.9060548965086179
-0.016556855706169014
0.4346619129899837
0.017807519726988224
1.2197078685142035
1.1412331926359465
-0.9355120464618487
-0.38174678966075953
-0.1910372128710969
0.021379195561937375
-0.9422229880395581
-0.31404329695655675
-0.880396033434038
-0.8751165711752958
0.39335047416732716
-0.1715567216258524
-0.010404169187919587
-0.18335382979243095
-0.6240910553239555
1.0863684784326075
0.011564607688998932
-0.7878199721841361
0.5137185815030121
0.7426233136302506
-0.7168012386138811
0.5790853815475656
-0.6304507633170983
0.00878767264845761
0.6554271029561288
0.8802550280928036
-0.44409967227288605
0.9291802425478766
0.7087984392564385
0.8372999176454005
-0.9969237892585796
0.5228563250535814
-0.27927386233441237
0.11697426422799713
0.3420414124790178
-0.22348603918044935
0.20082555465938076
1.1251115796475406
-1.0061910282242894
1.0161083569303928
-0.8433985838804982
0.44798851761921
0.7119691458237425
-0.6759664151118346
-0.742657879207674
-1.6885554834140948E-4
0.7008267008504919
-0.7333629911549204
0.19360346883493806
-0.6177319253470767
0.1512808363385919
0.9416939295831358
0.42259347442803435
0.7658380128596954
-0.4809461524865259
-0.7723398486627697
0.8191883697708411
0.22080402983500078
0.4317510690274077
0.04654933272912402
-0.5896715797952929
1.216026100261046
-0.5552548161644115
-0.06066017659249784
0.1444510721761934
-0.10102024439763932
-0.6668951309027034
-0.7068488936611298
-0.5226257931796127
0.9153363615617873
0.05644891752246195
-0.41350291646750975
0.5921757163167823
-0.4791286188277161
-0.7871961422418187
-0.2912177731822898
1.0977329908691378
0.8550435153675447
-0.06656386420918238
-0.6613934990402167
-0.8411772586963622
0.6197391924978329
-0.8502305063411533
-0.4374575478190331
0.044091201932573876
-0.3269428785880686
-0.8017960008461775
0.5872503276747798
-0.7046397697650599
0.055052013967768515
0.5923868768849562
0.05106584319567081
-0.7628790171795896
-0.051605841558890586
0.027412649379794554
-0.627743845512261
1.0489617139478578
-0.2612275375354442
-0.35099362007926266
0.6948946704578486
-0.469484756180097
-0.06437285855134567
-0.9751681666969237
0.6153191503090587
-0.6549038719627535
-0.38558486651069673
-0.6376851936644071
1.2574079758237353
-0.24950443084539153
-0.19221875008419737
0.9609166025501028
0.34878618700073827
0.7805690215077754
0.46710844314535166
-1.171911701801352
1.068263550544518
0.4701711378038601
-0.024965908056613376
-0.5290668821240669
-0.9140120248949205
0.9553009839921887
-0.33927115211632713
0.6189252228592514
-1.1776585452414234
0.02113277062070175
-1.0907699785344835
-0.761050725186299
-1.0380394667757302
0.2581444001440776
-0.5560536675182055
-0.6761368682510346
0.2571945170795308
-0.27578922661459615
0.6428515415905152
0.3453817339895244
0.7727772635933183
1.1194583744319093
0.7110261909117955
-0.1895535598104292
-0.1921431418775072
0.030377928638644445
-0.9158508570328612
0.8259795276276447
0.049005452458343104
0.8345810586678045
0.5634751257786709
-0.7619343585411082
-0.7154036883457214
0.10751619179145992
0.20924671605962852
-0.8464241909841267
-0.15316634068986046
-0.5016659424846344
0.7078726381127338
0.4843191112179257
0.6307878087363111
-1.2251587178292624
0.47856334561260316
-0.6955728160830397
0.4769889455264652
0.6873803050974191
0.12541760634501625
-0.7407106381840665
0.43710395849649086
-0.4168983839292125
0.8276266380218038
0.046280514739189704
-0.10458824812542855
-0.462600487496166
-0.41754384836707537
0.25353237572155063
-0.40603551810467725
0.7635767995659085
0.3632168855071436
-0.5228272748776164
-0.24962356868342356
0.18608292830159268
-0.2467738639862491
0.8474742644245333
0.2431583282907944
0.6924957680531614
0.20460477176336
0.44120154052478777
-0.4424656694484292
-0.8074188489873164
0.5733730452069263
-0.28095448098545783
-0.262138436236502
0.5057207299191986
-0.6618670210541988
-0.2536692415804381
-0.3164339550691884
0.2749610009118896
0.5296481083322673
1.0034709207236214
-0.0694698164731132
-0.0030509995891632863
-0.6881792309326743
-0.15972144361434326
0.48310859031753783
0.12948248442270377
0.5875948796369419
-0.9657777670107968
-0.5097146286820422
0.30237785703920966
-1.100369338894431
0.4131038781216602
0.0572445025336937
-0.3073697757552904
-0.6630546535501344
-0.25733884890991154
-0.4651329124013439
0.18437191163139577
0.21521037320366068
0.4033860771221404
0.5140653264418207
-0.013965381460974112
-1.0395229497708143
0.8525049952340473
-1.0397728493649443
0.43711044262057797
-0.689778910064488
0.9702061653930149
-0.8098885847853513
-0.46840830458001914
0.5872707602659536
-0.10426299550422652
1.3060249445154153
-0.8327292694586249
-1.2000361170013112
-0.17451792656810472
-0.4264951636846027
-0.07556663246901829
0.029389092077266053
0.3812859389809092
-0.8450537676914887
1.192380012123867
-0.33801529063913704
-0.2701160195948688
0.8252911895045593
-0.3504097852192545
-1.1593978390320427
1.0647765015893682
0.061983818227318764
-0.6292010820111023
0.21952074676817826
-0.33481144768553445
0.16915591181368783
0.49827189297006413
0.21506769589689154
-0.6565001664090229
-0.7423734036564141
-0.5907405536618707
-0.004719112406467427
-0.9984053938624821
0.43745986975518525
-0.862560790703889
0.9082325496874619
-0.35585291132347674
-1.0018978957136278
0.31017667671956
0.8657584238098909
-0.805115379310183
0.10202442050796423
0.7367496347733968
0.5983986902276404
0.6135824278592956
-0.704125608323102
0.16665820539591591
-0.6195270624705449
0.9620951362494351
-0.2647136283445428
0.2063811164338203
-0.8219385780441473
0.48345501411033376
-0.5237458509530433
0.5508629523967092
-0.8306624303042152
0.06865449678309558
0.6972986287701652
0.7027553849832245
-0.13934287122152317
0.7165550796340499
0.877538972022321
0.1960415086718408
1.0117691916970575
-0.7015143212607707
-1.300856101054337
0.4403008699941173
-0.6886020108686073
0.12974961359122236
-0.08405966355324569
0.7701824378263205
0.5986499803070128
-0.26556325123229074
0.03854838867362511
-1.0498913863063446
-0.5862348951933074
0.4276556488689565
-0.10090509622345695
0.6683498447754723
-1.1067888394442433
-0.12714268412310303
0.7967286063264566
0.4903782168467842
-0.17920783272944285
-0.5225588470184692
0.5543484122237878
1.0804429927720607
-0.5024924061132316
0.21868429440977202
0.14648448639705783
-0.22211688503114377
-0.773270377823791
1.043562426966785
-0.08732647441328459
0.4713345225597123
-0.6988602786565731
-0.5921033171289105
-0.6309787454396812
0.16145846129924074
0.45526964160771866
-0.8220674200903761
0.9724696232385427
0.6690795240628548
-0.2177263789762181
-0.5748835857022155
0.11774828044977662
-0.34682944587866354
0.6867418849457726
-0.7454393660263062
0.020438184799285667
0.13673576366797274
0.35378375678337975
-0.9855719023205415
-0.5002278652409253
0.23927386357900923
0.2082446745115612
0.5212309397481381
0.832079110610715
-0.33398919243869374
0.49356971617091516
-0.14292135873811052
-0.20069008988200743
0.2499406244420494
-0.7504221741708754
0.5693711153212933
-0.9844014052407949
0.6955931758183774
-0.9675037566771034
-0.6539349760340872
0.22993424251578526
0.822272026785661
-0.501397503733011
0.806961131847179
-0.4798296492734439
-0.9722358271337482
-1.0364368856608166
0.2711176185052371
0.33627738153941267
-0.23555871354661373
0.42264620921454193
1.0250757888678252
-0.8813392793708723
1.0100655435238264
0.9915045144272254
0.9077885562920612
-1.1838654080767492
-0.15935258519533807
0.281875462955527
-0.9743910179896832
0.23437287066435475
-0.7473031504075507
0.3263834492174156
0.438096503563232
-0.6735955789188133
0.061320465343545384
-0.9003170948925944
-0.29187563355575996
0.4131999227921425
0.6735828799688832
0.2704485810722776
0.22508212798788982
0.49960461738973816
-0.014682817376605768
-0.735360556378918
0.19853609565678987
-0.6435024171682702
-0.37817711211594374
0.06357046983939067
0.6133836903332758
0.29451289818641424
0.18826389141474598
0.09281103518190015
-0.9256347491130406
-0.31739081803186076
-0.7738948838315468
-0.30171338993738417
0.15830493629068315
0.9463216151596673
-0.18509468662887174
-1.190102027050078
1.350585559310393
-0.31791605323594424
0.8162558857378818
-0.8171024125503922
0.6032151271545104
-0.5995427885370095
-0.49256566801755464
-0.34187761309695863
1.1285606284105025
0.04726449699980611
-0.054914055338326544
-0.19859751576629903
0.5198965050120209
-0.96725826649356
0.6883706998998517
0.7618026535004913
-0.18692044424736165
-0.28455393158963616
-0.4269037549373796
-0.27577369662061035
-0.008562299366570478
0.045726783470294255
0.015404884488436958
-1.3250865760089356
-0.3533314559322793
0.9221211075110638
0.635813267201862
-0.6920372016847373
0.5917499257257183
-0.769103060641752
0.4054906328421973
0.4586943394586831
-0.10160834986480918
0.06761527254461322
-0.6990629524575798
0.453475943803963
-0.5958390631423717
-0.5802770859054791
-1.1788661242926295
-0.287993582098974
0.1098882567393134
-0.9774885180793442
0.2347883593003861
1.0091350872147629
-0.8914139723111328
0.2788954993285661
0.9548811425272963
0.5470281648447112
0.8072834144390281
-0.9046640951531878
-0.5058795994458839
-0.9034741556333539
0.9003640538243164
-0.7634008251462622
-0.7994005350466283
-0.4227927850768041
0.9932271276898775
0.23787353705676187
0.7492434632421267
0.28361632077670235
-0.07756102179831982
-0.24672335876215423
-0.778714744109879
1.2169856757938629
0.8037559678537943
-0.03355098269294965
0.3887887268571934
0.21021161634292054
1.151221490752798
0.6303230019712126
-1.012925440152848
-0.03491043076213238
-0.6988468649350746
0.3149317323655771
-0.8496375895525798
-0.2776412664869717
-0.8619007925522982
-0.8478978290304673
-0.9438126924675364
-0.0022616631081996477
0.5074517153542615
-0.2834128652180705
0.8568591204276919
-0.6012513414546755
-0.7329437733076338
-0.08122440520251038
-1.0364431105631497
-0.04744758737143879
0.5861327456768596
0.7610221796268425
0.4089349644932615
-0.15967268501024198
-0.2851661585289438
-1.103058712500478
0.8688242784861187
0.8262859944675208
0.1431038347752748
-0.6636762166012506
-0.23517332599811225
0.13495526775435593
0.03694975317553215
-0.5741461441180775
-0.7032990635445836
-0.027913444681829838
-0.8706697972979635
0.5018322037589673
0.27513756789286137
0.33478008043614244
0.28006522434748293
-1.1309110931225832
0.33024235173951494
0.9411976082455773
0.9900162805498107
0.6552937000244331
-0.369362969861239
-0.13979917790524354
-1.073829620869457
0.20180958918995148
0.38068340884216656
-0.6562138704622414
0.737477879716004
-0.18583080704911392
0.48489143465517826
0.5304579964413304
0.1729996373623719
-1.1798508972557198
-0.5652683232760324
0.3157004172933867
0.36983583583732665
-0.8716071529527221
-1.0314634320030445
-0.45255673589178086
0.20581082347686097
-0.06634825863254962
0.107849176243887
0.3859293109371089
-0.2620346239852857
-0.15910134728216974
-0.9927853014388051
0.1496405474317754
0.3313007357134633
-0.15147550927984754
0.25453733452388333
-0.5862625538168496
0.19541052039469894
-0.30988497728055636
-0.5804386179467402
-0.30809203478681835
0.4574540687821013
0.24314946688692352
-0.7799668005502916
0.5097124459956909
0.542055717800533
0.4504251494416264
-0.798148325501895
-0.7910250692312061
-0.4880781335207972
-0.47317859953517505
0.07582751481109541
-0.9655612289303398
-0.01542273545181718
0.3913430187719406
1.1176157032982243
0.9479193962144683
-0.02453171431743892
0.6474603477709714
0.0708678706909243
-0.4799092163701749
0.7087234100987349
-0.2910873783476018
-0.25080200332954666
0.06482750397216726
-0.5705174006931305
-0.581255296048041
0.57088021761709
1.1233191000376797
0.7889312788692747
0.7398815535120561
0.7100746115694031
0.49470254867873387
0.1988479743700369
-0.3566105304870905
-0.4850791233675077
-1.0720134167746125
0.9777062596504089
0.9893168112490214
-0.26102059113624637
-0.36659902369765496
-0.30555404725122526
-0.0740999038247546
-0.7501495631176611
-0.33473626381644017
-0.7697332387834817
-0.2786262334934929
0.4693649261760793
-1.13145347813532
-0.812537529080842
0.8195985850652743
-0.0923041601464217
-0.2596097857780195
-0.4025589789366784
0.39808232812873223
0.3453808950574166
0.8621940452091701
0.4554744940437351
-1.1264195013900886
-0.4563597025968016
1.3613134901941537
0.9172087922933384
-0.7959413404491205
-0.8272605723048401
1.0053847563532048
0.8638255420476614
0.40995850491031943
-1.2042900729459731
0.45832431933805357
-0.11931646283489075
-0.20158023289858973
-0.7758025253235441
-0.42341732942427884
0.09418989297723782
0.6426767265720078
1.3988008923646533
0.5562954363236307
0.6072005927142607
-0.5230125289126364
0.47224691765836013
0.8829496327924304
-0.5026332408678492
-0.8074728506023444
-0.7391658768351069
0.9155383563514415
0.17488128663050906
0.8972836471844924
-0.45150858308065966
0.07502409369586985
