0.6311148867092253
-0.18025899895084718
-0.9461421454833948
0.8771288698135277
0.9773610152227558
0.3507831630572459
0.5711753310691772
-0.4442548584219571
1.628161753088567
0.8204991387647548
2.7969109332294058
-2.202054837207097
-0.4724351105744621
0.9765131244494089
0.48428579939722816
-0.39003034100154477
-0.1903670983537581
-0.8304020878597727
0.8949042942324957
-1.0903996299311491
0.2098445352183408
-2.2513089437477696
0.3530745744146716
-0.8988245502695025
0.23080090991875024
-1.4148079440511525
0.11387346721361358
0.7208909897775609
0.03756606075484081
0.15105797322741388
0.032994694458917895
-1.2659085070149234
0.38992958479535855
-0.04302577295203969
0.2893535336980628
0.7161395307769136
0.2002004266273587
-1.083172761702363
1.792198758562049
-1.4009507091783613
1.1783464311127432
-0.9076301833934219
0.7674530937801868
1.0839745956928275
-1.031240216693719
-1.1980068725575417
0.35349768862677255
-1.4379089894739145
-0.8376051371488548
1.5869788725083507
2.7452473911161217
-1.7569491508713209
0.6259148275909574
1.8301092683784623
0.8086494377332146
0.21345314138832272
0.3775381478376546
1.1514120247001065
-1.0587205771607602
-1.4194203816872895
0.5354840481019707
-0.232438395297487
-0.10676306079223141
1.3369860096706037
-0.6261927433246368
-1.3625683799337094
0.7838827706340207
1.7705105986318728
0.025607494728167923
0.29249454182433365
-1.0031151177856295
-1.4326173076819915
1.7808629701613503
0.345267666398658
-0.22060337382534012
2.3654214116058148
2.0619771136308676
-0.48091496530068834
-1.0234441066275073
1.5183761139455956
0.9185785960218477
-1.5219363948355824
0.38905595599634624
-0.18957199138242253
0.9574008212303311
-0.6330104599413671
-1.6702981581599081
-0.02134131630555247
1.9439983736181803
-0.4613815765102546
-0.03320067259994208
2.1890727506676058
0.47019385515349255
-0.9795725102981764
-0.07800009374337269
1.985451050657717
0.4226207069687936
0.4274571378816674
-0.27902008783184895
-0.717268578207455
-0.16463929872567418
1.0223007287726154
0.2521306510782566
0.7088944599395709
-0.8492461452024469
1.410226822524999
0.1777201268875448
-1.4412278012861792
-0.40160632924089745
1.5632575655907113
0.10103343662985576
0.11694915785003579
-0.23010568981202995
-3.1995524934660264
0.3794398572714638
0.45737028218583387
-0.6370146981108011
-0.038976287283197686
-1.1813417058336364
0.6773082077591177
-0.0754443944774078
0.908153379910698
0.279997670791325
-0.37815022029849865
0.6500643842643224
0.06292363197526085
-0.28221029219782856
-0.34005797082973377
1.2191094151548154
0.8747243559389649
-1.640410114849641
1.5419097367801933
-0.6263252493655072
2.494316373201911
1.7059207659864228
0.7460154258398395
-2.0405077738639696
-1.476540418257184
0.10953308723408728
0.8254529954312261
0.34441430346210444
-0.14953232034161734
-0.8362902818750281
-0.03546949300605373
1.2412275796368082
0.1605234890578121
1.18576738366713
1.6335439783301204
-0.021784367044602848
1.0515454711525445
0.47070581091065644
1.960220951097709
1.2983071195168192
0.5882282457389497
-0.19318876609474855
0.7206496684345386
0.5454743172116246
0.9212603451982817
0.6659777881540149
-0.46758874280166485
1.5893316682054688
-0.17723032728306265
-1.6485515290706825
-2.8918427919071146
-1.1990505837611796
-0.4284738199879713
-1.192458806813653
-1.2405813982849723
-0.2901953703365948
-0.7717530306476055
1.2389758072596275
0.2421468567709062
0.05644986539428898
-2.251462348337823
0.31149984726491153
-0.09500955569748215
-0.47527711540620965
-0.093305863767287
0.23277990382353153
1.6838864057980176
-0.6627991666046892
0.08040505220039873
1.0196910244612538
1.4197350948957994
-1.0057528325722391
0.26271244278831685
0.6803246008151722
0.7110862853288873
1.4323416730418115
-0.33317984648182863
-0.644173654107772
-0.4035021156465174
-0.6239499283208104
0.5888612737701987
-0.49887712389228656
-1.9271798669603597
-1.221995449319347
0.7493131549776728
-0.9702804827211713
0.39276339201986366
-0.7146800790569267
0.9306694648037033
0.2813096469099847
1.8410332234785245
-1.2266137907569532
0.4240952331265434
-0.4278737868136736
-0.8025643492668865
-0.22396370765627338
-1.6418315978954232
-0.08628002003031054
0.5152555252035658
-0.08534029828843104
2.735969563563564
-0.23080417262128994
0.6047021946696176
-1.2374942550565033
-1.2518349033115328
0.7048431662725846
-0.7403757709586847
-2.0784978192465586
0.27818699027322713
2.1814813987552917E-4
0.7865810343916617
-1.382979808965696
-0.9394100301160858
-1.2828159395618748
-1.315825281207501
0.1631908494044365
-1.060784840161796
1.610716704332465
1.096380957588631
-0.9124841741102017
0.2757494233510711
0.6007827390353212
1.1196054594686828
0.2692162934687423
-0.7640097226833109
-1.4434144324646692
0.1326354438657017
-0.046530237980136
-1.04226206564999
-0.7607097533613926
0.3890080723128667
-2.862765891094815
1.086626691075173
0.8699375150305199
0.5554857345910305
0.3120529574308136
0.9254444166636779
0.5345203921444645
0.43016113337973483
1.055675195436586
-2.3239467305594026
0.4608431566393756
-0.028160283292615773
1.2285159727586097
0.2207618435194415
-0.5728712295417109
-0.07219704600605326
1.320818056951531
-0.3701472863244084
-0.822346534089949
-0.10283948097774076
0.047482859103415764
-0.14078472677790643
-0.38768971557454934
-0.6974496909595628
-0.458639243864433
-0.9699492588433969
