-0.9379539541443032
0.4946211653725685
-0.12405989599102601
0.09907267374658638
0.09015539738006137
0.22122123127182852
0.16159154676013643
-0.05776350455464252
-0.28577173649091175
-5.776139893625687E-4
0.5168743546003352
0.28490445026476907
-0.21779969165844373
0.5436364946826242
0.17816808420982713
0.35589282636614916
0.6805980678629151
0.07125361950081398
-0.41658007660912433
-0.4235569838037475
0.42009361094903425
0.18787202274227038
0.19926223901486334
-0.5973054525886994
-0.36491386974242146
-0.03309385564609006
0.24356104820491561
-0.5325413108540299
0.27787630959151594
-0.21446172396098465
0.018434991552193546
0.13932263981735765
-0.05633586804342059
0.2900876530976847
0.07244899493495696
0.23467749119816744
0.11223352047803911
0.34838788696847905
0.5734101784650654
0.07578143253904261
0.48780664274126345
0.07612570324348286
0.8672341424611598
-0.05120089143172649
-0.04261616873469641
0.33139771072273766
0.0011133447446295824
0.5793298217652423
-0.8674861445194446
-0.3835814100665871
-0.11584189797188876
0.16653412144211982
0.5715502692441468
-0.7728289042904837
-0.5543594999314658
0.5660689743602404
-0.37205774329958224
-0.5625191075647145
-0.22185272252311622
0.7764967303261868
0.06956444011474003
0.411756554801627
-0.6736190044654968
0.04032807205979174
-0.46277228332616444
0.12882992108367106
0.8137204222241131
0.17370395604985822
0.48721299551432173
0.2563704551415253
-0.7479937043269359
0.18825221614764048
0.49329607381299745
0.405361886484855
-0.29709292660479436
0.3159908327789659
-0.5331538500853347
0.4667659619779192
-0.30937179318918256
-0.5591593702574207
-0.06354129464215114
-0.5164084595371549
-0.22029804634859484
0.07258756929452771
0.4660001347448141
1.010833885689575
-0.09722396660827015
0.05886444872906082
0.08567467347469929
0.07514906688776322
-0.5530411704544291
-0.9002764144156058
0.2691977340079382
0.1049105867018181
-0.10044159487765637
-0.07236135633464005
0.4625037321755629
-0.48355238138365053
-0.7749836613684615
-0.10283603885900558
0.15961879362318757
0.01813925877054294
-0.05704789019194
-0.33797841580464016
-0.07692006449952335
-0.15388047171211672
0.6056244544063991
0.25829217356722395
0.13810752709206633
-0.18336833687172266
-0.6657815661248049
-0.1354000086223248
0.46794213553324826
0.26491641307830915
0.1824188409855635
-0.33803137430514524
-0.3208113226120276
0.07104848969749786
-0.0627148014342432
-0.010224869078458612
0.6691247582640133
0.11112697119609423
0.16157519657750513
0.3356631274050429
0.4605476861858599
-0.10666018482684037
-0.23381922628978705
0.22692036827435524
-1.1428572062874809
0.7764286284470763
0.22522633398200648
0.04406936042484117
-0.21686546086159597
-0.2628718555619124
0.034889484652760185
0.32223880493731977
-0.15361584988899724
0.4367606904985478
0.07090835250595497
-0.08255835045488981
-0.544861593655584
0.6621308557296065
-0.20525987283038394
-0.11882670748219573
0.1794883568647132
-0.13001379314383837
-0.7163897455384631
0.23991561644983278
-0.007895661373813687
0.8614213741885275
0.3295297857530969
0.13471186531901014
0.016621059204768314
-0.27096638898534825
-0.13593554255651602
-0.14391873796590027
-0.15357507128403922
0.12156887918208326
0.2985394125369596
-0.4663009846606676
0.038045612755914
0.13501984411624607
0.312203884348338
-0.6710821596397956
-0.26223069402931787
-0.6567282717456262
-0.008967830844089794
-0.49616319815210586
0.5056724524471848
0.08306502590870143
0.1603277872608753
0.16294289674533788
-0.08542546951957794
0.39026919632937834
0.17392941336687945
-0.13270398612483122
0.8144587175133647
-0.37033098166247524
0.4617975233839606
0.49436027744756234
-0.5801582445864095
-0.35877068699624326
0.10446100662378427
-0.35487139949195445
0.019345885579788162
0.11002517641076154
1.3221561856215842
0.12549776309326321
-0.17301973432506118
0.18969760189873558
0.8286387091053777
-0.08931031967502892
-0.6400703215664911
-0.18037698080733214
-0.2430871512200362
0.5536955517700184
-1.2029680587046345
0.3417691307393634
0.28425232042034204
-0.0239216741877952
0.13182307753108566
-0.3186801700916665
-0.25037471384490184
-0.32953545203603846
1.4865700168002869
1.0019248699276113
0.2787556141952892
0.5600396227333562
-0.28623593049942986
-0.15092908960906942
-0.5201908116219143
-0.3577559417156044
0.27619093054352367
-0.6178106259296385
-0.43525205444875575
-0.4837725428208205
0.3989542364378382
-0.46730319281361743
0.048698399582846795
0.0027947401782599836
0.39001896439108513
-0.030592330375418513
0.44783405133983833
-0.07332522979072902
-0.7763405268502266
0.48422049504904885
0.617244652621004
0.36646294446260597
-0.7722182303721484
-0.43571780500059704
0.17637400854488539
0.4150323128154757
0.1661610304998768
-0.15676170494278996
0.3997763902234945
-0.8429276111613906
-0.08963047790226668
-0.01885254974639935
-0.48686122593607106
0.3628570307664448
-0.05974515592451861
-0.3952447504526389
0.0585238223578142
0.15270549318444077
-0.10984941785795083
-0.42038524880624645
-0.44289228752807364
0.11127329951309341
0.24964388614096256
-0.47762340754619803
-0.37022713787915895
0.08207497311468108
0.34903725364163823
-0.21107800670804558
0.39673322715146986
0.3190089019251041
0.22165746251283874
0.1404088366257412
0.16322069205676337
0.04227971273524158
0.13064990541776816
0.8909956667185913
-0.1689142190167385
-0.12185537285582508
0.0771448486126528
-0.4670260272783424
0.708914881323504
-0.6329494790272601
-0.5015875266382416
0.1330453144241037
-0.9361215488140436
0.5719068492897799
-0.27881662064181867
-0.6940988017006031
-0.14749428451082114
0.3225757122440074
-0.12087001981877826
-0.138638086708657
-0.5814165844358335
0.18876019661736543
0.22912973685591612
-0.1079352261775276
-0.1021849955898575
-0.6288908781923944
0.336782107988994
-0.44069617994036053
0.11555948111511627
0.024213400636276777
-0.8043669861225184
-0.4017568640704909
0.22372920464826385
-0.1358133095135162
-0.3984063283008057
0.02185112960353236
0.17580180613519342
-0.11448363132062635
-0.40582261538972225
-0.15039845571411942
-0.027567871961403558
-0.5728119049972197
-0.03312242414292538
-0.18834709249060105
-0.6398774042693874
0.3543956049530358
-0.14887312772941286
-0.5437305576933024
0.002493307621449871
0.3520429494492832
-0.8214276711454198
0.11025331434030286
-0.3021512905717336
0.41252619665733653
0.5457679283958117
-0.2010570473713606
-0.014315241011269943
0.6063612188427056
-0.6254714563773202
-0.033857736294879995
-0.6227538006722148
0.021009743188683094
0.5838356873889253
0.24650344786225833
0.41778289472766195
-0.1403023022636381
0.44769854158332606
0.4364291450543775
-0.7038350591712432
0.6218130344798807
-0.2562459957712748
0.03731496417777628
-0.6407759454733745
0.35695431398727556
0.2915415073408378
-0.00764447485614176
-0.3067960829467236
-0.0332280061555562
-0.13315561157254177
0.6156568190208692
-0.5324671623635027
-0.24713349220767972
-0.05495620255560861
0.17043497131915575
0.08120449253205841
-0.7459065999169139
-0.42526636480007796
-0.495766249453284
-0.169622416061689
-0.4125766611560805
0.013107015472806856
0.3793669005957735
0.2622742637709462
-0.559969063391844
-0.29867565848481903
-0.3162949889148872
0.5944261889190396
0.3149824682720348
-0.3112594593262158
0.21089261377058477
-0.5571352412413692
-0.40608353517639895
-0.1428534252900604
-0.11485067738542988
-0.3131402335677707
-0.19037035775882077
-0.1116820062384713
0.16163825186392522
0.29119714038559114
-0.1535819043259634
0.21048155622484307
0.2933076049744054
0.6156631051975637
0.04118941132795259
0.2691102116217947
0.2514903124937228
0.1156323364474804
0.13592009666374694
-0.6340896820748554
0.09675968216045634
0.46315256119568293
-0.01984351952578049
0.2026906331333524
-0.27978972677834935
-0.14874552774716215
-0.7080999549328916
-0.22324937513777054
-0.23551784294481015
0.15902424707866336
-0.057520332865261314
0.4136225483977492
-0.22525368135114796
-0.3125101497547866
-0.14425074481873557
-0.011463883039789922
-0.2950266048919622
0.4279387226734377
1.0543146920752278
-0.2903252964524698
-0.4994315478536311
-0.28372758816691146
-0.1539191118258486
-0.11645128868914828
-0.3214248789680114
-0.2594822526773819
-0.30545310163429606
0.6081592436379144
-0.18630264242844413
-0.45320820971327364
0.1054627654404139
0.6637334714049747
0.15737485785529004
-0.06330534899984881
-0.17599774661097956
0.39051095953982246
0.29508347117768025
0.23271715863821227
0.3370726461955731
5.222043082954084E-4
0.40628744179337556
-0.1473175052160119
0.09746974379514918
0.055715483142260255
-0.20291238526890143
-0.19564147311739744
0.35089865257711983
-0.5051232262102235
-0.25586356719661046
-0.08898102656344353
0.5578707161777188
-0.2514480600695038
-0.22799669993551452
-0.49307085831659847
-0.06531454883130916
-0.693927211296329
-0.30233040592085453
0.4551014184484622
-0.5115743617994245
0.5299269603548844
-0.05814535654907488
-0.3376901605929726
0.25402730676980795
0.7554248239850153
0.33006541067983225
0.313515419477932
0.3156160872077975
-0.650292459680322
-0.38763410189975045
0.06553072103541123
-0.03985955129359095
0.46146478000522234
0.5226486180483242
0.22867004834727855
-0.497939508228304
-0.2296569626687116
-0.6708871065758365
-0.39854613693340707
-0.5630818031655279
-0.3300168051456416
-0.15336780082881735
-0.10237286815018597
0.30380639592459296
0.2580902681804169
0.38746619662489645
-0.5231995421533041
-0.7481343267723557
-0.35108630477400204
-0.14198144831717557
-0.8490418216369934
0.2147332931350489
0.25802650438782504
-0.5034846856313497
0.5779886462737883
-0.2421512366544282
0.24959926404760277
0.11898878857318121
-0.19368302184073788
0.0778953190574513
0.4261836645423057
-0.29879732002918724
0.11991677870947437
-0.27894256817263335
-0.055612509463244954
0.24739484061218966
0.5002625311249107
0.5161842806697216
-0.7660029833383698
0.20611480940429758
0.25732137497996554
0.2845499222661887
-0.5974496330844751
-0.56975071064574
-0.11657952793702783
-0.4614409905964293
0.29853604329179384
0.568852930721016
0.14062073246107548
-0.4144065199960928
-0.5587589288528323
-0.6966138124604228
-0.1768482533066759
0.49989665487871193
-0.5779233240190664
-0.308790572037885
-0.24115957866205912
0.11239438115208486
-0.5008324747187003
0.3597986219511444
-0.1338231644834767
-0.4489334704917169
0.7546795582840273
-0.06689016364379027
-0.09031665838437875
0.22366844729622729
-0.31572633935230676
0.6806535104636486
0.06725601845292187
-0.3756639054818675
-0.08826144946836098
-0.3937515397233216
-0.20194220048088496
-0.007740038758903077
0.8448619372849467
-0.7901985807385229
-0.42485997581367047
0.8805705938872094
0.20022181540970546
-0.053883759968865866
0.5443613695412981
-0.03421571397569572
-0.3634825714014914
-1.0869658343988127
-0.33230779936048693
0.03953153711011631
0.10697766994979871
-0.3377343016109867
-0.885068119890696
-0.2848697997527887
0.7549334747251015
-0.3356529177763774
0.36660317053891356
0.9208590286839035
0.4782910511920222
-0.0022989980760868625
-0.07582866592338505
-0.1347475016387697
-0.5147124408720722
-0.1446377730371645
0.3438923217633233
-0.2958382772697098
-0.314646942565988
0.6587474726738134
-0.549671732358402
-0.5578583424959631
-0.5537216758157534
-0.3474469802684824
0.7336744801297923
-0.22773118663039893
0.007911952348144166
0.4080904850034193
-0.7217919450755569
0.15711476887797982
-0.2863376300094642
-0.3562003835517645
0.024386611412922532
0.3160495855272542
0.1597547333230771
0.3412132102224019
0.49692189925792635
1.504743572961449
-0.22483110465917283
0.08978511909936651
0.17865987104323636
-0.28748191824187014
-0.10271335216113452
0.48088487272582786
0.20394849286648034
0.26380680827062597
0.23384657708101264
0.30073413766876633
0.603095974220999
0.6508414298645939
0.0803047627142241
0.1172540519976346
0.01352917693228408
0.1967833684000872
-0.20243078849960744
-0.8682008539876596
-0.5686670398773982
0.15660600582357778
-0.30733286451047903
0.8478974090329012
0.01621061544477736
-0.07459131132554139
-0.25302786053398774
0.7978667914797023
